317 64
Jon-Snow 0.20599878 -0.3753536 0.13020577 0.18039213 0.011007608 0.23800239 -0.15401341 0.3097201 -0.1289511 -0.4042813 -0.2579722 -0.22665903 -0.41101265 0.0648542 -0.20300233 0.4161335 0.2714785 0.6014616 0.09063726 0.22295725 0.6148137 0.26044074 0.20951676 -0.21974444 0.28649658 -0.56483996 -0.07983502 0.40284094 -0.30724514 -0.005385034 0.08049117 0.009093904 -0.044655688 0.19812684 -0.20792536 -0.25366735 0.13446194 -0.0078062876 -0.23489153 -0.085093476 -0.29177716 0.075328074 -0.25395527 -0.25308564 0.3172397 -0.15051888 0.004372088 -0.04176178 -0.2184025 0.20777257 -0.022338877 -0.00079253234 0.2756975 -0.008318637 0.18799786 -0.16094922 0.34090143 -0.16461584 -0.19530208 0.19142616 -0.30835435 -0.1253114 0.297298 -0.0805644
Daenerys-Targaryen 0.117949344 -0.41456497 0.27479747 0.6297809 -0.22092424 -0.2220569 0.07276333 0.3763804 -0.4890545 -0.104633436 0.1432517 0.0071191546 -0.007604419 -0.04798754 0.14367028 0.19115518 0.10586742 0.122160524 0.042688493 0.643719 -0.04528408 0.5335897 0.3701271 0.1817103 -0.028123083 0.46213165 -0.028721862 0.008266902 0.42391938 -0.42651662 0.23128484 0.20333882 -0.0088727325 -0.17202233 -0.0001106836 0.2962267 -0.05296436 -0.058859788 0.28033373 0.14698555 0.12019311 -0.3717451 0.028183628 0.63781387 -0.01476942 -0.29252192 0.08769644 -0.05879993 0.07707062 0.07396089 0.23628435 -0.10078688 0.28170088 0.4798672 -0.3411569 0.16056766 0.18606217 -0.21292481 -0.14935185 -0.1657218 -0.065197535 -0.049922515 0.03537969 0.56413645
Stannis-Baratheon 0.0529488 -0.38651833 0.15541668 0.008633024 0.44865766 0.0051651862 0.043304745 -0.060346704 -0.16571051 -0.2952445 -0.019099638 -0.5114296 -0.18402317 0.09684218 -0.111617774 0.37962046 -0.10304293 0.32134214 0.109932214 0.046695404 0.3024271 0.32164717 -0.06924231 -0.368735 -0.03288057 -0.17378232 -0.15178625 0.16223948 0.123869225 0.08973406 0.09172042 0.06525059 -0.09494639 0.114527054 -0.19221374 -0.18995555 0.13829127 -0.2303587 -0.18449053 0.17730753 -0.2325981 0.14650226 -0.17763197 -0.14492352 0.39889368 -0.24260892 -0.0050339783 -0.22481681 0.02268679 0.09893839 -0.042713374 -0.024645872 0.08223696 0.20831087 0.21715206 -0.3044637 0.4708615 -0.036029067 0.110766895 0.18637952 -0.0761704 -0.25904953 0.15923294 -0.2851734
Tyrion-Lannister 0.3713072 -0.3749437 0.15406789 0.35738406 -0.12745751 -0.20683064 -0.2883102 0.108317316 -0.56519973 0.13714209 0.3550679 -0.011105092 -0.23267606 0.0038513597 0.08406065 0.22815695 -0.37323672 0.14649521 -0.3352054 0.33301786 0.15620948 0.38332745 0.2622288 -0.06683684 -0.010443144 0.48752812 -0.10203477 -0.13637589 0.20753114 -0.42932427 0.13344629 0.24249516 0.20053439 -0.34947672 0.0016393521 0.1383398 0.09085103 0.5122845 0.06373873 -0.28324977 -0.43841714 -0.053780224 -0.034480944 0.36237803 0.32269704 0.15011959 -0.18847282 -0.30180812 0.18144996 -0.03183126 -0.08913286 0.16773379 -0.03389341 0.44542217 -0.07719581 0.17013703 0.2060897 -0.14083393 -0.19114362 0.09346856 -0.15532047 -0.32489455 -0.0463851 0.22081253
Theon-Greyjoy -0.11375632 -0.56786567 -0.08866766 -0.020506034 0.45592606 0.10818481 0.015845327 0.05357038 -0.24573638 -0.26743728 0.04663381 -0.34418032 -0.358731 -0.30665275 0.3519439 0.23701854 0.0727927 0.28299227 0.2756715 0.3049859 0.39546344 0.11271636 0.017408667 -0.62396973 0.09033405 -0.28133795 -0.12004229 0.5742616 -0.09266954 0.05111704 0.015111372 -0.60564256 0.19368486 -0.011292874 -0.2570016 -0.26546943 0.19748701 -0.3605398 0.023984918 0.037692625 -0.035249453 -0.42409423 -0.4365316 -0.17700855 0.026178213 -0.1755296 0.035154648 -0.2956849 0.06858521 -0.0016855198 0.15446731 0.30514455 0.20114917 -0.17929141 -0.28630412 0.033241365 0.35887504 -0.23477788 0.56047285 0.34938303 -0.54814684 -0.4869895 0.050380882 0.15371375
Hizdahr-zo-Loraq 0.012792496 -0.2921131 0.52256876 0.6099792 -0.030358713 -0.4376417 0.116701 0.34324607 -0.52103263 -0.056658998 0.26722947 -0.07087454 0.011088095 -0.2177967 0.04067068 0.25404143 0.43524927 0.038690932 -0.10156375 0.6478922 0.13906126 0.48238504 0.3999383 0.17314437 -0.040853683 0.47655943 0.13134268 -0.31490687 0.35807702 -0.35307938 0.5221804 0.18576668 -0.17544316 -0.33554652 -0.13356918 0.0904297 -0.23447554 0.17794597 0.4016716 0.22793335 0.03702454 -0.28083798 -0.20494422 0.35806844 0.067607 -0.2511606 0.00755119 -0.10655166 0.023747731 -0.060130768 0.43693587 -0.27854878 0.32925966 0.7319603 -0.36695507 0.033218957 0.17722735 -0.2142721 -0.15025587 -0.2776108 -0.059989553 -0.080886945 0.023277704 0.53076506
Barristan-Selmy -0.014364386 -0.21857499 0.5322072 0.4835503 -0.2028956 -0.47253734 0.075234585 0.31561676 -0.5745274 0.17583393 0.31627062 -0.036005028 0.08575626 -0.24646723 0.25549853 0.22663511 0.36437806 0.0709123 -0.10328954 0.61304355 0.09779461 0.5870447 0.32833886 0.1860449 -0.11969464 0.40007684 -0.13409185 -0.14381859 0.22953387 -0.22923885 0.47838342 0.2191687 -0.16127162 -0.21657155 -0.06500513 0.13058716 0.041653756 0.10126807 0.2816574 0.28105584 0.1030253 -0.20347232 -0.24678904 0.5014815 -0.03452814 -0.25238222 0.018981587 -0.1882093 -0.039383695 0.005965972 0.395754 -0.22989367 0.41209134 0.48921683 -0.3773318 0.06255117 0.18564445 -0.25899184 -0.35538033 0.024827354 0.116396934 -0.3190608 -0.0057809902 0.518052
Ramsay-Snow -0.14426999 -0.47193643 -0.17255072 0.044822704 0.5054035 0.10648204 0.21331096 -0.091743425 -0.37685403 -0.27665967 0.05161195 -0.35393465 -0.028907705 -0.2556711 0.370945 0.25457782 0.23750997 0.19534977 0.035254497 0.33616468 0.57301915 0.026094552 0.06341987 -0.6028539 -0.1090983 -0.08398415 -0.11192032 0.70254 0.013970236 0.16731761 -0.088327274 -0.3888835 0.040220935 -0.06407449 -0.2674808 -0.09970864 0.4255735 -0.33550525 -0.20056133 -0.026589796 -0.11701688 -0.35547554 -0.38958076 -0.19626664 0.28575853 -0.50182235 0.1272583 -0.18013851 -0.027880305 0.10030954 0.09153289 0.1851687 0.38326722 -0.32549587 -0.118907176 0.045961365 0.2577251 -0.28841954 0.3482462 0.36749697 -0.5139883 -0.2922803 0.19039541 0.044396766
Quentyn-Martell 0.009274313 -0.6793815 0.43932107 0.48424754 -0.17478135 -0.38767192 0.0028181416 0.377684 -0.45491213 0.019363461 -0.12389638 -0.18649596 -0.13262478 -0.20405011 0.048180733 -0.05256781 0.5451636 0.11483834 0.065372854 0.6819798 -0.03548142 0.6803988 0.30020896 0.38812461 0.019334203 0.5052606 -0.05875315 -0.076697186 0.45678097 -0.22652529 0.17795192 0.20217785 0.06646951 -0.41166103 -0.014935387 0.19575371 -0.29273403 0.18515414 0.28062102 0.07919596 0.26213273 -0.23198505 -0.12079627 0.40997759 0.07309123 0.07530996 0.07770775 -0.40416533 0.24451296 0.15068474 0.41443354 -0.18805178 0.5017857 0.54625136 -0.15529838 0.06349571 -0.034350015 -0.29046676 -0.22743534 -0.1628054 0.3904538 -0.33245715 0.37257558 0.68212557
Cersei-Lannister 0.029601045 -0.1888267 0.6263803 0.3969641 0.30809736 -0.021447549 0.19539893 0.03217842 -0.70247906 -0.3891245 -0.14472307 -0.12839548 -0.5035812 0.14448935 0.40035856 0.50814354 -0.1179032 -0.35989618 0.1817466 0.68148446 0.008358521 0.22395733 -0.04814974 0.16894966 0.05729011 -0.0036899883 -0.13530925 -0.13337775 0.2446838 -0.21865398 0.19124755 0.098557554 0.24459031 -0.012981623 -0.08453464 -0.07764568 0.058380876 0.20600078 -0.47194588 0.0004932923 -0.29512635 0.25103274 0.22823726 0.11733576 0.3031897 -0.106690384 -0.06820595 0.15464585 0.14561175 0.28615084 0.0119019225 0.03296727 0.013823303 0.26861984 -0.04216614 0.26964942 -0.22568332 0.15565416 -0.013616822 0.4366107 -0.12263693 -0.35288146 0.1276019 -0.087446965
Melisandre 0.08487265 -0.24130689 0.2696399 0.36932003 0.24220558 0.1069504 -0.3073168 0.071542196 0.027425881 -0.36659852 -0.060055517 -0.5955029 -0.39430097 0.20104536 -0.26875615 0.3841855 0.25690162 0.311691 0.023480555 0.28185043 0.38278246 0.10132639 0.18655626 -0.15255886 0.027651347 -0.41472718 -0.28778625 0.25069264 -0.17481583 -0.15225032 0.21996062 -0.06490993 -0.0356779 0.42938718 -0.20384765 -0.35108548 0.30936447 -0.07678771 -0.038707804 -0.28313926 -0.21630996 -0.036913086 -0.5521868 -0.23901814 0.0079986295 -0.28586876 0.1182928 -0.06892466 -0.11347848 0.17673112 -0.37574947 0.12155848 0.19870162 0.028761307 0.27040693 -0.14539771 0.40703538 -0.06868132 0.05764959 0.13165745 -0.27172625 -0.20908041 0.34003806 -0.18748361
Jon-Connington 0.0515311 -0.3892969 0.21137291 0.16301483 -0.1264636 -0.14861508 -0.05457189 0.077591166 -0.38732368 -0.16826026 0.31039643 0.09962929 -0.06883948 0.052004483 0.25342867 0.25688374 -0.34361994 0.2522128 -0.16534917 0.36249775 0.098144345 0.23316127 0.07435972 0.14025506 0.1098012 0.51749665 -0.10944008 -0.05393509 0.30075154 -0.25918528 0.26468748 0.014738931 0.07815762 -0.26451653 -0.02293262 0.011073089 0.1201289 0.25315124 0.28235894 -0.21782526 -0.35263312 -0.0064802445 -0.33309013 0.4555906 0.24239746 0.18052274 -0.44872126 0.18482915 0.2240451 0.28722113 -0.26069105 0.21534568 0.08192 0.23534913 -0.020721935 0.31556275 0.28381073 -0.23868658 -0.64896923 0.025654623 -0.30253267 -0.45894027 -0.112909734 0.44459558
Asha-Greyjoy 0.026067104 -0.60161465 -0.30005106 0.19591385 -0.031596426 -0.22227699 0.33890757 -0.22518614 -0.08417677 -0.6999128 0.01162518 -0.48367333 -0.28506467 0.09497471 0.1069837 0.059989948 -0.22527839 0.19055082 0.3606254 0.38210067 0.24894015 0.034126844 0.02188136 -0.55352306 -0.019399984 -0.044252478 -0.025063742 0.45087957 -0.06110155 0.012075722 0.5290518 -0.027763447 0.0768771 0.45331383 -0.23099156 -0.33722517 -0.08530406 -0.15835226 0.1770421 -0.039206922 -0.33778545 -0.015567 -0.08850638 -0.10580101 0.07963145 -0.13482475 0.09718475 -0.64663106 -0.01880192 -0.25078306 0.20532285 -0.06572124 -0.079942256 0.20425002 0.13744071 -0.4687011 0.19443464 0.08987264 -0.13809259 0.44386968 0.07609785 -0.47844446 0.3218786 0.18994944
Bran-Stark 0.3460676 -0.5755906 -0.1896219 -0.0054530576 0.54816127 0.25935337 0.10459922 0.2761926 -0.4366628 -0.07900324 -0.51226866 -0.22983786 -0.302203 -0.19800238 0.46393418 0.29482725 0.23510206 0.4145735 0.57048637 0.5853 0.48499644 0.22378834 0.047648497 -0.0013817549 0.04372756 -0.2674158 0.056263566 0.6258813 -0.66678023 0.16192953 0.29168463 -1.0395106 -0.5690203 -0.25685224 -0.36416113 -0.24734783 -0.20899795 0.01611008 0.12556176 0.13728876 0.04746334 -0.11186876 -0.9058008 -0.05475782 0.45139402 -0.3644955 -0.063581556 -0.18697518 -0.07800733 -0.0044487854 -0.0032147276 0.5718193 0.31308967 0.018473852 0.18572049 0.15107429 0.37089995 0.038247187 0.2785081 -0.122683965 -0.34966788 -0.09987629 0.18573517 0.2181491
Selyse-Florent 0.0848875 -0.3030102 -0.13995738 0.26024348 0.1943713 0.12246516 -0.052652895 0.15767846 0.04357212 -0.36678904 -0.13082168 -0.28502086 -0.47984374 -0.14713287 -0.37906235 0.83056974 0.24270849 0.5859271 0.31372273 0.1975053 0.62167996 -0.14326724 0.44529596 -0.15949975 0.35546118 -0.23280278 -0.14887272 0.40160346 -0.26622185 -0.12025933 -0.1325076 -0.03564532 -0.26183873 0.38140675 -0.0799019 -0.18741669 0.16103351 0.04220577 -0.3692057 0.15850388 -0.2941373 -0.13188697 -0.20661862 -0.10542118 0.06841585 -0.047046542 0.090351015 -0.2942719 -0.006671561 0.1289311 -0.33660874 -0.043766845 0.47309923 0.5146234 0.11666265 -0.15412627 0.3101135 0.10765505 0.03636183 0.12079946 -0.23464814 -0.057626795 0.3705044 -0.117225304
Daario-Naharis 0.181751 -0.3372776 0.44393948 0.31537536 -0.14342153 -0.5961135 -0.16921443 0.300578 -0.633201 0.122583136 0.32279795 -0.08633676 0.005863729 -0.09346594 0.21378383 0.06061182 0.20290889 -0.03187563 0.120751165 0.8965019 0.28475899 0.2989323 0.47562346 0.3058417 -0.06572458 0.43969464 0.101719655 -0.014004457 0.3886131 -0.4215301 0.25286546 0.39549857 -0.04298924 -0.10926536 0.020292606 0.28854117 -0.2284052 0.14668643 0.64171237 0.22310296 0.011915083 -0.2956103 -0.123933606 0.562055 0.08098532 -0.33635423 -0.058953155 -0.08241546 0.057432126 -0.23469894 0.2609569 -0.29301736 0.51498365 0.45080182 -0.33311343 0.18538363 0.37196448 -0.21617225 -0.10870848 -0.109270096 0.13596399 -0.16222788 0.3043745 0.48064837
Mance-Rayder 0.1760016 -0.52636194 0.16086219 0.08600182 0.48238546 0.13036355 0.011458744 0.020502266 -0.16452946 -0.38645834 -0.07762413 0.018285925 -0.4488195 0.11428909 -0.3346354 0.3615191 0.31235808 0.57481706 0.04329198 0.2143164 0.13321753 0.058273513 0.12972006 -0.48531076 -0.020981383 -0.3201249 0.00047567254 0.53066325 -0.1784156 -0.07365388 -0.07246335 -0.044755343 0.20346694 0.27866918 -0.08532132 -0.28413588 -0.01338104 -0.109116666 -0.018476997 -0.29911515 -0.32748723 0.19919503 -0.4116627 -0.19562772 0.18264593 -0.45707476 0.015730537 -0.18480092 -0.18744215 0.06951213 -0.18070136 0.1660477 0.6797062 -0.09868716 -0.18843253 -0.10725838 0.18038207 -0.114238374 0.34784013 0.47839373 -0.432404 -0.19313519 0.10412983 0.042136278
Davos-Seaworth 0.22707322 -0.52622503 -1.8047536e-05 -0.030519174 -0.07242259 0.18529047 -0.007207527 -0.19740209 -0.36124292 -0.4577145 0.25136912 -0.490022 -0.22274886 -0.19749658 0.043178823 0.53574157 0.10751777 0.1389744 0.44639727 0.31610274 0.0078632515 0.49212742 0.048148207 -0.27830717 -0.08190482 0.082098484 -0.005196377 0.2922146 0.10155383 -0.2835638 -0.24634431 -0.35533676 -0.4435318 0.14302349 -0.26720512 -0.18902029 0.19627577 -0.09580813 -0.3215587 0.036858752 -0.1205758 -0.1600459 -0.269784 -0.5495001 0.4541886 -0.22183067 -0.061704747 -0.34396344 0.12582868 0.108158536 -0.3676867 -0.221108 -0.084448196 -0.26500595 0.20771573 -0.23399402 0.65141064 -0.12117152 0.3483123 0.03375894 -0.1910886 -0.2554125 0.31205362 -0.2983408
Haldon 0.48179874 -0.15304908 0.15952641 0.45512855 -0.20873438 -0.08892416 -0.08852509 0.21224114 -0.37012568 0.008900885 0.25475985 -0.034742683 -0.30927178 -0.08606573 0.31174502 0.061083905 -0.46686527 0.17488934 -0.28532988 0.6296777 -0.019920753 0.42821342 0.19408529 0.12673853 -0.09797856 0.7520214 -0.16328587 -0.014713304 0.37612945 -0.32987103 -0.064805485 0.11821666 0.109769784 -0.37024745 -0.112421215 -0.08088389 0.1669501 0.48174056 0.23258549 -0.19966958 -0.4056732 -0.13912067 -0.09409613 0.10674322 0.22193971 0.18599088 -0.2764633 -0.14551862 0.08875158 0.24636015 0.06737009 0.033840153 0.15126869 0.415735 -0.12389083 0.24802868 0.28428832 -0.05255407 -0.49809393 -0.078467615 -0.40457952 -0.56714374 -0.20246822 0.17142072
Aegon-Targaryen-(son-of-Rhaegar) 0.08516245 -0.43068036 0.106083825 0.23681167 -0.12913944 -0.12063647 -0.024001347 0.096524 -0.50169766 -0.07592335 0.41269377 -0.16828632 -0.3189858 -0.0011815097 0.23809977 0.37940025 -0.41384962 0.2608044 -0.2241438 0.58718485 -0.0033053122 0.17125234 0.084046334 0.25322986 0.10513028 0.5953196 0.077326156 -0.2509299 0.35486028 -0.41433424 0.063113734 0.12982403 0.147796 -0.40172008 0.19431572 -0.013099153 0.47060272 0.033339083 0.3555921 -0.22816516 -0.1706183 0.00042887856 -0.050620012 0.1666869 0.17324658 0.06210785 -0.20019779 -0.13441408 0.098060355 0.2661994 -0.037663992 0.055774484 0.26269275 0.3801951 0.116591185 0.24404457 0.27552643 -0.22033246 -0.6023544 0.0505005 -0.27631232 -0.1987556 -0.21385497 0.44652152
Wyman-Manderly -0.17324446 -0.5935229 -0.05946977 -0.11230879 -0.026893312 -0.079378344 0.019146284 -0.24181953 -0.18694532 -0.5546567 0.19426772 -0.5724796 0.0014848681 -0.5172809 -0.036913723 0.5411742 0.16460823 0.22652157 0.23952533 0.39556968 0.2262283 0.4700678 0.1566534 -0.47743103 -0.21679316 -0.08057402 -0.4005267 0.13158883 0.020097516 -0.23416021 -0.041325316 -0.34639746 -0.3454041 -0.20022784 -0.42721158 -0.22947079 0.071729854 0.031712722 -0.26081702 0.0110765975 -0.1782778 0.030320952 -0.3360252 -0.15456086 0.33637515 -0.1893123 -0.09641597 -0.24608329 0.111347586 0.16920254 -0.17148584 -0.0055248234 0.1648279 -0.5254899 0.18285708 -0.20336422 0.38110337 0.029490607 0.40150255 0.24160738 -0.34745747 -0.14734973 0.18386026 -0.1478058
Skahaz-mo-Kandaq 0.2591425 -0.2371373 0.3933183 0.48345563 -0.22094576 -0.55977595 0.12222898 0.38176307 -0.5312415 0.036183544 0.27434084 0.017607873 0.17310783 -0.08589626 -0.033007823 0.29292932 0.26684833 0.016310334 0.11647439 0.70714766 0.12977922 0.55583227 0.1690302 0.2501368 -0.10002147 0.36277565 -0.0068818554 -0.29941416 0.33138883 -0.35165086 0.35927773 0.13813116 -0.11783798 0.07481609 -0.11720855 0.14267302 -0.22513564 -0.05106885 0.48374426 0.27896962 0.04863585 -0.36117315 -0.26413798 0.57921493 0.06169278 -0.253973 -0.053914525 -0.31796336 0.15815927 -0.043924138 0.15347216 -0.16498718 0.5330095 0.64065546 -0.353309 0.122722454 0.07494524 -0.30295625 -0.16594568 -0.086255156 0.12500197 -0.22269058 0.041337986 0.45602307
Bowen-Marsh 0.4312351 -0.2756475 0.35720935 0.30290622 0.071243934 0.00783953 0.16471462 0.45420733 -0.16075861 -0.29656994 -0.13765532 -0.11428433 -0.119373195 0.27989867 -0.058370687 0.23382631 0.15352945 0.77940136 -0.03208897 0.08942091 0.6586061 0.12826268 0.1984549 -0.23330237 0.27102324 -0.39151055 -0.21660623 0.4108916 -0.24490882 0.0609454 0.1318448 0.019058106 -0.22359827 0.06497573 -0.18054438 -0.36271232 0.035291594 -0.0030422925 -0.19525301 0.1533687 -0.26104677 0.07143304 -0.4703241 -0.40427822 0.0045946944 -0.21490394 0.14775728 -0.3933412 -0.22461061 0.36957458 -0.14537498 -0.288398 0.34927878 -0.1604364 0.01712416 0.12383926 0.369729 0.01789802 -0.0975359 0.5014358 -0.5947513 -0.12600419 0.38428682 -0.42149267
Tormund 0.39579794 -0.295499 0.029150616 0.3422174 0.16259141 0.015624723 0.08966562 0.42355332 0.08345708 -0.4909795 -0.12494922 -0.33633545 -0.18598807 0.13748479 0.0802123 0.74503577 0.46852294 0.70981526 0.027789412 0.033267096 0.2766421 0.30185038 0.226597 -0.49595466 0.36197865 -0.42680234 -0.31519905 0.4182523 -0.19183332 0.19387819 -0.15232572 -0.054666128 0.104836725 0.22598052 -0.2272806 -0.06535151 0.061579768 -0.016249418 -0.0011883187 -0.080767855 -0.32956293 0.117224514 -0.31096256 -0.42082885 0.18699789 -0.3577268 0.03910816 0.13362321 -0.07972854 0.16347864 -0.32028452 0.025514513 0.3039895 0.07728382 0.015442918 0.24992096 0.20743255 -0.02601479 -0.16159724 0.3613086 -0.35475338 -0.033427797 0.22127676 -0.061091457
Val 0.25977963 -0.2899156 0.057544015 0.33305496 0.18054582 0.07910514 -0.23755002 0.03531958 0.16420364 -0.35057077 -0.014043049 -0.21654774 -0.36764497 0.028854009 -0.16974826 0.46067497 0.24543434 0.6174145 0.08811791 0.19987805 0.55602115 0.049630597 0.20850931 -0.29351932 0.08839232 -0.24754864 -0.081235714 0.2496914 0.06765604 0.050424006 0.1759469 -0.0672832 0.119433954 0.16186187 -0.038931187 -0.16439523 0.14802876 -0.2107403 -0.03271613 0.11929013 -0.36030343 0.0927455 -0.252835 -0.40989396 0.069172785 -0.20415863 -0.1641461 0.02094869 -0.03242031 0.23445997 -0.2904625 -0.12628596 0.56421566 0.060468506 0.20131037 -0.24120718 0.23580208 -0.037516996 -0.037921518 0.16666853 -0.31972113 -0.14509311 0.24507818 -0.014978687
Doran-Martell 0.07350607 -0.13054281 0.813497 0.42859444 0.42362642 -0.4271089 0.03788251 0.16456005 -0.18876442 -0.30183533 -0.28408074 -0.37596503 -0.3037533 0.0319684 0.54917973 0.35313562 0.17401105 -0.12836775 -0.046742596 0.15480852 0.17844538 0.45528084 0.12061971 0.39375663 0.06993246 0.53362006 -0.35020542 0.13716407 0.47770646 -0.32498097 0.18528101 -0.2078169 0.3364083 -0.29533562 -0.035358615 -0.17825489 -0.044483554 0.06974016 -0.24499744 0.10138099 -0.04740071 -0.08107347 0.2688667 0.2347647 0.6522187 -0.33591878 0.09096474 -0.47794122 -0.14959574 0.03567623 -0.13222605 -0.39533764 0.26218024 0.15983973 0.083896026 0.26798922 -0.42977515 -0.5571708 -0.20763718 -0.25194082 -0.03660984 0.14317231 0.39315048 0.20768018
Rolly-Duckfield 0.3039125 -0.3987882 0.18757066 0.27620864 -0.03485555 -0.18364425 -0.026528386 0.17382059 -0.39375892 0.10522887 0.29767013 0.081300505 -0.21840158 0.15967354 0.30882338 0.25152192 -0.40254995 0.111984394 -0.17473541 0.41495588 -0.013084764 0.23262644 0.19835427 0.11055554 0.014286036 0.7716146 0.07477148 -0.19668032 0.29513752 -0.36287332 0.08219388 0.2852728 0.14219996 -0.55140823 -0.13919917 -0.02854105 0.18310238 0.42578503 0.20745477 -0.15191726 -0.26496798 -0.24022083 -0.26885393 0.082280815 0.09796401 0.04711457 -0.24295563 -0.3263385 0.0778654 0.33027086 -0.13318273 0.30396613 0.097264245 0.4070143 -0.10212157 0.30029932 0.47230715 -0.0657291 -0.3704552 0.12193331 -0.2846604 -0.2801961 -0.14037171 0.35589197
Gerris-Drinkwater -0.207266 -0.4808077 0.40649602 0.3325637 -0.2085786 -0.5005545 -0.11068646 0.39392692 -0.4883192 -0.0122521175 -0.11477882 -0.20694575 0.030660408 -0.30884477 0.23344783 0.020956323 0.39949706 0.19734628 -0.026489682 0.6556503 -0.23010166 0.68980575 0.31348193 0.32953304 -0.05326488 0.3954095 0.009489631 -0.017731592 0.6052923 -0.4609623 0.27188602 0.15368593 0.12192579 -0.39528537 -0.023084868 0.37184596 -0.289955 0.18941633 0.2659151 0.2072928 0.28151903 -0.4097685 -0.1510811 0.11684929 0.058010213 -0.051311288 0.02054974 -0.28060842 0.16270283 0.11752506 0.40797785 -0.109023735 0.50754094 0.72244954 0.012423745 0.15017554 0.22090924 -0.40513837 -0.36201146 -0.2063118 0.25464022 -0.37880737 0.44369423 0.70254076
Victarion-Greyjoy 0.04288703 -0.2990987 0.120341174 0.7919165 -0.18721466 -0.33361098 0.10934737 0.21925649 -0.60523343 -0.12771775 0.36401197 -0.05135573 0.03642278 -0.34143633 -0.058902 0.05804222 -0.20168896 -0.008775254 -0.117179364 0.11402108 0.14978443 0.0908571 0.14851393 -0.4692404 0.09949032 0.40830582 0.17035227 0.49196422 0.14823127 -0.39270043 0.13999261 0.21293372 0.5506778 0.18769048 -0.46382388 0.100861125 0.06796246 -0.35872734 0.60855836 -0.27538946 0.12984934 -0.23558837 -0.28505978 0.22028458 0.1352064 -0.16495287 -0.13952044 -0.6811488 -0.025179723 -0.2983636 0.8082599 0.19276024 -0.08882865 0.6360147 -0.55872196 -0.032508098 0.29354867 0.066256255 -0.33688167 -0.060504347 -0.06822815 -0.53539765 0.43191338 0.5912729
Eddard-Stark 0.1920256 -0.37098348 0.011658005 0.0662181 0.22900924 0.15922551 0.052292153 -0.053980093 -0.07435325 -0.08498791 0.009039338 -0.22565416 0.078696236 0.10926597 0.2124578 0.47207326 -0.14481972 0.33869046 0.29358953 0.55911803 0.38247225 0.3481805 -0.01668314 -0.3869309 0.13261409 -0.058202744 -0.016082272 0.45819736 -0.20459019 -0.056123268 0.3283315 -0.7574769 -0.038692243 -0.10998432 -0.16917053 -0.22922169 0.34497607 0.07056102 0.17389794 -0.03441963 -0.1126363 -0.034761816 -0.107852265 -0.044616263 0.2778343 0.016108816 0.21622 0.21308485 0.08000544 0.20890616 -0.17357169 0.080342494 0.3039459 -0.33167565 -0.050751526 -0.09859768 0.17796752 -0.22719592 0.3004703 -0.14357087 -0.06629716 -0.2545132 0.3034157 -0.15167359
Robert-Baratheon -0.2994004 -0.387624 0.18596931 0.09020579 -0.126471 -0.012507574 -0.009633633 -0.19570538 -0.18376398 -0.24464335 -0.28769973 -0.30150136 -0.09757737 0.1875917 0.22845453 0.31095266 -0.40336946 0.02813752 0.1707782 0.38998452 0.2089369 0.5294052 0.15550268 -0.029539743 0.16759306 0.25582686 0.23656598 -0.021184675 -0.00030207066 -0.076068364 0.27532893 0.05032396 -0.043105066 0.08965056 0.011527271 -0.30402803 0.22107403 0.11958694 0.12695946 -0.16396935 -0.19540325 0.33456188 0.082213625 0.24919628 0.20689198 0.27229258 0.33925888 0.039214663 0.04362984 0.21401978 0.04166296 -0.11532279 0.27089548 0.11911755 0.284618 0.18930815 -0.0058804294 -0.1873928 0.2490674 0.12289287 -0.30317834 -0.039154228 -0.09324403 0.16520436
Penny 0.4001175 -0.20451732 0.11793819 0.47372448 -0.12437106 -0.22173212 -0.13220774 0.40045172 -0.6052901 0.37082213 0.45656377 -0.00809096 -0.23165093 0.08051409 0.15804173 0.14444232 -0.15549953 -0.093885735 -0.1781552 0.29532588 0.033723414 0.5242572 0.3152621 0.017442483 -0.03744607 0.5465452 0.037728295 0.042688437 0.6047443 -0.38332692 0.024624389 0.22215895 0.006608175 -0.3174417 0.20621239 0.10305546 0.21495223 0.29588106 -0.042076092 -0.25791404 -0.6239306 0.09003396 -0.2957024 0.18726842 0.24726206 -0.11160131 -0.17050076 -0.12631513 0.19922107 -0.050615463 0.022644421 0.15201505 -0.10641589 0.46815434 0.050592918 0.23852363 0.41882968 -0.21049199 -0.16107857 -0.04918365 -0.24320574 -0.46691167 0.047928113 0.33169106
Meera-Reed 0.27817678 -0.5947228 -0.059541598 0.154968 0.56323177 0.44647092 0.2950186 0.45296225 -0.53458005 0.026686898 -0.72543776 -0.40806174 -0.204599 -0.13061352 0.45724595 0.34411892 0.22813398 0.40782964 0.5350769 0.5040117 0.59136623 0.2867228 0.2039815 0.041634627 0.022711243 -0.23562378 0.02029557 0.42558107 -0.6606623 0.12484731 0.31352028 -1.102593 -0.5477979 -0.27464074 -0.42752573 -0.31897876 -0.2877963 -0.010170874 0.15184627 0.14764929 0.16599952 -0.051794708 -1.1458135 -0.29508406 0.37726077 -0.24049766 -0.024430804 -0.26194754 -0.14649126 -0.0792001 0.050817646 0.50584733 0.35025266 0.023862505 0.14741144 0.12130184 0.22891809 0.039147373 0.36382887 -0.09071257 -0.23482938 -0.11587067 0.29724976 0.3122138
Hodor 0.35486266 -0.45894042 -0.17529988 0.17407939 0.5022551 0.3947281 0.35691667 0.38824663 -0.6220443 -0.067497626 -0.6150447 -0.29584706 -0.3201231 -0.2572045 0.49261785 0.116014265 0.23388638 0.3438227 0.63275003 0.60632896 0.5959549 0.30523697 0.16858134 -0.047333825 -0.061885335 -0.35425004 -0.042982966 0.50318956 -0.63139343 -0.07185234 0.24883659 -0.9682022 -0.52644724 -0.2905591 -0.17490669 -0.30796462 -0.1612302 -0.008376022 0.27214745 0.20632415 0.1349255 -0.105748355 -1.058264 -0.31571367 0.42966238 -0.2858846 -0.014271368 -0.24300568 -0.12613761 0.007879253 -0.02366904 0.44497505 0.3093385 -0.029688358 0.17994498 -0.020784073 0.18583144 0.16761494 0.39297923 -0.13995348 -0.2545085 -0.1639203 0.32453352 0.30745357
Jaime-Lannister 0.10199397 0.07921143 0.27250394 0.49505457 0.031706426 -0.37883145 0.07659125 0.2432821 -0.50282586 -0.30870014 -0.09620717 -0.24185234 -0.47900146 0.52588826 0.5871877 0.50978744 -0.3138048 -0.2694897 0.20535652 0.739484 0.16801548 0.27009034 -0.12027809 -0.08648163 -0.13110271 0.07178593 0.071033694 0.32777816 0.29324764 -0.58433926 0.22447684 0.037538324 0.14842121 -0.23286526 0.03137629 0.08775582 0.013022258 0.40635973 -0.26075208 0.17586258 -0.18015933 0.6666973 0.22030179 -0.16280474 0.22654438 0.22227421 -0.3735802 0.16779552 0.3386828 0.19384997 -0.3503752 0.23538211 0.1796802 0.40952793 -0.15716974 0.2861089 0.024793493 -0.066134065 0.33075014 0.3777827 -0.12723145 -0.33445594 -0.13218445 0.18498139
Kevan-Lannister -0.29679298 -0.324964 0.19849467 0.22293289 0.15203947 -0.31423253 -0.16459662 0.038614538 -0.75255376 -0.2421399 -0.020697966 -0.010460823 -0.3506404 0.58526105 0.25971448 0.6747944 -0.10134469 -0.3625306 0.011596795 0.5181995 0.028920762 0.33043456 0.20871536 0.27827293 -0.069596455 0.13379835 -0.11571019 -0.061708502 -0.050017416 -0.15419939 0.19920418 0.19379191 0.04505787 -0.1981168 -0.22457069 0.14177477 -0.40726808 0.08572424 -0.36129808 0.24940734 -0.43331844 0.12663075 0.3894047 0.18031535 0.38980743 0.17485632 -0.073704526 0.2836527 -0.0131227 0.36945957 -0.07947037 0.058492843 0.08246873 0.30466184 -0.07834501 0.067225285 -0.23500909 -0.07447551 0.052826647 0.2880229 -0.52561635 -0.67744845 0.3609527 0.023352653
Arya-Stark 0.09663269 -0.41388586 -0.17663486 0.08568697 0.5041973 0.3761889 0.19199084 0.33666393 -0.08193284 -0.14715785 0.021929272 -0.28653806 -0.16100393 -0.1332794 0.3537537 0.19259119 0.43792984 0.48831725 0.38086867 0.21609426 0.49206573 0.25380456 -0.0629127 -0.24946824 0.23142949 -0.18768854 0.24423458 0.45707524 -0.40123513 -0.21510714 0.20193262 -0.46296206 0.15201752 0.019298773 -0.29406628 -0.1309636 0.09626813 0.09094591 -0.062633745 -0.21069162 0.09382754 -0.16670972 -0.6085077 0.042986047 0.12904464 -0.13635425 0.32252854 0.028630184 -0.13941883 0.23319633 -0.117422394 0.5380887 0.24744216 0.10693848 0.17568336 -0.2276866 0.28145865 -0.36290568 0.26043755 0.51219314 -0.48172113 -0.07472052 0.6057916 -0.17310284
Irri 0.04972592 -0.19227615 0.52120954 0.52581614 -0.06663618 -0.22894372 0.37699667 0.38070405 -0.452175 0.2524722 0.557513 -0.16724268 -0.114653476 -0.031825267 0.26943347 0.1865047 0.39334682 0.06190544 0.2819384 0.8356356 0.045186553 0.3630155 0.5097819 0.112611614 0.02048146 0.3297611 0.20193507 -0.06624608 0.15984806 -0.47869948 0.084916316 0.274804 0.039403133 -0.16018268 -0.19322345 0.030900054 -0.42996755 0.059074566 0.533244 0.01505993 0.23939367 -0.3011234 -0.01975562 0.62079096 0.034690306 -0.24104255 -0.030745449 -0.15358923 0.05148517 -0.039469205 0.09261863 -0.17258944 0.3490219 0.72978145 -0.330716 0.24700244 0.17504184 -0.6164526 -0.17665786 -0.20841172 0.0055472315 -0.043346867 0.22245449 0.63607246
Missandei -0.034394477 -0.22104512 0.37263715 0.5062886 -0.17987014 -0.24743694 0.020154763 0.44728845 -0.4602418 0.0455075 0.543413 -0.14349337 -0.07576696 -0.017997814 0.13544697 0.1989821 0.36716083 0.19128932 0.1753816 0.9095879 0.10753126 0.4166411 0.28723451 0.20363489 -0.14618132 0.3802879 0.1445156 -0.23171271 0.32921168 -0.28492305 0.30045462 0.28042635 0.04005973 -0.11201212 -0.13228653 0.16677856 -0.19660588 -0.04837116 0.39477903 0.037601903 0.14597264 -0.41514242 -0.118789256 0.5436074 0.12732834 -0.055760916 -0.018857652 -0.19129664 0.13821535 -0.09479547 0.24622321 -0.27968755 0.3638089 0.6735198 -0.2568345 0.23586997 0.10085559 -0.25451827 -0.17108473 -0.35503277 0.0743801 -0.18820335 0.2698786 0.34801704
Roose-Bolton 0.012498198 -0.39665142 -0.10069534 0.0059971623 0.37069356 0.16121177 0.08900745 -0.19253998 -0.3383298 -0.11579183 0.19740963 -0.2495892 -0.2328572 -0.2506827 0.23134251 0.26546735 0.011874717 0.23453681 0.20648104 0.5135898 0.38226673 0.2103519 0.2477507 -0.64971334 0.13110332 -0.28566495 0.05854987 0.59255904 0.03382307 0.1772596 -0.15503874 -0.22225243 0.09510694 0.018593078 -0.3557488 -0.020931967 0.28608814 -0.3197263 -0.1450259 -0.04076369 -0.13324524 -0.24921045 -0.44071993 -0.111010276 0.2870567 -0.10223729 0.19846958 -0.41349286 0.13541867 0.08321921 -0.23703857 0.14787753 0.16144085 -0.23695876 0.12963895 0.009014097 0.16980669 -0.32450932 0.42751387 0.37185445 -0.28794873 -0.38952953 0.10681886 -0.12696914
Eddison-Tollett 0.20229682 -0.24933167 -0.057522252 0.19677731 0.04468021 -0.07248503 0.12221995 0.33278462 -0.0077118217 -0.37908375 -0.26989308 -0.49160036 -0.31420353 0.19915487 -0.26679423 0.3501601 0.2985665 0.5553771 -0.1626066 0.2698722 0.4879575 0.1102185 0.17121793 -0.28659552 0.049203 -0.5218442 -0.041645404 0.5702661 -0.47274214 0.07298886 0.06501534 0.07037236 0.083222985 -0.019544676 -0.21950041 -0.21720971 -0.113113105 0.08260634 -0.19370711 -0.099885695 -0.18337107 0.11678505 -0.28992248 -0.5488058 0.2947365 0.08461863 -0.12935828 -0.22198467 -0.4534331 0.5418013 -0.0830928 -0.114378095 0.7617726 0.047630895 0.24887897 0.16574685 0.7446427 -0.1960994 -0.16417183 0.09655341 -0.170574 -0.39200026 0.33547273 -0.3721318
Jeyne-Poole -0.10906756 -0.45347038 -0.013796194 -0.05405447 0.56833744 0.18456656 0.27847102 -0.2153424 -0.152932 -0.26801455 0.06807838 -0.30096203 -0.340902 -0.43549415 0.22704229 0.38231868 0.15179977 0.33821243 0.25070527 0.328956 0.5054806 0.19826321 0.13193005 -0.62707007 -0.078516096 -0.27690735 -0.0472011 0.758122 -0.092826135 0.12654133 0.14509352 -0.4150659 0.13858981 0.040466614 -0.30366796 -0.07789599 0.16789119 -0.06410737 0.07338973 0.024156453 -0.1335408 -0.49861088 -0.5696626 -0.19174995 0.3015919 -0.22593369 0.118905365 -0.24662408 -0.17265633 -0.30817655 0.0624496 0.44276875 0.39251265 -0.26047263 -0.37162006 0.11488347 0.2568461 -0.34209946 0.23467387 0.4257437 -0.52222645 -0.30747572 0.0034520037 -0.07507663
Tommen-Baratheon 0.0063975225 -0.073839754 0.3635288 0.12471537 0.1534759 -0.20184538 -0.08534679 -0.13691342 -0.3866977 -0.16750664 0.01348077 0.04299475 -0.56225383 0.5473596 0.4195776 0.31496838 -0.17226842 -0.3131205 -0.037928496 0.36229858 0.3385474 0.55128783 0.07685027 0.025129834 0.12702815 -0.25331703 -0.5264439 -0.24139029 0.2548829 -0.24784213 0.20938529 -0.0059840614 0.08388454 -0.010300218 -0.14577042 -0.19475666 -0.0022191443 -0.124630764 -0.42689955 0.10039741 -0.4164989 -0.10224729 0.3081403 0.09394566 0.44451523 -0.020591052 -0.13064392 -0.10815327 -0.17808048 0.13695365 -0.18113506 0.086823285 0.08983304 0.13257295 0.05111311 0.0071894797 -0.056243174 0.053875405 0.07121744 0.2746319 -0.11245497 -0.3610884 0.16041522 0.0932312
Yandry 0.35092422 -0.34441254 0.05980897 0.2724076 0.07812731 -0.091932796 -0.09368392 0.3431962 -0.29784396 0.050762676 0.28850275 0.18312123 -0.097273506 0.19880334 0.26607364 0.25761497 -0.4789149 0.1326663 -0.20340972 0.50127923 -0.065302774 0.2902539 0.15559568 0.17971598 -0.079980716 0.7874178 -0.018314028 -0.15397145 0.3317526 -0.599762 0.07559515 0.19706047 0.13803934 -0.36424 -0.028845502 -0.19605038 0.22007525 0.36780494 0.30201194 -0.2780601 -0.17612126 -0.010095437 -0.09649986 0.10190663 0.36334318 0.20201594 -0.3205798 -0.43916097 0.056350023 0.173265 0.07030034 0.23607008 0.22695467 0.36294886 -0.09333344 0.2917229 0.5169283 -0.11838453 -0.58080775 0.21440323 -0.42429712 -0.4091973 -0.07273813 0.2108428
Robb-Stark 0.03255748 -0.66163677 -0.15411814 0.18925984 0.29716635 0.12943822 0.02224611 0.028205903 -0.45613766 -0.52571875 -0.11526829 0.020651028 -0.23935363 -0.35780242 0.44679004 0.26566124 -0.08819444 0.3225067 0.2029308 0.4296748 0.33987033 0.39055836 -0.13747594 -0.12183136 -0.08866141 -0.33036035 -0.07772572 0.42537996 -0.33808902 0.32960108 0.19181535 -0.57412815 -0.27122465 0.016829865 -0.32040423 -0.25746092 0.22630702 -0.16603279 0.021785753 0.08109209 -0.2775461 -0.027417667 -0.38614622 -0.57159513 0.24317762 0.05492757 -0.094450206 -0.32313934 0.00013877345 0.3074107 -0.30291796 0.2075505 0.053224884 -0.014618991 0.059833687 0.0822605 0.35919538 -0.013773075 0.2576244 -0.05485578 -0.26686755 0.04901739 0.22104569 -0.03767942
Rhaegar-Targaryen 0.122027606 -0.62847173 -0.08358392 0.4315549 -0.004696127 -0.14402115 0.21472166 -0.16710934 -0.25964713 -0.13320996 0.005934406 -0.16877688 0.17237003 -0.017535709 0.16523616 0.3674886 -0.32317135 -0.053211164 0.26875612 0.5444899 0.10126453 0.24787433 0.13287297 -0.13638113 0.13741821 0.42499766 0.17046851 -0.51337445 0.26324975 -0.33083174 0.37075597 0.09836673 0.048016082 -0.115461566 0.41145855 -0.21805394 0.25622296 0.09583807 0.043355554 -0.044521224 -0.1957733 -0.27504936 -0.13092062 -0.029832467 0.16650583 0.21152295 -0.2228956 0.3542247 -0.06078009 0.29251772 0.022502275 -0.07444853 0.4230304 0.302783 -0.12125568 0.23371857 -0.0031858175 -0.36367768 -0.31169343 0.11591255 0.055725794 -0.16390364 -0.08615961 0.36995742
Jhiqui 0.06508238 -0.3509203 0.26566172 0.38548583 -0.27176854 -0.25271732 0.4301673 0.3344797 -0.6260563 0.09697649 0.4123623 0.0012681198 0.02577596 0.048988882 0.35779974 -0.038416054 0.37588668 0.096591465 0.26773414 1.0027906 0.07683016 0.3952607 0.40097907 0.05597114 -0.039228406 0.46067667 0.21356687 -0.05665655 0.2885131 -0.34461164 0.14499351 0.30217952 -0.13627918 -0.24419026 -0.31491882 0.24781612 -0.27014267 -0.14659223 0.43461162 0.18280537 -0.07939113 -0.26435262 -0.116266996 0.66216093 0.15657125 -0.1610365 -0.04019346 -0.27775306 0.07776971 -0.14124116 0.26627806 -0.23066394 0.44953835 0.6969322 -0.32618147 0.50952303 0.0009756127 -0.3718994 -0.39765653 -0.15776339 0.037491787 0.18762001 0.38796797 0.14571725
Illyrio-Mopatis 0.27395087 -0.24092416 0.3139946 0.20539927 -0.12155242 -0.037092786 -0.099670485 0.17443936 -0.49159423 0.09277328 0.25373963 -0.077859305 -0.088452294 0.123954155 0.15642633 0.2603868 -0.22637732 -0.057129506 -0.25287426 0.58804625 0.011222274 0.39506206 0.08480881 0.06019761 -0.03785837 0.61783445 -0.071416415 0.1167243 0.25210157 -0.472674 -0.056275215 0.30547124 0.10656639 -0.38356575 0.16648291 -0.04163025 0.1141577 0.26437375 0.23862836 -0.11706841 -0.25075346 -0.040086456 -0.25057328 0.33542502 0.13913521 -0.042476576 -0.20000419 -0.12913246 0.18341047 0.12343179 0.16749531 0.043019313 0.201208 0.47510928 -0.12527059 0.23468289 0.3191232 -0.2541619 -0.5275901 -0.10995206 -0.1168748 -0.38419816 -0.08691132 0.28115752
Unella -0.19839038 -0.5634875 0.2951454 0.43751535 0.27836332 -0.2191818 -0.2629085 0.30926415 -0.65580493 -0.14200494 -0.22747308 -0.33063817 -0.5038028 0.18323159 0.5152216 0.309639 -0.29247248 -0.5803843 0.054367255 0.9244284 -0.080400035 0.16778083 -0.046974592 0.09093802 0.3322707 0.11394613 -0.026700411 -0.48108828 0.26845512 -0.5955241 0.22303267 -0.10215576 0.2932208 0.22149698 -0.3705839 0.14457913 0.0061380058 0.32075045 -0.5593305 0.43008137 -0.12723503 0.23312625 -0.009932251 -0.007978346 0.5192237 -0.46888125 -0.4505011 0.06864004 0.031539336 0.2700267 0.170985 -0.07645679 0.13307658 0.33070552 0.06292528 0.37960374 -0.2549806 0.076957025 -0.012805709 0.53931385 -0.2893202 -0.49081036 0.22591504 -0.3603077
Areo-Hotah 0.08563785 -0.34460458 0.634948 0.22571026 0.38065004 -0.5359581 0.070052065 0.20022479 -0.06323174 -0.059616998 -0.3378014 -0.27031028 -0.6392684 -0.16000886 0.3759979 0.13239089 0.27738857 -0.095261544 -0.015113353 0.43545455 0.33575532 0.45952544 0.120861344 0.65154666 -0.20010912 0.46523702 -0.27753034 0.25522283 0.6495417 -0.41699547 0.2522269 -0.09064136 0.5324035 -0.28706428 -0.14204806 -0.2182407 -0.17340235 -0.087091014 -0.2631125 0.12570727 -0.22747219 -0.033056907 0.076128304 0.20935012 0.7296362 -0.27945355 0.07921962 -0.7789771 -0.37018523 0.13697869 -0.34070012 -0.39590073 0.16324693 0.28333855 0.19535953 0.45844454 -0.48007149 -0.5140632 -0.08765318 -0.17620468 -0.18446837 0.12793781 0.36256224 0.26593158
Justin-Massey -0.0065560844 -0.5793037 0.052755944 0.27601382 -0.18098356 -0.102707975 0.35717705 -0.11318645 -0.08680007 -0.6045945 -0.10195272 -0.30334792 -0.37726182 0.102765 -0.06925059 0.23563413 -0.3266959 0.1845838 0.27296227 -0.0054001487 -0.062249627 -0.029621206 0.18534228 -0.631989 -0.01868642 -0.07140762 -0.21024686 0.40932217 0.23804474 0.34460628 0.28439143 -0.16640888 0.044672105 0.32180917 -0.4771649 -0.33431852 0.009220588 -0.19690432 -0.035340358 -0.014802534 -0.35189018 0.06000645 -0.25198695 0.037124697 0.09738418 -0.21915193 -0.21202876 -0.69925636 0.059969142 -0.17098688 -0.12625675 -0.0022719046 0.14684063 0.18717642 0.36430666 -0.40533102 0.21317482 -0.31612676 -0.063425295 0.48823133 -0.021989318 -0.3842781 0.6798482 -0.011663616
Myrcella-Baratheon 0.15891299 -0.13585354 0.52978873 0.014609894 0.2136218 -0.55532837 -0.086303055 0.11497915 -0.16047806 -0.024042454 -0.024430523 -0.34766534 -0.4063134 0.19173363 0.16628498 0.22484782 0.081009075 -0.21093276 -0.1882555 0.111134954 0.2084819 0.43875402 0.15785974 0.30357456 -0.110533915 0.27619496 -0.24764143 0.1556576 0.3987457 -0.32971004 0.04080013 -0.23333101 0.19806628 -0.2811931 -0.24623212 -0.2518698 0.13202189 -0.065537624 -0.42485982 0.0344603 -0.47667173 0.0019411453 0.24099462 0.41020244 0.4458984 0.05852972 -0.14441498 -0.5157654 -0.35812318 0.48876017 -0.06726029 -0.0384555 -0.0686697 0.18954934 0.32012728 0.36593476 -0.084914744 0.2098032 0.08927596 0.2065981 -0.17556292 -0.15586099 0.3851889 0.07174262
Samwell-Tarly -0.07615714 -0.4587875 0.06818352 0.14340878 0.26153052 -0.049979184 -0.07525884 0.04738929 -0.3356038 -0.2591054 -0.4157322 -0.29684713 -0.6665349 0.0688117 0.020250505 0.43626717 0.18137902 0.4425649 -0.25120026 0.16965191 0.40099016 0.36155736 0.36828658 -0.572166 0.2911615 -0.40236223 -0.05563656 0.37759218 -0.3166625 -0.14699382 0.18626633 -0.04865402 0.23704658 0.046296813 -0.21363397 0.2524808 -0.16035779 -0.27597013 -0.10543155 -0.11517291 -0.35667112 0.06408094 -0.3232263 -0.08893218 0.051440835 -0.21583891 -0.06611864 -0.068730585 -0.34891924 0.33894652 -0.45096067 -0.23421633 0.1787318 -0.27767634 0.23002395 -0.4097104 0.7324042 0.33737558 -0.14971647 0.08152669 -0.08679823 0.03820205 0.32268625 -0.23576628
Galazza-Galare 0.07542209 -0.31690764 0.45578945 0.46870986 -0.26322448 -0.42786473 0.08071501 0.3654709 -0.670631 -0.07329377 0.30430752 -0.18255623 -0.11884912 -0.24182741 0.036482107 -0.02165841 0.4721834 -0.22916031 0.14751087 0.5908783 0.05957163 0.47897437 0.115140855 0.047632135 -0.15906513 0.46217334 -0.10007895 -0.203887 0.3056267 -0.30691975 0.6622186 0.13986021 -0.009880967 -0.30169693 0.015535383 0.030559123 0.054229017 0.09751824 0.3627592 0.33978984 0.3647541 -0.23240973 -0.22384685 0.6095463 -0.027230859 -0.18436037 -0.08196033 -0.18151838 -0.08566096 -0.12310904 0.14839639 -0.28530657 0.35986665 0.7938743 -0.4721878 0.27930874 0.5215389 -0.2843381 -0.13702737 -0.12132708 -0.0027187923 -0.2490241 0.06580432 0.4039462
Arianne-Martell 0.16401958 -0.13927571 0.9153722 0.2002611 0.34401867 -0.4214007 0.010018821 0.18405409 -0.068867765 0.037771154 -0.3910607 -0.42275518 -0.3827106 -0.056837223 0.3723456 0.18429664 0.25073364 -0.26803103 -0.0057703815 0.36336893 0.42877397 0.49596214 0.3149439 0.2572522 -0.27045786 0.5400382 -0.43961594 0.24269249 0.55182314 -0.3586059 0.26461554 -0.0201747 0.52767384 -0.21735692 -0.17053717 -0.14605877 -0.18525827 0.047246944 -0.21198732 0.106618576 -0.1540395 -0.09244687 0.19127363 0.18673143 0.68319243 -0.3243379 -0.00091538846 -0.75018984 -0.09267168 0.28552037 -0.1379597 -0.33816886 0.2125542 0.068516396 0.36789253 0.5419929 -0.44762713 -0.3704698 -0.21043581 -0.1486907 -0.20519708 0.014726472 0.35387 0.2902515
Lemore 0.24385999 -0.33124268 0.17605077 0.26606146 -0.03647792 -0.18188718 -0.040633526 0.27427402 -0.42328966 0.050917726 0.36324954 -0.06988403 -0.13177475 0.2698983 0.2183078 0.22463223 -0.54833585 0.09399941 -0.242905 0.5009482 0.18355301 0.2412181 0.24234347 0.1588972 -0.098670885 0.8126764 0.00093603274 -0.089556284 0.23885398 -0.26229298 0.103674576 0.18312876 0.054978475 -0.3358852 -0.0037449372 -0.12025976 0.23563251 0.33526438 0.23581633 -0.20685083 -0.20699039 -0.32173112 -0.20409709 0.024110936 0.23614086 0.11747415 -0.29941615 -0.1934915 0.1686033 0.27640852 -0.09984531 0.2251182 0.0790825 0.38863254 -0.03175285 0.32198998 0.3872131 -0.12936056 -0.52908784 0.09228154 -0.2981226 -0.3818468 -0.25220412 0.2654466
Varamyr -0.17982574 -0.93859994 0.044444297 0.5509049 0.66020226 0.12800345 0.3442192 0.43781087 0.16950543 -0.3145521 -0.23058937 -0.27957484 -0.39289293 0.40480897 -0.40148467 -0.34880432 0.9727839 1.2275486 -0.028111951 0.35158023 -0.0859251 0.38059536 0.52370036 -0.43729302 -0.13655688 0.112669215 -0.003285489 0.45194402 -0.22527279 0.25325462 -0.0657692 0.32024494 0.10722152 0.13384974 -0.3424094 -0.22834142 -0.122294806 -0.059918623 -0.48018777 0.2371357 -0.7922696 -0.22906664 -0.7331474 -0.21836792 -0.022432495 -0.8768935 -0.439481 0.04973117 0.6344762 -0.027675467 -0.21189322 0.10721863 1.0645808 -0.1699909 -0.58407426 0.23815241 0.42164677 -0.24578784 0.15711953 0.11668272 -0.43685445 -0.7464704 0.33970416 0.2719731
Tywin-Lannister 0.21911548 -0.46356267 0.068578586 0.14972115 -0.142873 0.1952374 0.11437132 -0.04984773 -0.40940267 -0.09201435 0.2612053 -0.17163299 0.046539202 0.050835952 0.24565262 0.16158354 -0.17665526 -0.25924155 -0.21694814 0.25240734 0.16821438 0.341376 0.39707288 0.049558904 0.39981464 0.638307 -0.0920501 -0.09736484 0.11602145 -0.4288499 0.2587977 0.17396295 0.1109045 -0.06902531 0.15747985 -0.14829096 0.1534218 0.10069836 -0.17976473 -0.02176518 -0.50854355 0.02385603 0.01310515 -0.027136015 0.24013352 0.33338434 -0.0004688231 0.17872627 0.177028 0.07884273 -0.2986562 0.054027624 0.16949984 0.38678685 -0.025297292 0.002986043 0.1438603 0.07272954 -0.16495137 0.24139893 -0.28254747 -0.5468262 0.0009745715 -0.05798866
Moqorro 0.15353923 -0.28432688 0.20118287 0.8286864 -0.27733818 -0.23910904 0.029139968 0.031654634 -0.60914856 0.053804882 0.3492585 -0.09530124 -0.12194514 -0.33301958 0.05267463 0.08811683 -0.45409802 0.06973163 -0.42532507 0.2978935 0.38741234 0.034658268 0.02175842 -0.18740955 -0.05228027 0.54679334 0.20549978 0.31412643 0.11780489 -0.3714547 -0.015439793 0.26658112 0.33539107 0.12599991 -0.27330816 0.1751369 -0.13172649 -0.3035516 0.24679913 0.03541793 -0.02969746 -0.13492213 -0.2727941 0.18877007 0.037549686 -0.10065991 -0.019093886 -0.72719616 0.10356317 -0.17652719 0.61481243 0.24820521 -0.2895473 0.6529104 -0.5594788 0.018764736 0.2896125 0.022006538 -0.35066435 -0.039958645 -0.26504147 -0.58569366 0.22105068 0.66197187
Yezzan-zo-Qaggaz 0.44429418 -0.29801664 0.1305544 0.5875014 -0.04631571 -0.19087999 -0.15083137 0.5657792 -0.6955381 0.35986304 0.4318408 -0.23245962 -0.22514383 0.129027 0.30542684 -0.012038595 -0.12990282 -0.032935325 -0.42351145 0.29986563 -0.058061372 0.24143593 0.15495159 -0.12223109 -0.21431634 0.5313612 -0.19371155 0.18641648 0.26849192 -0.47189602 0.079534754 0.16927981 -0.010980935 -0.2199222 0.26714337 0.20939589 0.22781304 0.30950606 -0.13137116 -0.33533332 -0.73802584 0.16436706 -0.40023392 0.21349357 0.4084614 0.06064808 0.10602175 -0.17619479 0.12673122 -0.14016776 -0.077691525 0.12329376 -0.06461928 0.6806412 0.20315681 0.4473589 0.3631213 -0.20458938 -0.21415937 -0.06940823 -0.2041867 -0.44227737 -0.21068814 0.46291265
Othell-Yarwyck 0.43749207 -0.47321415 0.26035708 0.029759444 0.1254975 -0.08218231 0.00017205495 0.48803407 0.016084353 -0.2714621 -0.20748422 -0.26789322 -0.27507314 0.17645447 -0.07516707 0.3383548 0.28397426 0.98602396 -0.0066111633 0.32444277 0.43469375 -0.06989186 0.031414676 -0.4884426 0.44577593 -0.5336282 -0.28120747 0.42771342 -0.2228797 -0.021443907 -0.009567445 -0.097645506 -0.4179113 0.0812987 -0.09942471 -0.30367085 -0.14577696 -0.12331489 0.016320536 -0.048297327 -0.21914934 0.054073494 -0.35016325 -0.38890427 0.16617818 -0.18491049 0.013766271 -0.3422083 -0.20025353 0.62870514 -0.11909787 -0.22545609 0.20870197 0.07914408 -0.1025286 0.2831352 0.256468 -0.23766474 -0.56910187 0.53380525 -0.46701205 -0.031287465 0.43371254 -0.45226148
Aemon-Targaryen-(Maester-Aemon) 0.113923006 -0.5604238 0.027206363 0.05174958 0.2876244 -0.076371 0.006220094 0.24522634 -0.16172639 -0.1940793 -0.6790897 -0.13637654 -0.3393004 -0.088825256 -0.030591076 0.6981545 0.17603438 0.10923186 -0.06131428 0.07418209 0.50939405 0.49740067 0.36951074 -0.39520785 0.42568055 -0.52017355 -0.059430424 0.4523567 -0.18363573 -0.3290961 0.2796891 0.06950151 0.15058988 0.22089571 -0.10967622 0.012043388 0.06727781 -0.16548942 -0.0059605264 0.058828443 -0.4852309 0.01926493 -0.34186894 -0.17785636 -0.20932052 -0.35429552 -0.17522024 -0.2358519 -0.32313216 0.4717061 -0.1636619 0.039979674 0.14067592 -0.26164368 0.08616577 -0.2807025 0.8521358 0.07221607 -0.25467858 0.14684477 -0.094426535 0.015262712 0.22125909 -0.45732427
Jojen-Reed 0.33742383 -0.34702078 -0.12636022 0.10482528 0.5074249 0.2840097 0.3040395 0.36941424 -0.542927 -0.043552358 -0.5014714 -0.3309183 -0.3430694 -0.1973942 0.55333495 0.2802714 0.40165228 0.33445427 0.775295 0.56843936 0.66040444 0.23108338 0.09185674 -0.19611058 -0.026112476 -0.35170648 0.0646275 0.440333 -0.76506704 0.048701987 0.2300744 -1.0732245 -0.481636 -0.41233552 -0.33454892 -0.37336466 -0.26309305 -0.030397873 0.27584854 0.17160158 0.16052012 -0.1505404 -1.0905269 -0.2539148 0.51627606 -0.25808436 -0.019209083 -0.22726555 -0.12642354 -0.09868803 -0.07690299 0.451858 0.33554548 0.0021358149 0.19275178 0.017677484 0.11803229 -6.33204e-05 0.15076248 -0.23065071 -0.2018668 -0.2158329 0.3105528 0.44054127
Hareth-(Moles-Town) 0.5225368 -0.78921676 -0.3244367 0.3981675 0.023531346 0.110528424 0.036348738 0.46268392 -0.25636345 -0.32193896 -0.056924246 -0.2548988 -0.514036 -0.20888233 -0.22227913 0.538606 0.36108235 0.64856577 -0.1742825 0.19850591 0.58606887 -0.16278102 0.30752352 -0.1840887 0.16051929 -0.53244716 -0.34724104 0.70819217 -0.24614412 0.2121655 0.049284197 0.33863285 0.31163514 0.27771038 -0.47700968 -0.69962007 -0.21787818 0.35230482 -0.20756635 0.3388955 0.09525322 0.19988392 -0.53506005 -0.21296749 0.3061436 0.04362682 0.28963867 0.107994154 -0.33702353 0.5848943 -0.04273955 -0.14510429 0.28143436 -0.12579986 0.2652965 0.050038353 0.576546 -0.049010064 -0.043148544 0.04494646 -0.15927528 -0.08509362 0.35744765 -0.044272386
Tattered-Prince 0.14115845 -0.4876895 0.3643056 0.33397627 -0.052283965 -0.25559282 -0.15867774 0.21369731 -0.5770272 -0.006619301 -0.031984366 -0.42768332 -0.117978394 -0.109797396 0.24992487 -0.0077855843 0.4920622 0.57595253 -0.013085896 0.55518585 0.007281033 0.7322372 0.2461652 0.36893684 0.21017312 0.3423418 -0.010675779 0.023666982 0.6146849 -0.47201493 0.41088864 0.16077466 -0.11857226 -0.38369247 -0.11072946 0.43847382 -0.4128421 0.26670778 0.08346186 0.30114216 0.39955118 -0.42684862 -0.2058876 -0.11297012 0.29526085 0.06375244 0.050325915 -0.11215757 0.29439023 0.1235999 0.63460845 -0.39580163 0.31384334 0.6422769 -0.4662628 0.3004964 0.06023492 -0.29176888 -0.40019298 -0.22465004 0.42022938 -0.33888933 0.25167754 0.9016152
Satin 0.36986253 -0.48559356 -0.03223998 0.37414756 0.17798291 0.054134652 -0.23547208 0.25049612 -0.2328318 -0.49122745 -0.056532316 -0.24309912 -0.6180977 -0.07592986 -0.23996988 0.25164002 0.25280812 0.30163723 -0.023280308 0.12633102 0.712654 -0.058585458 0.1366236 -0.47166723 0.38821363 -0.44761804 -0.60225385 0.2950391 -0.42094713 0.035231553 -0.0023815415 0.2164008 -0.032088544 0.16686104 -0.3450733 -0.5676905 -0.20230298 0.16529149 -0.26529488 0.34891734 0.17105548 0.13308729 -0.46012545 -0.32821834 0.35669637 -0.1136187 0.21040797 -0.101381995 -0.08788418 0.42215243 -0.14754157 -0.20412605 0.55193263 -0.0934675 0.05701706 0.0051240306 0.57907754 -0.13546622 -0.24558215 0.091236226 -0.22294812 0.05543442 0.41445813 -0.08578478
Ysilla 0.4097146 -0.1560199 0.21720126 0.39685872 -0.045234002 -0.10522163 -0.13424544 0.20526813 -0.35294187 0.0081595145 0.2703358 -0.19777489 -0.30807826 0.038682282 0.29935232 0.27246806 -0.521747 0.020568982 -0.06906307 0.4987972 0.044459876 0.23700297 0.21947707 0.15537122 -0.09221333 0.8971625 0.0014100204 -0.1307003 0.13068514 -0.24223496 0.048108928 0.37778306 0.23608239 -0.5353303 -0.057928033 0.0004892872 0.26024923 0.3424836 0.3381327 0.039782833 -0.2711517 -0.28026596 -0.27066058 0.114015706 0.37478548 0.019438162 -0.28838816 -0.2201964 0.26224375 0.26857832 -0.0023807175 0.3478361 -0.03929666 0.3304731 0.08854752 0.5053513 0.4911606 -0.1042597 -0.64862084 0.119818226 -0.26941144 -0.35017574 -0.13717665 0.3143025
Barbrey-Dustin -0.08869132 -0.5567513 -0.1267389 0.07893338 0.6895036 0.0019299337 -0.01976299 -0.05985383 -0.40870896 -0.21361913 0.07138254 -0.2874195 -0.1858761 -0.46659547 0.16350733 0.27330223 0.14564337 0.10636702 0.3992288 0.2783918 0.6455805 0.016991459 0.13888715 -0.65683013 -0.13317049 -0.34165084 0.014523213 0.6668498 0.16660684 0.3002126 0.008440452 -0.43326646 0.008622618 -0.067000575 -0.33077246 -0.13326238 0.044525 -0.23993996 0.06158708 -0.13187198 -0.18862122 -0.3180015 -0.4502507 -0.0858145 0.14778619 -0.15429088 0.2158449 -0.0716317 0.063204296 -0.093983725 -0.04986749 0.23709305 0.07842804 -0.28543076 -0.23469192 0.010977803 0.21201202 -0.34868845 0.17258094 0.36977202 -0.6631414 -0.5221293 0.18251632 -0.048943873
Reznak-mo-Reznak 0.19446917 -0.2526317 0.3498087 0.42791325 -0.11018283 -0.38076892 0.09645788 0.3495128 -0.51786095 0.023078013 0.21714789 0.098569386 -0.03526656 -0.20213073 -0.018087482 0.34670818 0.3146742 -0.08810141 0.06924396 0.70905244 0.13229553 0.4893786 0.18287757 0.13075602 -0.092416316 0.2730486 0.044671338 -0.32361102 0.3805891 -0.49131584 0.6420487 0.14394093 -0.025608424 -0.057146754 -0.065435655 0.11502722 -0.07617099 0.017606102 0.5269806 0.3172117 0.16446616 -0.24747409 -0.05957684 0.53107196 0.023868388 -0.11727799 0.16203925 -0.26797706 0.11734362 -0.058806192 0.30126464 -0.16684493 0.37549794 0.5870127 -0.37062687 0.04683015 0.22564098 -0.2827187 -0.33439595 -0.20865068 0.02452853 -0.3476331 0.2233385 0.4315495
Clydas 0.13603377 -0.51585156 0.06681937 0.16538922 0.13629231 0.23369426 -0.17069034 0.37503058 -0.19077438 -0.382714 -0.24172135 -0.418459 -0.28548542 -0.04801676 0.0050349096 0.2940518 -0.07172755 0.5236627 -0.19042107 0.2206437 0.2584952 0.1536577 0.34891742 -0.33838686 0.34524757 -0.4745323 -0.10797537 0.5088446 -0.3489346 -0.08900542 0.09227005 0.026256902 -0.20420086 -0.10291898 -0.16221465 0.20128636 0.118404195 -0.058577906 -0.025569754 0.01229715 -0.34437606 0.024594104 -0.18951 -0.15973248 0.058375273 -0.3994413 0.20367908 -0.16227552 -0.4581949 0.38141134 -0.23995773 -0.31116962 0.427429 -0.22430417 0.26658374 -0.19859336 0.49537167 0.20539528 -0.34733072 0.33380735 -0.16595492 -0.21071447 0.51060617 -0.4158628
Leathers 0.31310132 -0.31599942 -0.3199205 0.3903374 0.20566289 -0.12716496 -0.119652435 0.35081917 0.091481395 -0.31616753 -0.1431876 -0.15603621 -0.34053063 -0.0626603 -0.23085476 0.53620476 0.03577938 0.544877 -0.23843439 0.10721908 0.5648982 0.46743384 0.3687112 -0.27737 0.37463233 -0.6049844 -0.38774458 0.6192607 -0.41261846 0.032417756 -0.14757651 -0.26764205 -0.0178742 0.67007107 0.056357324 -0.11023449 -0.035890553 0.17498824 -0.18538067 0.3040306 -0.2726738 0.23830667 -0.40062496 -0.16413489 0.30797556 -0.308918 -0.04309413 -0.03646471 -0.1800451 0.17148602 -0.28091568 -0.09368304 0.27982563 0.18094079 0.23382303 0.21518843 0.45638123 -0.27645457 0.038678754 0.27348346 -0.50861007 0.013992184 0.63091654 0.1522718
Ben-Plumm 0.29969049 -0.093184896 0.3642777 0.1538533 -0.10499015 -0.35131744 -0.02316115 0.49550238 -0.7220417 -0.0912906 0.41407233 -0.16612367 -0.15462844 -0.19992499 0.11995581 0.3110718 -0.028173175 -0.084414974 -0.22966476 0.6316809 0.28147 0.39694884 0.66320395 0.0962017 -0.12401372 0.5581428 -0.19441007 -0.19496477 0.4719683 -0.3446454 -0.08999882 0.34070152 -0.0053937314 -0.2646522 0.05859458 0.4229442 -0.24583372 0.22518595 0.37084752 0.13519295 0.1738658 -0.043331724 -0.5308645 0.50103843 0.19412465 0.061865848 0.21463005 -0.061621644 -0.046191234 -0.16102688 0.033997558 -0.11069524 0.083499126 0.83407474 -0.19034758 0.011785666 0.2040547 -0.32487115 -0.1786357 0.14176145 0.2121202 -0.15861589 0.030085424 0.34080893
Jorah-Mormont 0.34506503 -0.27215132 0.14582053 0.39861017 -0.20612663 0.02413458 -0.0014340916 0.36465064 -0.5112214 0.25210148 0.45850793 -0.14163566 -0.204604 0.24463439 0.20697652 0.15613006 -0.1967552 -0.14609262 -0.3434769 0.4076762 0.0043904684 0.26806873 0.22915228 0.044115905 -0.14189784 0.5886574 -0.28792566 0.01677553 0.28096554 -0.49184972 0.048050117 0.25457865 -0.053713728 -0.393197 0.090279825 0.21171309 0.119814895 0.283922 -0.01657264 -0.35719624 -0.5028222 0.17719662 -0.37830713 0.23705678 0.29892993 -0.072573714 -0.034183662 -0.16184226 0.25144532 -0.009993904 0.081385605 0.082896024 0.022724044 0.4622384 0.006254147 0.252085 0.44046396 -0.39307806 -0.30893198 -0.04489488 -0.051096283 -0.36999345 0.038129423 0.39207152
Meris -0.030463554 -0.4189596 0.42996088 0.27100587 -0.40544042 -0.28334197 -0.11789469 0.33371487 -0.7938921 0.0907856 -0.10527703 -0.15321559 -0.23454615 -0.39816666 0.26799294 0.22810966 0.6313351 0.40855724 0.14433016 0.5029707 -0.03205242 0.5704404 0.14391439 0.32527435 0.15237163 0.38908926 0.059598662 0.26094693 0.62519044 -0.38451385 0.39344582 0.11082793 0.09038088 -0.30334622 0.042832587 0.36289915 -0.45806587 0.4628571 0.22761595 0.012671388 0.38174564 -0.62973505 -0.11774815 0.17657423 0.32775122 -0.12432893 0.22576904 -0.23349334 0.19451337 0.18136984 0.57583314 -0.23243439 0.5639508 0.62429667 -0.14852804 0.28393432 0.028744807 -0.12975298 -0.48790717 -0.10218085 0.39335302 -0.27868453 0.056740515 0.7578859
Sour-Alyn -0.43170336 -0.39602485 -0.69012463 -0.0561212 0.63006413 -0.0875817 0.35295108 -0.07914383 -0.60405385 -0.46411562 -0.043471392 -0.38370526 -0.2167921 -0.012918479 0.13757099 0.20125932 0.3443822 0.3077318 -0.07510131 0.40065613 0.62342495 0.1936166 -0.065524645 -0.41350678 0.24385697 -0.0405779 -0.28533524 0.5358973 0.09209954 0.17838052 -0.0020953408 -0.6676141 0.3188712 -0.17484811 -0.24151357 0.023016894 0.5312344 -0.28306982 0.05095087 -0.0886985 0.122385636 -0.4339624 -0.7819067 -0.2827089 0.29970583 -0.44894847 0.208574 -0.48513415 0.039158087 0.14128728 0.15412988 0.19600567 0.37849414 -0.27715084 -0.24922754 0.025317885 0.21944512 -0.355531 0.5108713 0.38729718 -0.4769216 -0.581423 0.19896649 -0.012619997
Obara-Sand 0.14487763 -0.19751394 0.95879173 0.12770496 0.4214901 -0.45143804 0.14208826 0.20919149 -0.23795086 -0.16349491 -0.5106416 -0.2992936 -0.46090326 0.12300233 0.4980767 0.34798142 0.46939048 -0.30757925 -0.09070029 0.611175 0.27133375 0.40467244 0.5479335 0.37145904 -0.15426655 0.57045996 -0.10757717 0.4033831 0.6802599 -0.34715563 0.5078422 -0.0595254 0.8749554 -0.25792807 -0.27068335 -0.27455398 0.07400778 0.13699695 -0.3386301 0.23904255 -0.21605131 -0.092270955 -0.1631001 0.043971304 0.58622146 -0.20570713 0.07554603 -0.8188426 -0.18896905 0.06930241 -0.1919364 -0.49936754 0.09751826 -0.08880982 0.13649704 0.16066629 -0.5599681 -0.545415 -0.11943612 -0.42124227 -0.15742509 0.09987812 0.39375836 0.46311563
Emmett 0.5055793 -0.42234346 -0.3590465 0.39134023 0.11022995 -0.07187247 0.2557316 0.3177724 -0.18617202 -0.39254096 -0.29675147 -0.3635245 -0.51898634 0.090805344 -0.31200442 0.15914956 0.07053545 0.40744776 0.05754956 0.19629197 0.56795186 0.06456585 0.3037837 -0.17424634 0.025799705 -0.8028924 -0.21061607 0.32899356 -0.32329693 -0.057440255 0.10683952 0.27494994 0.15986197 0.019086761 -0.48919758 -0.31998438 -0.052391514 0.072931424 -0.1403636 -0.0868417 -0.16867836 0.045351036 -0.16498974 -0.38585576 0.2898338 -0.17245576 0.17597255 -0.08606572 -0.017660277 0.44420546 -0.21659452 -0.28785047 0.5508433 0.07514672 0.2029033 0.08164945 0.7007256 -0.26575658 -0.16853005 -0.11224767 -0.5943337 0.04240627 0.2423675 -0.33800507
Gilly 0.22268514 -0.5401978 0.14398064 0.17537594 0.358212 0.044281572 0.02312506 -0.23179787 -0.117941394 -0.42080978 -0.5474406 -0.2997405 -0.59273434 0.13780993 -0.27139083 0.40666562 0.13517849 0.5046227 -0.0934701 -0.0155175235 0.59014994 0.41000223 0.2758618 -0.08651162 0.3336999 -0.27561352 0.17186576 0.53084904 -0.048076227 -0.24226792 0.14481233 -0.071091026 0.25624883 0.033678256 -0.3988658 0.12306314 0.0351896 -0.1295313 0.032337092 0.19381078 -0.38130397 0.13021135 -0.560627 -0.35767788 -0.13293384 -0.21089089 0.00037896127 0.120756276 -0.10182845 0.22612986 -0.09992955 -0.1233185 0.48100483 -0.1649483 0.19692053 -0.3463191 0.6076946 0.03810674 -0.3062539 0.31157407 -0.2689398 0.06829699 0.19716598 -0.35315824
Archibald-Yronwood -0.21217799 -0.56535906 0.29592803 0.53990674 -0.19416195 -0.551349 -0.1842695 0.32776505 -0.43574727 0.16767895 -0.15847453 -0.11467393 -0.16037343 -0.35869405 0.25757948 0.09572608 0.44864818 0.012756027 0.025334235 0.5608856 -0.048916023 0.797305 0.575281 0.25415117 -0.05696513 0.4455791 -0.1541704 0.023324283 0.5137456 -0.4857583 0.45967084 0.16060598 0.044119705 -0.5606738 -0.10745963 0.20790559 -0.37774247 0.102427274 0.19949278 0.16149959 0.63800323 -0.44377586 -0.16481216 0.12344491 0.15459166 -0.14571863 -0.026183136 -0.20397156 0.4545825 0.034760125 0.46457288 0.07025608 0.62977767 0.64748144 0.11352025 0.14856325 -0.007898809 -0.30952436 -0.38022742 -0.074845165 0.37594464 -0.2743582 0.272476 0.5150974
Gregor-Clegane -0.00881791 -0.05310071 0.692743 0.6202143 0.7572901 -0.21790509 -0.02879936 0.34047127 -0.47986832 -0.5418943 -0.3112048 -0.4130371 -0.6194494 0.11753107 0.6034502 0.4384466 0.10245682 -0.27192917 0.40987635 0.5706428 0.09461576 0.57926893 -0.027009865 0.3256381 0.1906987 0.2705857 -0.0724961 -0.24598564 0.24578257 -0.3042854 0.05722306 -0.047312677 0.5879095 -0.044806812 0.34843588 -0.20117743 -0.29717773 0.11839545 -0.56640816 0.2023936 -0.03640983 0.24584833 0.38149568 0.15749113 0.10903136 0.14753881 -0.04613215 -0.6693262 -0.08056014 -0.1454864 -0.09762842 -0.20805039 0.25420734 -0.07751427 0.15504034 0.59727 -0.17469078 -0.32846475 -0.31893027 0.17571893 -0.17335127 -0.33102286 0.35587436 0.1388522
Jhogo 0.19877909 -0.45268533 0.3497857 0.3464089 0.12721168 -0.65710944 -0.15936378 0.34550533 -0.8863192 0.24069558 0.35131276 0.04650658 -0.061836094 -0.23020135 0.54666567 0.35465616 0.10726878 0.2651535 0.12245514 0.73854566 -0.10097665 0.2721771 0.60751563 0.2692217 -0.3297462 0.57892966 -0.18517347 0.006090011 0.29167476 -0.44449532 0.1981076 0.35532922 0.031095516 0.12692823 -0.20301326 0.082772665 -0.2136049 0.09002275 0.5825828 0.12391995 0.1655352 -0.064114764 -0.41182318 0.5561777 -0.35731566 -0.36560696 -0.01594297 0.026517054 -0.08943438 -0.1360383 0.123763874 -0.3358626 0.5899808 0.52663505 -0.5522822 0.3418806 0.20657536 0.11521835 -0.045602735 -0.1359472 0.30791336 0.05089499 0.518574 0.617318
Balon-Swann 0.36572194 -0.39594552 0.7004603 0.17145048 0.35987455 -0.29722473 -0.016459862 -0.05625585 -0.021718368 -0.051577576 -0.16313541 -0.2399686 -0.3540795 0.124352336 0.30945218 0.14515027 0.19308017 -0.15010609 -0.26844284 0.43447322 0.39409003 0.4760594 0.18518904 0.52274185 -0.27265176 0.5154772 -0.38037527 0.13234903 0.58164567 -0.33972496 0.16059935 -0.11268428 0.37516057 -0.30284962 -0.068779424 -0.13674451 -0.107528254 0.09172641 -0.19492407 0.23349047 -0.3125074 0.12651181 0.17922325 0.09312344 0.5751323 -0.1813891 -0.07442966 -0.7426111 -0.29667008 0.16367957 -0.17199333 -0.26676527 -0.09930799 0.21878529 0.1985192 0.6046742 -0.18933642 -0.22831306 -0.25464746 0.0041846046 -0.1235352 0.07668507 0.49478322 0.34271413
Alysane-Mormont -0.08768891 -0.5767999 -0.035642833 0.29944962 -0.22854766 -0.15011725 0.31935528 -0.19964398 -0.013209319 -0.46036685 -0.072254084 -0.39283255 -0.37700495 0.06648074 0.09454362 0.37466848 -0.32582852 0.2216596 0.25776365 0.16304368 0.21924652 -0.06630092 0.1530946 -0.62603766 0.05823043 -0.06758062 -0.051875833 0.38523126 0.19654319 0.21135303 0.32409063 -0.061069224 0.025596742 0.41776463 -0.24377087 -0.3748054 -0.257452 -0.17192607 0.07315185 -0.115418546 -0.2524326 0.009986728 -0.17577973 -0.13446838 0.11138477 -0.42122898 -0.14322327 -0.58812547 0.17683211 -0.28126186 0.15152167 -0.06766528 -0.011789582 0.15161997 0.3757605 -0.29233438 0.38780728 -0.055341803 0.012911741 0.41112372 0.023146106 -0.40962613 0.49716958 0.026993418
Scolera -0.011072525 -0.6034576 0.4277698 0.48728988 0.0430245 -0.15686299 -0.16096058 0.39245567 -0.6869526 -0.03685941 -0.19234924 -0.44279686 -0.53797024 0.1212754 0.6070632 0.4057752 -0.25222456 -0.5589702 0.13585933 0.79080003 0.024651922 -0.0024024928 -0.07917635 0.12825596 0.36347362 0.103677906 -0.13126165 -0.5938556 0.21144825 -0.5542294 0.18920633 -0.15073115 0.28250033 0.37245637 -0.4250295 0.37089112 -0.057265572 0.40433803 -0.5313014 0.32921022 -0.26456326 0.30925798 -0.05907209 0.048117373 0.44031277 -0.3862619 -0.5230633 0.031255785 0.09873628 0.30498818 0.1385662 -0.1834156 0.1122309 0.021305077 0.023282925 0.35660848 -0.24413684 0.0045375596 0.19273531 0.6110458 -0.28745782 -0.5325455 0.23404324 -0.060740914
Grey-Worm 0.015666688 -0.17122124 0.15253556 0.27026072 -0.17876936 -0.43073964 0.019687427 0.46472678 -0.5848414 0.09333109 0.27195266 0.032869425 0.061569404 -0.04518999 0.4233391 0.37947834 0.5231374 0.0714041 0.121777244 0.8607194 0.027680892 0.4884027 0.36829844 -0.09347421 -0.2639566 0.70574975 0.026696933 -0.21839243 0.20694551 -0.33303776 0.36479998 0.27066854 -0.11815154 -0.0696213 -0.09426399 0.18944557 -0.056293312 0.04253209 0.4865065 0.21539332 0.1844227 -0.28775954 -0.14643915 0.5706222 0.09369692 -0.20082507 0.05896187 -0.1907493 -0.008820098 -0.18975772 0.1970571 -0.36911952 0.46424082 0.5072411 -0.28147727 0.31896746 0.04817866 -0.030602673 -0.2874109 -0.10924574 -0.016031457 -0.21091363 0.39174223 0.5500943
Hagen -0.19326906 -0.92711604 -0.38805193 0.10267785 -0.057295475 -0.30980527 0.48262128 0.33129737 0.43006074 -0.6884705 0.34958264 -0.82757765 -0.88367045 -0.10274989 0.19303739 0.4639071 -0.58228093 -0.15775256 0.06862806 0.51774275 0.5036448 0.2992436 -0.086857155 -0.5837141 0.2875866 0.040667765 0.07235332 0.6503507 0.046822503 0.15902178 0.4997283 0.09819868 -0.12062943 0.045012683 -0.13821469 -0.36550164 -0.34830824 -0.42232138 0.105522886 -0.2519699 -0.31293997 -0.23966733 -0.6642593 -0.30380356 -0.12080275 -0.39323744 0.04511382 -0.9010532 -0.03520652 -0.28871313 0.3951678 -0.24392039 0.106251284 0.13691539 0.15078041 -0.36586583 -0.007515375 0.13276422 -0.19254908 0.5899249 0.12991023 -0.22729853 0.40004438 0.25380936
Godry-Farring -0.11833531 -0.54544413 0.15692905 0.096597955 0.04921987 0.062933795 0.11429728 -0.078627266 -0.102532245 -0.5719002 0.071364865 -0.39300564 -0.5461873 0.4040082 -0.31800863 0.2781062 0.0013166763 0.24446054 0.18055774 0.12885904 0.33628538 0.27389467 -0.06671763 -0.58112246 -0.09901417 -0.012869238 -0.061132852 0.44561455 -0.35659248 0.26536065 0.14258975 -0.042431787 0.11461941 0.1471411 -0.09687287 -0.33320823 -0.021907315 0.02794979 0.10497962 0.1585036 -0.43595853 -0.039212216 -0.09742963 0.015668955 0.014116438 -0.48895806 -0.017376808 -0.28599012 0.22257398 -0.10011014 -0.029771714 0.13032715 -0.070252836 0.11875586 0.48824963 -0.11322747 0.4695791 -0.0072219237 -0.012684786 0.5430222 -0.15469728 -0.338557 0.36719012 -0.08530719
Belwas 0.07902343 -0.31526044 0.2617174 0.45399338 -0.15649064 -0.45709723 -0.032188933 0.37590215 -0.41139987 0.02335114 0.28006902 -0.09486413 -0.11691697 -0.25367478 0.09972352 0.24532852 0.35171807 -0.11434794 -0.04751336 0.6546813 0.12134988 0.48165002 0.24778293 0.14257573 -0.073165305 0.38426158 0.019747274 -0.23609072 0.2653272 -0.4924979 0.51487726 0.09817784 -0.026490344 -0.094411165 0.023563102 0.3898753 -0.07304965 0.06361075 0.4919176 0.2028099 0.28962722 -0.22284761 -0.1560555 0.4885338 0.01580019 -0.115021095 0.0425828 -0.25823814 0.07068688 0.010838299 0.27282616 -0.34065437 0.46295846 0.6331333 -0.38421148 0.1414007 0.2333091 -0.29462 -0.35362035 -0.16240774 0.03359422 -0.2917711 0.29699636 0.45727238
Moelle -0.15462233 -0.52080023 0.35320023 0.42244008 0.057322867 -0.14429024 -0.124543816 0.40260142 -0.6435601 -0.24056521 -0.1768312 -0.42973647 -0.58406883 0.20697144 0.70271987 0.5629597 -0.06969087 -0.4175378 0.041818764 0.9571349 -0.10860385 -0.0073145707 -0.07865365 0.1399466 0.35860088 0.25206658 -0.24144553 -0.5383107 0.17356208 -0.6755035 0.11104956 -0.20450503 0.28450555 0.4261317 -0.31817448 0.27788007 -0.0346158 0.50740296 -0.57012427 0.3529641 -0.14153849 0.26815072 -0.0981788 0.13110708 0.40561017 -0.398262 -0.42767522 0.03212416 -0.17980869 0.3356602 0.24627785 -0.06039252 0.022330042 0.18805853 0.06027539 0.31156236 -0.28737882 0.070989974 0.2093199 0.5331395 -0.28861395 -0.5073483 0.12521294 -0.1552901
Mully 0.13390258 -0.31109402 0.35424376 0.37311593 0.11126642 0.009775841 0.16928466 0.66151625 -0.10931539 -0.32851163 -0.27657428 -0.5444885 -0.14812993 -0.21669364 -0.31487736 0.21922731 0.055575907 0.3492094 0.00857791 0.3507351 0.5696094 0.21184798 0.23687756 -0.06979168 0.58674955 -0.63867307 -0.31923288 0.5644018 -0.39251673 0.11534362 -0.03349072 -0.045013897 0.13022366 -0.010743927 -0.011836525 -0.13140447 -0.12374296 0.21198662 -0.03093423 -0.1696143 -0.3683603 -0.13097045 -0.026884114 -0.2831716 0.029325021 -0.30469906 -0.046444297 -0.2236144 -0.20699243 0.23515649 -0.35381964 0.11838346 0.65131575 -0.029162554 0.15965407 -0.27740687 0.77278244 -0.07592188 -0.07061022 0.20922227 -0.14353774 -0.037115116 0.17532457 -0.47246295
Rattleshirt 0.1811701 -0.5132307 0.0499121 0.15939549 0.21659164 -0.10394011 -0.121287964 0.3267668 0.059154227 -0.3127672 -0.18958345 -0.18105498 -0.25150377 0.11092425 -0.13868155 0.42624223 0.16418713 0.5856247 0.1022473 0.10222959 0.4922287 0.14399952 0.12823577 -0.14393835 0.16157466 -0.393021 -0.14412783 0.38585547 -0.49311075 -0.055453915 -0.037377 0.0038387785 0.1951145 0.085806966 -0.3416243 -0.16307203 0.16333103 0.108861394 -0.17418203 0.011169012 -0.40315247 -0.005705369 -0.40313357 -0.26280668 0.1721063 -0.3315767 0.04661615 -0.26184392 -0.22171006 0.12681404 -0.20236047 -0.031059286 0.27527258 0.2660037 0.24471308 -0.14329882 0.46186528 -0.109084815 -0.040044285 0.20736617 -0.27364025 -0.040604386 0.44954795 -0.32809368
Aggo 0.0944704 -0.31112432 0.25170496 0.5380622 -0.060987476 -0.51962864 -0.15984912 0.025882885 -0.74811405 0.09130169 0.16143744 0.0043526012 -0.06821637 -0.044970058 0.54736876 0.047009435 0.25910676 0.097740196 0.19845967 0.8257335 -0.0010440875 0.37576446 0.50684184 0.22006465 -0.0987636 0.4001653 0.053081322 -0.057686754 0.24498792 -0.32814273 -0.22804084 0.26972115 -0.14598957 -0.027477827 -0.040467132 0.128386 -0.33499214 0.09924386 0.704399 0.1822268 0.14082256 -0.17167257 -0.20016977 0.45727345 0.0073508117 -0.68114275 0.013538819 -0.14694159 0.037115745 -0.13663621 -0.12215659 -0.4788087 0.48462525 0.761454 -0.6240065 0.13920379 0.17220515 -0.033716794 -0.3318146 -0.07735865 0.06723251 -0.19693117 0.30619624 0.6999578
Rowan -0.11643509 -0.39935482 0.08232672 0.33364016 0.6271051 -0.005214027 0.34364566 0.063797526 -0.31970906 -0.25884867 0.11459002 -0.42256978 -0.3991048 -0.2707208 0.13725615 0.29349434 0.063482 0.30147803 0.30812588 0.09462018 0.4083785 0.16464846 0.027855428 -0.7691418 -0.14241017 -0.26096871 0.23737657 0.61396664 -0.2483665 0.17686555 -0.17051171 -0.4415472 0.32308733 0.072318 -0.27512297 -0.27967235 0.31180862 -0.12207811 0.09022039 0.14529431 -0.321668 -0.5624095 -0.6816205 -0.26144147 0.19270568 -0.35534257 0.121651836 -0.19351034 -0.13392901 0.017210497 -0.1992268 0.27489263 0.5089491 -0.3329591 -0.45301187 0.04886777 0.07289416 -0.11770233 0.1260763 0.53159636 -0.643183 -0.31590155 -0.15951446 -0.0041354913
Rakharo 0.1501336 -0.3734434 0.26564783 0.59278905 -0.14778282 -0.5137566 0.10184031 0.44446176 -0.7434397 0.21314782 0.39561597 -0.20981753 0.21508013 0.117812194 0.58031446 0.28581658 0.42208007 0.12855226 -0.010968296 0.8927559 0.114239186 0.3534107 0.37783232 -0.02824585 -0.21933132 0.58795786 0.15903696 -0.13591813 0.20503949 -0.11411813 -0.0878235 0.4754762 0.17486247 0.027835406 -0.17307475 -0.043741945 -0.2747596 0.070794456 0.5829435 0.2638426 0.29335058 -0.46506965 0.00446057 0.6098256 0.15384653 -0.4360686 0.069773614 0.184147 0.10304164 -0.20179091 0.056088842 -0.2684396 0.41504577 0.41139215 -0.38643375 0.50967443 0.20014776 0.008704422 -0.14165996 -0.05690598 0.11165086 -0.16529642 0.54507244 0.68398476
Mace-Tyrell -0.30891418 -0.35899583 0.3681465 0.27612755 -0.028494693 -0.3488018 0.123741955 0.279348 -0.9224034 -0.08650279 0.20479682 -0.20052956 -0.47057965 0.45671043 0.22168572 0.64342976 0.21513435 -0.5074964 0.3261646 0.47964147 -0.26191682 0.32881787 0.07423799 0.24283308 0.2958598 -0.113955915 -0.2769512 -0.2077333 0.337655 -0.46280277 0.20367905 0.4753355 -0.011529778 -0.24969488 0.08846441 0.05573875 -0.4674083 -0.05821067 -0.14289741 0.52897245 -0.14197007 -0.19215682 0.3929077 0.034489624 0.45005068 -0.018758541 -0.03496762 0.25952968 -0.0059856544 0.29803398 -0.13609171 0.16871813 0.2572461 0.31089765 -0.33333236 0.031392805 -0.010731558 0.15119843 0.05892528 0.27055645 -0.5608185 -0.398422 0.21117553 -0.039854705
Wun-Weg-Wun-Dar-Wun 0.23465383 -0.6211377 -0.1516393 0.30067152 0.2136407 -0.010029505 -0.036549624 0.7909469 0.16886133 -0.5312668 0.10060166 -0.3190765 -0.56775624 0.1360758 -0.3089788 0.71776205 0.07309569 0.5198007 0.021376822 0.16944991 0.69137174 0.16240612 0.85435027 -0.1392848 0.024966592 -0.5822647 -0.18172808 0.33980268 -0.278279 0.15715204 -0.10132971 -0.21810915 -0.06430578 0.35165933 0.03776856 -0.0065111653 0.27140749 0.103042886 -0.23820442 0.33251598 -0.055776875 0.31821465 -0.28421023 -0.28231823 0.13532558 -0.106839284 0.14925358 -0.07871231 -0.081352085 0.1753723 -0.2574864 0.16455972 0.15850337 -0.014005549 0.054370195 -0.01944027 0.36088088 -0.21974373 -0.14211592 0.18686378 -0.18292947 -0.0798281 0.4394023 -0.033328
Shireen-Baratheon 0.087866336 -0.005094437 -0.0048111263 0.3233861 0.1213247 0.19244093 -0.37744436 0.32040527 0.12207588 -0.66010624 -0.3222714 -0.09206625 -0.53919905 -0.16561681 -0.407061 0.7289703 0.2133937 0.33235884 0.47475922 0.17832501 0.5905261 -0.11099573 0.362752 -0.22717896 0.12060986 -0.0031500363 -0.35830975 0.3726139 -0.2703997 0.0740033 0.2872878 0.13057443 -0.1536079 0.24229883 -0.18300638 0.037650302 0.29943502 -0.30503908 -0.23269568 0.15660167 -0.1000152 -0.061816182 -0.2760618 -0.13721226 0.3792974 -0.21677674 0.1317547 -0.2494384 0.19003351 0.1747157 -0.46833363 0.121204406 0.46494213 0.29900497 0.14647557 -0.111853726 0.44816396 0.11522274 -0.007345319 0.34182653 -0.22057933 -0.19198327 0.13484426 -0.15729186
Skinner -0.37066865 -0.5672475 -0.5031511 -0.06750622 0.55339235 0.2112696 0.15147062 0.012863175 -0.44416687 -0.50756466 -0.16226058 -0.5420291 -0.23314007 -0.03896871 0.44271064 0.36508802 0.52001715 0.26203912 0.11825024 0.37933284 0.69786406 -0.08690367 0.16289867 -0.29635066 0.2863363 0.015436198 -0.1497707 0.51825154 0.10670761 0.47260013 -0.009980789 -0.4711568 0.32624578 -0.13122216 -0.28146452 0.10728921 0.41037947 -0.16107836 0.3772977 -0.09342196 0.09348288 -0.4611717 -0.6627089 -0.32519674 0.35423547 -0.4042069 0.00028517048 -0.44435552 -0.12165305 0.11541849 0.18498366 -0.10414345 0.40449005 -0.171971 -0.46460462 -0.12711656 -0.036423616 -0.41998655 0.7245426 0.28919864 -0.74716663 -0.52315694 0.19289099 -0.11319631
Damon-Dance-for-Me -0.24926649 -0.4494172 -0.43740872 0.047426566 0.5954719 -0.08081934 0.33392018 -0.020971851 -0.492853 -0.39642888 -0.012084533 -0.48795554 -0.33506843 -0.029965026 0.1615192 0.096364886 0.414696 0.2319692 0.013036929 0.54192096 0.80158186 0.030001258 0.054267574 -0.45259947 0.29153314 -0.12702142 -0.22783937 0.42198408 0.19167359 0.27426308 -0.022452636 -0.6860433 0.34499335 -0.14926809 -0.3863313 0.062338196 0.2832733 -0.34924695 0.11132088 -0.11895745 0.16174471 -0.4772599 -0.5222045 -0.3372141 0.34676856 -0.5628717 0.041900456 -0.42070323 0.08148456 0.04716159 0.061515838 0.2015032 0.28365988 -0.28604046 -0.38413936 -0.21548161 0.10109238 -0.31269062 0.5719764 0.32128638 -0.6811128 -0.40074673 0.070825875 -0.020100815
Harry-Strickland -0.042843428 -0.6732813 0.2774733 0.30171248 -0.14499749 -0.24029797 0.015268192 0.023858022 -0.34780097 0.098710835 0.24226609 -0.17609799 -0.023755698 0.33298787 0.14053965 0.5951478 -0.4710626 0.11337816 -0.20314841 0.6237394 0.032825977 0.22451122 0.19475158 0.022235636 0.006636958 0.61182725 -0.03004245 -0.037791394 0.54125065 -0.16292596 0.09236733 -0.05250463 -0.012776801 -0.17106779 0.24582641 -0.033616114 0.081880614 0.5220648 0.17856276 -0.31605545 -0.046218272 -0.19580719 -0.4709442 0.3388132 0.098746724 0.3460917 -0.31009218 -0.06560739 -0.031420857 0.15421392 -0.047817145 0.24338946 0.26177418 0.27116466 0.0062301774 0.33745897 0.1637189 -0.007708018 -0.75909597 -0.078326024 -0.31906474 -0.37713125 -0.41748342 0.27322018
Grimtongue -0.051541805 -0.69174457 -0.39574313 0.020211004 0.08506861 -0.3584456 0.44644666 0.4355875 0.31377104 -0.5015136 0.20755894 -0.5613953 -0.87311095 -0.22152087 0.07671661 0.38434017 -0.5773107 -0.33800113 0.2905739 0.49996895 0.5383954 0.45581463 -0.3375439 -0.5339668 0.38490933 0.051723108 0.04138739 0.7235651 -0.01272826 0.2616191 0.507273 0.1385192 -0.34865227 0.16589797 -0.25311747 -0.29553488 -0.40081245 -0.37347883 -0.043611612 -0.4330597 -0.4520193 -0.23994368 -0.6648651 -0.0340785 -0.20965606 -0.5663864 0.14942773 -0.79896075 0.21701048 -0.11992162 0.4159167 -0.3700778 0.09897846 0.020000316 0.27913022 -0.3659806 0.16441838 -0.16896206 -0.19103462 0.55626416 0.13360879 -0.50785786 0.48666683 0.52100277
Tristifer-Botley -0.1895245 -0.5670424 -0.25253087 0.18908034 -0.23415117 -0.35805956 0.33452052 0.04845298 0.021753404 -0.6843877 0.17103347 -0.67843974 -0.61207527 0.22193539 0.22041194 0.3979504 -0.5789581 0.036062103 0.31875998 0.07647357 0.37586778 0.13338846 -0.09882138 -0.60633534 0.052920543 -0.05690404 -0.00500333 0.6080833 -0.058883496 -0.033058625 0.36759937 -0.13153516 -0.074186854 0.30317122 -0.1972294 -0.36160523 -0.46565777 -0.26258162 0.25531268 -0.23494719 -0.073443964 -0.10251863 -0.4435149 -0.005199244 0.08804585 -0.35046425 0.12033543 -0.6250686 0.1815112 -0.15977539 0.2439363 -0.15359291 0.09189289 0.19799025 0.2490386 -0.46348485 0.08634683 0.056807585 -0.13882293 0.25008398 0.06520559 -0.4685171 0.33868292 0.1915683
High-Sparrow -0.11988183 -0.37907064 0.45289585 0.40321794 0.11130801 -0.03100175 -0.09030437 0.1970136 -0.5952538 -0.08455272 -0.07450142 -0.27341208 -0.4925499 0.36795372 0.56047124 0.5561104 -0.09640658 -0.4257223 0.1689003 0.6678634 -0.1295795 0.13304605 -0.06661161 0.19755305 0.3377713 0.016740292 -0.32000628 -0.3095335 0.18955868 -0.3498927 0.23906332 -0.019856866 0.24609064 0.17608793 -0.13491604 0.15839028 -0.19740345 0.24192974 -0.39734337 0.2765493 -0.24182117 0.15651439 0.13644297 0.25519252 0.4616207 -0.097602494 -0.3000473 0.011221697 -0.17546733 0.19798186 -0.12513213 0.18548381 0.13764724 0.27662194 -0.022440953 0.22023375 -0.17204489 0.016638063 0.3214727 0.55112404 -0.2599406 -0.55936515 0.18886787 0.011991518
Narbert-Grandison -0.047717206 -0.3081353 -0.15172242 0.09818296 0.4136131 0.4525882 -0.02289416 0.5286791 -0.084147885 -0.28916574 0.1522357 -0.27582482 -0.63367665 0.025760166 -0.31828627 0.8249136 0.16542965 0.493917 0.19174458 0.33605716 0.8946572 -0.228563 0.48391297 -0.29108506 0.048622485 -0.3951211 -0.15031467 0.19847788 -0.21947205 0.012493481 -0.09880979 -0.25583076 -0.1474808 0.46406907 -0.12491617 0.04346599 0.3276539 0.36866117 -0.6627873 0.13439822 -0.32255432 -0.07356138 -0.16981283 -0.08885454 -0.06924787 -0.0719392 0.071345344 -0.5167309 0.14643209 0.235726 -0.35653806 -0.07139215 0.7916303 0.33952373 -0.036846425 -0.18425377 0.3333143 0.2793252 -0.25328735 -0.052988518 -0.39830816 0.07097938 0.6136047 -0.06465371
Arnolf-Karstark -0.41102624 -0.46961102 -0.23992592 0.4255993 0.48292238 0.09210894 0.26671705 0.017798575 -0.024519518 -0.22064844 0.26883754 -0.30582199 -0.16277687 0.28035274 0.1067934 0.56135565 -0.18654741 0.5369735 0.15360415 0.3886676 0.18265873 0.008226281 0.32102105 -0.27148852 -0.023678374 -0.18471585 -0.49878737 0.80203223 0.07306197 -0.28524414 0.40003252 0.102985024 -0.16710515 0.29600006 -0.41898596 -0.19079432 0.015893916 -0.3220646 -0.07213331 -0.09177393 -0.11643093 0.016475083 -0.043694638 -0.1933458 0.2069945 -0.24133936 -0.46973035 -0.62568575 0.39058536 0.0028502175 0.23861682 -0.32554674 -0.20126326 -0.10254066 0.65392137 -0.41871014 0.42675784 -0.06321177 -0.10002373 0.505906 -0.20823713 -0.17586666 -0.13315459 -0.036783073
Janos-Slynt 0.38874075 -0.3913513 -0.053978577 0.18268582 -0.06980531 0.2724767 0.18170561 0.31314152 -0.0024859034 -0.17378865 -0.2927327 -0.31427485 -0.3747646 0.21945201 -0.25673476 0.30113417 0.11575616 0.65746886 0.05601936 0.27925986 0.6233287 0.2824678 0.28848734 -0.08412306 -0.020122536 -0.5571437 -0.21570244 0.5305499 -0.18578243 0.0776121 0.23798956 0.018073086 0.35543206 0.13860072 -0.26659644 -0.19659497 -0.021146156 0.098234326 -0.18843056 -0.037936646 0.0023383955 -0.09781394 -0.2586628 -0.47004187 0.23406847 0.021756688 -0.12294955 -0.05425114 -0.14027672 0.14694704 -0.19016753 -0.26880932 0.52329254 0.18696925 0.27349514 0.11782094 0.7022184 -0.14769113 -0.040059872 0.20993698 -0.27519953 -0.040390193 0.37519014 -0.47281572
Holly -0.25028652 -0.6704809 -0.029089166 -0.104959786 0.5311295 0.03821852 0.15404847 0.091599256 -0.29089972 0.12746158 0.19632895 -0.38878942 -0.5500899 -0.40501058 0.4234335 0.2255273 0.035390116 0.4194815 0.33947682 0.097465955 0.5762489 0.10055591 -0.1791032 -0.54100543 -0.32956082 -0.39763355 -0.025194233 0.708689 0.1244927 -0.017404366 -0.06790479 -0.4962657 0.10774505 0.12311251 -0.2061838 0.017425125 0.25919074 -0.17975235 0.3383587 0.24898507 -0.39159566 -0.5535592 -0.52301604 -0.16647415 0.47265738 -0.3942328 0.20356539 -0.28111273 -0.05541788 -0.12234321 -0.060790855 0.42632872 0.6429125 -0.41860193 -0.33951235 0.13729867 0.2714689 -0.18622726 0.3715675 0.6331412 -0.38946855 -0.23163332 0.04818209 0.10373164
Alys-Karstark 0.08632681 -0.8300014 0.36290663 0.12156545 0.032151446 -0.047211464 -0.17487586 0.19610144 -0.053980485 -0.18673019 -0.086393036 -0.40370637 -0.22996579 0.18940574 -0.2437367 0.565803 0.25463018 0.38914844 0.012448239 0.13433315 0.6207227 -0.0017199565 0.047400013 -0.03903167 0.18927741 -0.5991731 -0.20784394 0.1624215 -0.7338043 -0.17040555 -0.19349487 0.14587657 0.0026486306 0.15550625 -0.43829906 -0.036680598 0.11641293 -0.19129558 0.017198162 -0.0924071 -0.18110515 -0.022818726 -0.6847543 -0.3171173 0.081320606 0.011701632 -0.096924655 -0.10842029 -0.27020526 -0.26132903 -0.4529324 -0.17221747 0.32889694 0.2123577 0.4111022 -0.1882908 0.24410394 -0.36561152 -0.023625305 0.14630277 -0.34901452 -0.22005926 0.39771482 -0.18174107
Varys 0.060441323 -0.3175822 0.035646375 0.33207074 0.22486298 -0.12902434 -0.09367295 -0.047825463 -0.46843943 0.21545939 0.20046489 0.038603365 -0.07193438 0.4268031 0.15033025 0.5802725 0.04080726 -0.18179551 -0.2935522 0.5167748 -0.18161826 0.554177 -0.031998407 0.4459457 0.26583531 0.34962413 -0.29991424 0.0011568955 0.49039096 -0.22179013 0.30135232 0.5562944 -0.18779805 -0.12816349 -0.2387476 0.3041371 0.00028810446 0.19498548 0.025089059 0.019337531 -0.16813351 -0.28858778 -0.16970837 0.34048256 -0.11587858 0.17752407 -0.23176384 0.10590846 -0.13009097 -0.1086653 -0.1454226 0.2083356 0.30052465 0.6083935 -0.1269616 0.26461473 0.24551597 -0.13680382 -0.255098 0.17509241 -0.47396684 -0.581622 -0.098145306 0.36118636
Lorren -0.07113709 -0.7478818 -0.498538 -0.19932784 0.032028776 -0.06313115 0.3570781 0.5145044 0.25843972 -0.53629893 0.14137511 -0.90061706 -0.7715199 -0.21554995 0.014567992 0.61623293 -0.48825827 -0.17838366 0.1983921 0.59218127 0.38054708 0.43898144 -0.42025608 -0.47897124 0.41316858 0.034328956 -0.18784486 0.6530789 0.06584727 0.24920733 0.7424646 0.35662487 -0.11636034 0.2288347 -0.45591417 -0.1935629 -0.4335724 -0.502471 -0.030703016 -0.3974225 -0.31338125 -0.32736126 -0.4915015 -0.00913791 -0.18180028 -0.30942348 0.17787012 -0.8120801 0.18647446 -0.49933943 0.29361632 -0.70006263 0.2466329 -0.03891389 -0.010461197 -0.24750039 0.38974416 -0.07059434 -0.20843306 0.754343 0.013677058 -0.3426999 0.5859099 0.65583795
Nurse 0.6742121 -0.38689566 0.08541175 0.5104602 0.04244075 -0.03104382 -0.24450785 0.4637714 -0.6091408 0.57317084 0.53287244 0.030467672 -0.30376148 0.12670939 0.07652997 0.26509455 -0.16268429 -0.19038194 -0.31693506 0.2753163 -0.103223644 0.615202 0.4336953 -0.10237148 -0.06955225 0.5519557 0.04805645 0.25242335 0.41688955 -0.3916852 0.08946173 0.04368 0.2714191 -0.29077342 0.24201432 0.18801227 0.19593541 0.23998396 -0.07228385 -0.3543106 -0.6459992 0.08502225 -0.4120771 0.14112793 0.2515096 -0.015905851 -0.10803939 0.004215764 0.27726033 -0.1456757 -0.07617867 0.050973207 -0.24027228 0.54080427 0.06291961 0.3377259 0.26767087 -0.3753213 -0.31655085 0.25480363 -0.16000488 -0.3430126 -0.054918583 0.28387663
Meryn-Trant -0.05323212 -0.0335816 0.52388304 0.7271778 0.5345548 -0.083381906 0.09444548 0.23565422 -0.74402505 -0.56692576 -0.3344284 -0.06692902 -0.45735356 0.34058523 0.58568245 0.44968614 -0.27250192 -0.17028749 0.38156885 0.3458535 0.091249764 0.40164062 -0.051925454 0.124466546 -0.0021538474 0.15260732 -0.20093778 -0.34578836 0.35961106 -0.21482144 0.084281124 -0.008712039 0.41894698 -0.31114215 0.07753689 -0.15434587 -0.40399244 -0.09381504 -1.0616562 0.19807181 -0.24019359 0.0040505305 0.09402758 0.2625972 0.12850171 0.20331956 -0.15824506 -0.3026049 -0.19221897 -0.25849932 0.034361314 -0.465593 0.37996328 0.017895654 0.1268889 0.537257 0.053445563 -0.22273025 -0.12452061 0.5617719 -0.19151594 -0.55039066 0.32820395 0.10538771
Devan-Seaworth 0.10203295 -0.41019353 -0.009155249 0.114285305 0.15767029 -0.047492664 -0.18843591 -0.04047234 -0.15773053 -0.46417022 -0.016395282 -0.1675769 -0.3153606 0.07201186 -0.15742642 0.3797856 0.14634822 0.27705362 0.15117197 0.34960553 0.33589032 0.06376945 0.2356213 -0.30846217 0.12636866 -0.1459428 -0.17885391 0.40302944 -0.17824636 -0.113995805 -0.081924625 -0.06451495 -0.016392175 0.15198201 -0.18760571 -0.2182685 0.04204965 -0.14751168 -0.21939094 -0.013754425 -0.38995123 -0.10404596 -0.31218502 -0.30026498 0.22068502 -0.21731214 -0.11263341 -0.15244338 -0.031968888 -0.07598869 -0.087318726 -0.056314003 0.0012920734 0.05638284 0.43802625 -0.15641026 0.40901914 -0.10564724 -0.108253725 0.317111 -0.20246857 -0.11120387 0.28297102 -0.30922142
Khrazz 0.14782271 -0.09325815 0.24030446 0.6478745 0.23704693 -0.6998986 0.30362976 0.38643354 -0.5687901 0.08550691 0.13924013 0.014335525 0.049491275 -0.33231694 0.087411545 0.30304888 0.5866983 -0.051194172 -0.4726309 0.8345183 0.09522533 0.68693566 0.39010936 0.12160607 0.2739031 0.44292375 0.058775347 -0.31563225 0.08765322 -0.15875807 0.63287383 0.16973674 -0.17424375 -0.26109818 0.041212328 0.61237496 -0.46664324 0.111412875 0.5178033 0.09414015 0.12515594 -0.08784582 -0.3121028 0.50605166 0.15671022 -0.12920089 -0.20657739 -0.3165465 -0.116639055 0.2339498 0.29317436 -0.38950488 0.50373685 0.4964413 -0.3236067 0.09618618 0.49163246 -0.2950121 -0.093961485 -0.3871742 -0.0766535 -0.15677291 -0.09568748 0.4790546
Tycho-Nestoris 0.014840879 -0.530051 -3.5201483e-05 0.26196015 -0.07807335 -0.034057897 0.0041869665 0.21615893 0.017580157 -0.3961532 -0.062262326 -0.39152485 -0.28149298 0.130438 -0.14937976 0.41117436 -0.03679428 0.22352892 0.098409705 0.037514247 0.32552966 0.13326757 0.18585724 -0.3439306 0.21458721 -0.37182638 -0.092553645 0.36574882 -0.21216252 0.005543675 0.25506508 -0.10949867 0.10097425 0.2071215 -0.12007566 -0.29694247 -0.09762941 -0.16591808 -0.17527172 -0.21518165 -0.15616319 -0.06976339 -0.23501782 -0.16553855 0.14299443 -0.32267633 0.052980836 -0.3362797 0.0064244163 0.010379498 -0.19511986 -0.13887937 0.26284635 0.04547717 0.33507937 -0.06349291 0.38964352 -0.07988891 -0.10302478 0.19689396 -0.18863954 -0.1421645 0.2637685 -0.18095215
Axell-Florent 0.22549886 -0.22329918 0.12024448 0.23220626 0.16442136 0.20859511 -0.30244046 0.23491538 0.1701234 -0.4563945 0.0020611165 -0.105158634 -0.39053956 -0.03759024 -0.30247834 0.76625377 0.15083815 0.32898483 0.18670347 0.42106095 0.69748616 -0.23706847 0.32906234 -0.2389709 0.048037253 -0.14924012 -0.042173795 0.08566028 -0.44248337 -0.018652117 -0.08677448 0.090623945 0.11849756 0.19790505 -0.10252963 -0.17155768 0.18084508 -0.23731253 -0.12621483 0.061288714 -0.33697677 -0.03131202 -0.22809856 -0.2991392 0.2163073 -0.3437124 -0.1178826 -0.32865384 0.067982025 0.1997564 -0.1732765 0.060318314 0.4922498 0.2680394 0.3205435 -0.42514497 0.36776468 -0.109362386 -0.027901553 0.21102226 -0.2698217 -0.0022567173 0.44405842 -0.15539953
Spotted-Cat 0.17101784 0.06250625 0.18473485 0.67165715 0.20613925 -0.51767445 0.25961778 0.6325853 -0.5971154 -0.01345086 0.44430366 -0.261719 0.12516278 -0.5297861 0.14578782 0.1918135 0.5454673 -0.39417386 -0.63023937 0.9021821 0.09060179 0.58219624 0.6705304 0.017190222 0.15592682 0.24285252 0.26950824 -0.21205504 0.16945785 0.07716266 0.63075894 0.04679148 -0.24015015 -0.36107314 -0.081325546 0.26888576 -0.62839174 0.13680395 0.2741935 0.06177902 -0.12528631 -0.22255461 -0.16898803 0.50315547 -0.106331296 -0.09922224 -0.017387688 -0.31626043 -0.08426125 0.39694834 0.24131359 -0.01744996 0.75111103 0.4088606 -0.508097 0.031826593 0.33624914 -0.33345303 -0.365127 -0.33792254 -0.03154445 -0.08311839 0.23078252 0.6863602
Nymeria-Sand 0.20687956 -0.14451844 0.95450515 0.16461638 0.43925294 -0.6378119 0.23702726 0.19100115 -0.19230948 -0.0066324775 -0.5499092 -0.6478491 -0.37625763 -0.05406433 0.5530197 0.21311557 0.247065 -0.31037965 0.097611435 0.6848333 0.26485774 0.36376873 0.4653644 0.47915614 -0.14706159 0.24204202 -0.2173641 0.47291628 0.78317136 -0.3327271 0.5005037 0.08498273 1.0344365 -0.37311718 -0.20662774 -0.116372034 0.006730181 0.22451772 -0.31560135 0.5530984 -0.1834993 -0.04155592 -0.33158958 0.32237962 0.5487596 -0.18543813 0.30547997 -0.8553731 -0.039291143 0.1284498 -0.22006494 -0.57591194 0.17112863 -0.14640471 0.24169289 0.092770666 -0.40868893 -0.50931805 -0.107231826 -0.62223524 -0.40773302 -0.17415586 0.23378192 0.60160536
Dalla 0.13596024 -0.2793002 0.17679651 0.08876648 0.20734243 -0.21463618 -0.023172308 0.008874703 0.011743734 -0.2703739 -0.4610007 -0.29101172 -0.56519717 0.4000251 -0.07696489 0.4927534 0.2924734 0.5916036 0.1356177 0.0992836 0.47550592 0.18736489 0.16300648 -0.4928731 -0.01752494 0.17294651 -0.13377903 0.41688454 -0.35154378 -0.17145492 -0.2164256 0.13527784 0.17988735 0.40784338 -0.24311775 -0.06641937 0.20162995 -0.33388832 -0.13366024 -0.178102 -0.2889128 -0.3119464 -0.35856044 -0.13867144 0.06938522 -0.14058161 -0.17888297 0.01054489 0.04820719 0.43217808 -0.23842953 0.15209448 0.41120505 -0.18447597 0.20527859 -0.26325598 0.43902653 0.051882446 0.042561486 0.20412779 -0.30053926 -0.10471365 0.0476587 0.0136969695
Euron-Greyjoy 0.17654948 -0.21089287 0.09324252 0.75114125 -0.26968423 -0.18505949 0.34411556 0.18412536 -0.3718155 -0.26199812 0.41013896 -0.265351 0.06542292 -0.27150896 0.036388263 0.11463656 -0.28843024 0.4327082 -0.14752452 0.03276103 0.18597057 -0.13051485 -0.014042303 -0.6921999 0.16107535 0.062337182 0.11516741 0.51642996 0.053082418 -0.07237783 0.20555268 -0.081516325 0.26249418 0.14599001 -0.7374446 -0.03250136 -0.021070203 -0.4196416 0.47156823 -0.13664767 0.044579826 -0.32002887 -0.25824597 0.13214917 -0.074048415 -0.29315394 -0.06506017 -0.6209421 -0.02322792 -0.38595325 0.77996486 0.11936522 -0.15236932 0.3906384 -0.17208833 -0.32463503 0.24802543 0.29587755 0.09703478 0.06704652 -0.013441736 -0.5476376 0.2965318 0.4504299
Cellador 0.3284237 -0.41033316 0.50629705 0.031290952 -0.014075138 -0.08494673 0.13854739 0.48654962 -0.10441918 -0.15426193 -0.07103481 -0.14226638 -0.24766022 -0.0056683565 -0.06577946 0.4161493 0.26510528 0.9082238 -0.0017215696 0.09874562 0.44603422 0.05639524 0.16891684 -0.46901384 0.6592234 -0.5582264 -0.39556232 0.34693998 -0.5380731 -0.08609223 0.3127727 -0.047998145 -0.18980764 0.04411114 0.06347629 -0.19646405 -0.023542982 0.12512492 0.08243644 -0.006863838 -0.46388716 0.15620747 -0.41780716 -0.5053476 0.07479843 -0.08464367 0.18180309 -0.6370571 0.06717126 0.60369545 -0.03529621 -0.18287838 0.25722352 -0.10066715 -0.010794646 0.09585272 0.47053346 -0.111879595 -0.312625 0.35104316 -0.48436007 -0.28869015 0.35361385 -0.536816
Groleo 0.14817567 -0.41743717 0.5383743 0.49840796 0.1910239 -0.5284878 -0.13539921 0.17177323 -0.5105451 0.15237585 0.21260497 -0.0048984666 -0.22133857 -0.17487442 0.25955975 0.228008 0.10944421 -0.07699497 0.103787616 0.650271 -0.07542794 0.24161628 0.41574925 0.23770776 -0.26779544 0.4482008 -0.12412003 -0.10988573 0.39939088 -0.27110404 0.19976994 0.39765215 -0.08732246 0.09306177 -0.19138898 0.16502857 -0.03719848 0.14161709 0.5956847 0.4640683 0.06508057 -0.1704527 -0.40033036 0.74059427 0.12283329 -0.109404944 0.06752183 0.071932636 0.05421244 -0.2937695 0.20761645 -0.4128472 0.8144814 0.5319428 -0.47863072 0.17305146 0.4551032 0.021510415 -0.18542358 -0.2866336 0.17783369 -0.13589421 0.37666893 0.56873584
Caggo -0.047090534 -0.51507974 0.3728238 0.28927198 -0.28277245 -0.26588914 -0.14143324 0.57750887 -0.77237326 0.30138898 -0.14301912 -0.36596087 -0.36246997 -0.21094956 0.25925636 0.014915881 0.48345345 0.4385706 0.016869122 0.29269117 0.046621166 0.5572591 0.24763343 0.11467919 0.29858765 0.5121109 0.049410593 0.27655163 0.47357085 -0.57386327 0.28956085 0.07372676 0.01575995 -0.5013596 -0.05900723 0.37589112 -0.43986145 0.2896208 0.28017083 0.31105095 0.3752011 -0.65385616 -0.058725353 0.1280167 0.08335479 0.12996536 0.051792264 -0.3592639 0.36676702 0.11496747 0.4312756 -0.6010073 0.83172756 0.49556175 -0.1272521 0.36746725 -0.018241577 -0.27671686 -0.3225158 -0.14601219 0.4725917 -0.3353403 0.12886873 0.9432203
Qarl-the-Maid -0.2783713 -0.74598503 -0.17260107 0.030493723 -0.23149309 -0.42036343 0.30003825 0.113531835 0.053778034 -0.70377886 0.13985677 -0.42382115 -0.53704184 0.2638932 0.34412935 0.31451073 -0.5432085 -0.073908724 0.26284617 0.19034167 0.5304675 0.22810368 -0.050511893 -0.62670547 0.09921994 -0.027102469 -0.12919368 0.58784527 0.053445727 0.02210789 0.44964448 0.15171266 -0.03763409 0.453307 -0.16807766 -0.49224406 -0.340923 -0.29431403 0.06434965 -0.0697023 -0.050235648 -0.036036074 -0.5043496 -0.23060171 -0.020017663 -0.32409537 0.21718088 -0.8435523 0.15290321 -0.19267134 0.33917987 -0.06351833 0.14396685 0.053072657 0.20375803 -0.40779528 0.10283934 0.08133347 -0.07822372 0.38633972 0.11012611 -0.43012148 0.28114417 0.24890777
Squirrel -0.21059376 -0.39317685 0.097594544 0.1585906 0.47127855 0.105825305 0.19553971 0.017004061 -0.2284896 -0.3081883 -0.019939005 -0.5441019 -0.37045005 -0.36658338 0.20741734 0.29031324 0.15091175 0.6473053 0.1795212 0.3802741 0.39228708 -0.10037983 -0.1568709 -0.45239407 -0.24661107 -0.4439422 0.12613942 0.6810901 -0.061098162 0.1888243 -0.26766402 -0.29833716 0.309802 0.17177932 -0.32262868 -0.14730416 0.09527638 -0.28807822 0.25340515 0.1223354 -0.40015304 -0.4821849 -0.6280194 -0.13612217 0.16295177 -0.36889786 0.18700382 0.15709879 0.11418145 0.1866983 -0.06044761 0.17408626 0.3420866 -0.30433425 -0.20331949 0.13722613 0.16669945 -0.02138392 0.18192333 0.59621423 -0.72455704 -0.38636714 0.03499752 0.23405404
Hobb 0.42888933 -0.20822142 0.33087042 0.2316109 0.20792773 -0.078388706 -0.12713125 0.40654272 0.014330433 -0.39128038 -0.2248747 -0.44272894 -0.18755032 0.3080221 0.06131973 0.05424134 0.108027145 0.35235843 0.23499301 0.34528384 0.5330862 0.064640045 0.4168736 0.20138635 0.25282377 -0.6771255 -0.3746377 0.78497434 -0.4609334 0.020513862 -0.4079681 -0.19843522 0.046307456 0.34297556 -0.29580173 0.07733893 -0.33401665 0.123920955 -0.042944673 -0.19111918 -0.2976799 -0.14449574 -0.22474222 -0.39932048 0.26657075 -0.10553716 0.12472955 -0.07457318 -0.07993603 0.32484576 -0.08499724 -0.068432 0.882777 0.100680314 0.25888637 -0.4606819 0.8987687 -0.4141441 -0.1150177 0.2871483 -0.0065575857 -0.43572012 0.23776455 -0.45986387
Walder-Frey-(son-of-Merrett) -0.073593624 -0.53849155 -0.09754064 0.07614885 0.47420785 0.16328362 -0.1735963 -0.029694317 -0.5408567 -0.09278066 -0.20157652 -0.3942037 -0.16647717 -0.27159056 0.57231224 0.38345334 0.5675033 -0.03165233 -0.38072872 0.6009099 0.08273557 0.04939602 -0.03971346 -0.8076928 -0.08500656 -0.3109693 -0.21143186 0.68168056 -0.016288385 0.27160797 0.02071082 -0.7983664 0.1887992 0.06304602 -0.23555315 -0.14714067 0.1551429 -0.05871412 0.0066793617 0.25919095 -0.26345596 -0.62196964 -0.6726916 -0.38474125 0.38581488 -0.024643032 0.6850514 -0.20719796 0.25075123 -0.17691785 0.25565884 0.13408615 0.28539655 -0.023491489 -0.1741591 -0.48065233 0.30901185 -0.059090104 0.36094138 0.5256682 -0.5960456 -0.31368726 -0.01656428 0.24323164
Patrek-of-Kings-Mountain -0.09297157 -0.3648658 -0.132081 0.19540925 0.123528585 0.28113854 -0.13325286 0.4926815 -0.014273152 -0.36832473 -0.23630142 -0.1942055 -0.3227502 -0.04460537 -0.31111628 0.645732 0.059274703 0.42498323 -0.005890658 0.040777486 0.875665 -0.058956534 0.39618406 -0.13348375 -0.06442026 -0.46406737 -0.20386901 0.5074311 -0.2691673 -0.21970713 0.04821926 -0.14848219 -0.11548429 0.39301875 0.143545 -0.019358277 0.17066945 0.14255263 -0.3932062 0.29723585 -0.33256814 0.1817318 -0.2907354 -0.26084203 0.2761945 -0.034153555 0.013470833 -0.25906545 0.093671404 0.2571975 -0.4269714 -0.055386215 0.37774557 0.27222562 -0.010978404 -0.12981026 0.6299149 -0.0917666 -0.026257684 0.17246065 -0.42909545 -0.018943354 0.7562902 0.15856872
Ilyn-Payne -0.111368686 -0.00347527 0.58383334 0.8041298 0.43547747 -0.07614999 -0.013337264 0.047514204 -0.6425492 -0.41668755 -0.39757797 -0.19422373 -0.49143854 0.31000766 0.56744957 0.7249673 -0.005100599 -0.18229176 0.32108104 0.51578295 0.0497687 0.32673573 -0.061621115 0.23866656 0.22679128 0.12115248 0.08157209 -0.43961576 0.12485867 -0.235159 0.10096165 -0.22362979 0.5069049 -0.34062445 0.29266933 -0.11297306 -0.38520816 0.060169414 -0.72139335 0.21101198 -0.06273156 0.1972278 0.10431971 0.19175883 0.29360706 0.013272729 -0.07690167 -0.5029237 0.02116518 -0.29635292 -0.16681096 -0.43434817 0.20800164 0.17716853 -0.06363073 0.6235761 0.015420285 -0.21073438 -0.16473953 0.45969266 -0.16471027 -0.694356 0.14816129 -0.016202442
Malegorn -0.098327346 -0.31134874 -0.088641606 0.3005302 0.09392466 0.3462921 -0.15853818 0.5193827 0.056179058 -0.23316856 -0.049608126 -0.3520868 -0.43162343 0.11736719 -0.19955383 0.7343963 0.41555744 0.40282387 0.3112752 0.26706004 0.9959854 -0.3159433 0.2014151 -0.40982538 0.110068455 -0.56912285 -0.20296909 0.32214227 0.030479552 -0.25749022 -0.08615387 -0.22569948 -0.038055867 0.27969202 -0.24542274 0.032507617 0.20487829 0.32793075 -0.46448678 0.07148763 -0.27083027 0.070489444 -0.2800896 -0.17977464 -0.038810678 0.06764217 0.15935476 -0.6306158 0.19811489 0.17724115 -0.4078244 -0.12958787 0.7562211 0.26254472 0.004209476 -0.32360345 0.39384684 0.3473625 -0.31279737 -0.06782767 -0.32175267 -0.029363591 0.57229966 -0.031062879
Salladhor-Saan -0.083808646 -0.30825433 -0.026647415 0.110005334 -0.018473526 -0.04513535 -0.12418669 -0.1991141 -0.35367385 -0.3556793 0.18919337 -0.31949052 -0.30002844 -0.26317263 -0.043249838 0.56144077 -0.011280451 0.39121968 0.44238496 0.47248065 0.02683892 0.52526635 0.06187817 -0.27733433 -0.08062487 0.03342318 -0.3068482 0.099165335 0.10788918 0.018617114 -0.09300386 -0.107428834 -0.33114675 0.2396786 -0.3388668 -0.17773965 0.105878845 -0.042273663 -0.1307351 -0.039785776 -0.32450783 -0.089836575 -0.30681905 -0.476522 0.26620245 -0.17112122 -0.10657981 -0.30064332 0.091311604 0.037609294 -0.2415789 -0.056118216 0.017226217 -0.40675724 0.24434216 -0.27131954 0.6201413 0.012247737 0.2452525 0.11245167 -0.2586091 -0.09583173 0.39080307 -0.31438848
Dunsen -0.14451744 -0.05704326 0.63189834 0.5791353 0.59401053 -0.11593017 -0.048319373 0.25922635 -0.66277444 -0.6069553 -0.5149059 -0.22382163 -0.36604154 0.27359152 0.49520227 0.63828766 -0.030732822 -0.24287578 0.2861497 0.5151323 0.037033997 0.2624371 -0.1643193 0.286268 0.2511655 0.20345747 -0.012006948 -0.4765523 0.13635263 -0.29464933 0.13103081 -0.1546523 0.50358236 -0.30743983 0.19853224 -0.33381215 -0.46364662 0.031846486 -0.7295089 0.24636418 -0.23568928 0.20287067 0.07335482 0.18574813 0.43635687 0.14420713 -0.27445218 -0.39551607 0.07057695 -0.27609977 -0.09441074 -0.41958424 0.29124865 0.093876086 0.006483229 0.5016997 0.1394309 -0.2290909 -0.14759159 0.3257617 -0.17597435 -0.59166646 0.3049597 0.09183848
Qezza 0.00090152386 -0.35869348 0.15462373 0.6153571 -0.07459918 -0.23464882 0.2672786 0.3157223 -1.045143 -0.25537118 0.4331388 0.21425714 0.017693507 -0.3195801 -0.50508004 -0.23319268 0.045525238 -0.21432537 -0.0009919143 0.6621442 0.10574702 0.5299621 0.24080613 0.17836295 -0.21830219 0.6246964 0.1677403 0.083434395 0.18971734 -0.5343068 0.5533343 0.3990319 -0.10160079 -0.4830668 -0.08085501 -0.16176113 0.13194913 0.29141414 0.025415674 0.36854815 0.533605 -0.40514678 -0.35739133 0.67138124 -0.022871021 -0.6180215 0.051247697 -0.20435764 -0.30282554 0.12567426 -0.0029384294 -0.46269473 0.5056275 0.41290852 0.012562985 0.23496473 0.045050077 -0.25399935 -0.29709202 -0.059938595 0.044815738 -0.3312545 0.35856238 0.660788
Cletus-Yronwood -0.009711516 -0.49593323 0.29640687 0.6328488 -0.08168875 -0.6043994 0.08509955 0.19109803 -0.5049295 -0.0065258676 -0.0023353607 -0.11189666 0.2610834 -0.15191367 0.17340766 0.16113615 0.52951384 0.29748246 -0.076476656 0.58333564 -0.02603078 0.48176268 0.36724865 0.49488693 -0.07113931 0.35769126 -0.35197026 0.056962375 0.49743348 -0.44211382 0.29728273 0.08188669 0.031941824 -0.62467897 0.18587796 0.19496821 -0.19357991 0.20072113 0.37378588 0.11960857 0.59039205 -0.32834107 -0.09143042 0.14019515 -0.04240752 -0.008583765 0.009229955 -0.24968657 0.6240882 0.13034981 0.45235035 -0.07884492 0.6136357 0.84659034 0.17994824 0.23965457 0.09655152 -0.35366052 -0.18236932 -0.27486032 0.26301518 -0.5758866 0.58801705 0.48588005
