317 64
Jon-Snow -0.10745176 -0.10762125 -0.46071255 -0.40798414 -0.17255518 -0.086282514 -0.034271486 -0.3933262 -0.3154531 -0.12611404 0.1324946 0.18002868 -0.021260148 0.33901855 -0.07800957 0.37281471 -0.5100801 0.039380025 0.36715388 -0.15915413 -0.08042224 0.311753 -0.26582146 0.20422289 0.3644865 -0.58046514 -0.21385229 0.6624418 -0.28228575 -0.15972085 0.3498503 0.19522932 0.3075667 -0.13178107 0.224344 -0.18407051 0.15998998 0.011230411 0.16579932 0.4206959 0.060839936 0.02487288 0.33749428 0.18902573 0.0379461 0.17632 -0.32566297 0.35432115 0.3654549 0.336261 0.014645634 -0.078615665 -0.01111674 -0.12318905 -0.20233528 -0.2944318 0.3649441 -0.2416933 -0.2205302 0.38343292 -0.5433768 0.0728847 -0.19416717 0.15945911
Daenerys-Targaryen -0.11155795 -0.4661141 -0.09179892 -0.11473593 -0.029210161 -0.19950314 -0.034176428 -0.08603629 -0.5795398 -0.17182724 0.22965781 -0.12308022 -0.058774907 0.020013196 -0.47725415 0.1899072 0.019702828 -0.13806792 -0.14362076 0.07712574 0.30950123 0.3510791 0.28098807 -0.031384096 -0.088724606 0.21070696 -0.19031057 -0.43794155 0.07276113 0.0009937824 0.07168433 -0.1306233 -0.20032161 0.23608874 -0.045734376 0.17718723 0.02740528 -0.44557744 0.17595744 0.6470931 -0.08238835 -0.2242164 0.6318187 0.3934988 -0.26782098 -0.17268768 0.30410665 -0.17204876 0.35349998 -0.2526744 0.3398305 -0.31600136 0.2953655 -0.114451066 -0.5197902 -0.08749441 -0.16200332 -0.53104603 0.2703889 0.031223284 0.05381242 0.031585917 0.098295495 -0.067969024
Stannis-Baratheon -0.17460743 -0.16790691 -0.009034095 -0.06584918 0.19081908 -0.13911536 -0.08665878 -0.09694765 -0.021129154 -0.17703396 -0.33493537 0.23130997 -0.35828322 -0.15743643 0.0008359056 0.30963618 -0.5678409 0.14265798 0.11387496 -0.007020605 0.22218744 0.17009364 0.18080409 -0.0934217 0.006821199 -0.018548453 -0.36605224 0.27800995 -0.0038834747 0.14313081 0.2930221 -0.086752295 0.23075819 -0.16700439 -0.13388489 -0.50100267 -0.016125912 -0.091716774 0.14344239 0.2040331 0.062102295 0.08310674 0.01875722 0.35774317 0.40551513 0.23090065 -0.14071807 0.028556863 0.29537496 0.09373813 -0.07758325 0.18137148 0.08315525 0.007366077 -0.1954437 -0.019701857 0.28731647 -0.32606605 -0.46798018 0.06853305 -0.1821074 -0.22436851 -0.00848002 0.14766762
Theon-Greyjoy -0.27160177 -0.016376352 -0.3649035 0.019999612 0.33364862 0.23892295 0.08831383 -0.06451057 -0.48542163 -0.19320822 -0.20418853 -0.21135426 -0.24471505 0.20981678 -0.2166392 -0.029691497 -0.5328108 0.09340689 0.16797282 -0.1650554 0.3864845 0.21650961 -0.37730473 0.3691555 0.07693798 -0.018972734 -0.6657943 -0.012484023 -0.30963406 -0.062841274 -0.14018166 0.24169931 0.3304468 -0.47004077 -0.07256367 -0.39258903 0.5218377 0.5295185 0.14550796 0.27220154 -0.16816707 -0.17026807 0.14463703 0.14387438 0.13858047 0.5049047 0.14660242 0.37201795 0.1273527 -0.023710977 -0.117005855 0.46856767 0.13278154 0.09199931 -0.256402 0.11699793 -0.08938104 -0.4530239 0.06388309 0.64614606 -0.2204904 -0.15674208 -0.3400858 0.29531875
Tyrion-Lannister 0.077798955 -0.62797403 -0.01663218 0.118161246 0.01759967 -0.045613 -0.05683128 -0.37605563 -0.14487813 -0.14528538 0.2026921 -0.2235066 -0.33652148 0.19113632 -0.19444606 0.35934484 0.07885752 -0.2932797 -0.04910502 0.6076459 0.71645266 0.01777866 0.13665397 0.07388889 0.1196719 0.12984091 0.02383185 -0.13054156 0.11052064 -0.18394496 0.14262491 -0.07054979 0.20039593 -0.0037964133 -0.043340866 0.1524566 0.029153993 -0.58382976 -0.114642076 0.46038148 -0.13737056 -0.070552796 0.26571044 0.32049236 0.13205053 -0.091818385 0.23296899 -0.3395262 -0.042682283 0.002721614 0.24288915 -0.14419107 0.14154533 0.09186313 0.095534146 0.039142415 0.3521733 -0.6126366 -0.3997148 -0.02076471 -0.02338448 -0.24698606 -0.19608907 0.078827724
Cersei-Lannister 0.07358377 -0.62979776 0.21258861 0.30952358 -0.32576504 0.05294346 0.042172328 -0.3735433 -0.32480508 -0.18093763 0.10441435 -0.11190001 -0.17672844 -0.22593948 -0.24851812 0.754126 -0.36916703 0.2614298 0.001859328 0.324073 0.28928423 0.26733238 0.13519777 -0.15056257 -0.26593953 0.046291027 -0.074979424 -0.21058671 0.5225145 -0.09617367 0.15713227 0.02523932 0.024770645 0.14941539 -0.3400393 0.10684293 0.033545177 -0.29932162 0.048710648 0.2923555 -0.022471642 -0.04178868 0.34502575 -0.025773397 -0.049746 -0.13748448 -0.24159184 0.1554588 -0.04944745 0.24557997 -0.0021809624 0.18626815 0.2828588 0.069819115 -0.09206699 0.1390251 0.27080762 0.030829908 -0.12668929 0.52170444 -0.16053927 0.27703312 0.22787799 0.17587753
Barristan-Selmy -0.117047526 -0.56789553 0.1453804 -0.21378447 0.30207476 0.3097112 -0.11097477 -0.31918553 -0.14874108 -0.32153025 0.29054916 -0.018018803 0.020117512 -0.22528775 -0.5941129 0.08579131 0.08262636 0.124273516 -0.074466445 0.1808808 0.28276995 0.48931968 0.26542097 0.13721178 0.1284728 0.26697984 -0.22597547 -0.1435069 0.1514113 -0.014303245 -0.13245015 -0.050631966 -0.069280595 0.56279254 -0.29812196 0.43293962 0.17575903 -0.44209564 0.38228127 0.51483446 -0.29238856 0.24353646 0.61394745 0.54631203 -0.19612819 -0.3519672 0.2288299 -0.18483114 -0.012750231 -0.4418721 0.7448257 -0.03287231 -0.10056138 0.1324462 -0.35179347 -0.25170353 0.071460605 -0.46881232 0.23755619 0.1137058 0.059660207 -0.11957629 0.029247642 0.22423562
Asha-Greyjoy 0.010868734 -0.31109446 -0.11318038 0.19176398 0.13726829 -0.2930012 -0.26227307 -0.4195406 -0.86068827 -0.19030698 -0.45987353 -0.021720191 -0.019132258 0.011422433 -0.23997408 -0.08828169 -0.682093 0.07025225 0.23250638 0.2859472 0.016661236 0.15214671 0.14345436 0.12090702 0.23503396 -0.08622633 -0.4924946 -0.14595093 -0.30269 0.088663936 0.35492885 -0.106827594 0.34001043 0.03389271 0.1310885 -0.2795505 -0.023510184 0.07455794 0.21198267 -0.041573554 -0.41900727 -0.043150105 0.037222136 0.33883664 0.18948826 0.005475288 -0.09585364 0.23138689 0.15423985 0.4571903 0.015325733 0.5599415 -0.45720202 -0.06995987 -0.19657251 -0.025172098 -0.4464907 -0.35374844 0.023522755 -0.11842871 -0.212982 0.040373106 -0.27021098 0.32078895
Hizdahr-zo-Loraq -0.49903157 -0.5611934 -0.47650164 -0.066989675 0.1852463 -0.010695251 -0.07831832 -0.45715493 -0.17768076 -0.29754207 0.31279296 0.007291893 0.06147067 -0.17409274 -0.5188293 0.2750278 0.28192946 0.043556094 -0.10297933 0.14145714 0.085922405 0.2980441 0.44674662 0.28245565 0.029308926 0.2859926 -0.33620435 -0.053614654 0.39195925 0.04221641 -0.13174857 -0.030140195 -0.10290794 0.65608424 -0.10855998 0.5386496 0.116882235 -0.35121587 0.5220895 0.50758874 0.044700295 0.1349997 0.45193654 0.6059946 -0.11249384 -0.35072324 0.07364399 -0.30512983 0.043977886 -0.3623337 0.7521739 -0.108676374 0.14364992 0.17485355 -0.5140967 0.009261242 -0.20173466 -0.8852489 0.25802314 0.34864363 0.30156687 0.08473098 0.01706391 0.04675712
Melisandre -0.31184676 -0.29186592 -0.31829017 -0.46266416 -0.034709655 0.057753086 0.22753887 -0.31300923 -0.30980316 -0.35795954 -0.10206315 -0.24837966 -0.35634136 -0.06517304 0.40809688 0.35204783 -0.8229272 0.050292198 0.29195577 -0.2675299 -0.018184172 0.39181894 0.12985252 -0.062324323 0.31204283 -0.24636856 -0.12642033 0.100578114 -0.100896485 -0.035029955 0.15276201 0.2527879 0.26165634 0.04932798 0.37606445 -0.07621147 0.14860018 0.2923915 0.15924427 0.26466143 0.3126086 0.22999993 -0.01698067 0.08984262 -0.030208584 0.1888297 0.0261722 0.17892596 0.33700505 0.43282273 -0.040273923 0.13002047 -0.5058839 0.012165842 -0.26123962 -0.26268575 0.32313487 -0.19750366 -0.29347375 0.39152193 -0.40445337 -0.42187613 -0.120740436 0.25881228
Mance-Rayder -0.072779186 -0.09935373 0.18319699 -0.22160712 0.21160877 0.11795922 0.12308258 -0.3423624 -0.35632488 -0.23270676 0.115271494 -0.068909995 -0.2679764 0.13289158 0.1310878 0.19801143 -0.60339487 -0.33107585 -0.08120384 -0.3953491 -0.0123407515 0.108373635 -0.055531215 0.2771174 0.37360543 -0.16667025 -0.48006397 0.40636903 0.014503927 -0.07646823 0.1752587 -0.056114197 0.27490866 0.12908396 0.18407153 -0.39841908 0.308091 0.3914067 0.17556603 0.022524899 0.21431617 0.11639365 -0.0039366377 0.37098524 -0.36721778 0.3435289 -0.16883767 0.07106522 0.16031304 0.23242635 -0.0100334985 0.37259284 -0.05458848 -0.06112312 -0.049792256 -0.05003973 0.104786105 -0.417963 -0.08605963 0.8911867 -0.32172805 -0.27797824 -0.109818414 0.4780956
Ramsay-Snow -0.3267871 0.002036751 -0.15118417 -0.18012756 0.31490892 0.12615274 -0.2357824 -0.22384457 -0.41049305 -0.3195695 -0.19875003 -0.12266736 -0.21767443 0.22382624 -0.14615859 0.12302146 -0.5874338 0.11401079 0.1858114 0.026379239 0.32428697 0.15614812 -0.055222232 0.361407 0.13358636 0.0049485774 -0.7340025 -0.04754769 -0.164193 -0.16773818 0.20170765 0.55716026 0.024712607 -0.40392083 -0.16886061 -0.42475215 0.55754036 0.72359484 0.23167329 0.2108872 0.079938516 -0.14280383 0.22458926 0.14590408 -0.12715165 0.3785696 -0.10306137 0.22097805 -0.06923657 0.019428566 -0.34946617 0.39513648 0.11478342 0.15121381 -0.3698557 0.17495953 0.28921276 -0.18615857 0.24882902 0.46028182 -0.21366808 -0.546893 -0.012742901 0.11296515
Jon-Connington 0.19207364 -0.28247282 -0.10264049 0.023740511 0.13340972 0.064965084 -0.20521617 -0.05093135 -0.4690286 -0.33684847 0.47509465 -0.21355993 0.074338205 -0.20151529 -0.3105782 0.16402629 -0.39773616 -0.35694915 -0.17680395 0.31529564 0.48743102 0.07114057 0.18928292 0.17485256 -0.03740883 0.07162164 -0.07221223 -0.17839295 0.5465666 0.027802886 -0.043710858 0.17636186 -0.2748512 0.042886935 -0.23415881 0.19195251 -0.042431228 -0.59288716 0.25741813 0.48372552 -0.59800845 0.1003784 0.15487884 0.30466744 0.26788306 -0.14645141 0.3025816 0.18251161 -0.054152835 0.18005192 0.1356173 -0.24494842 0.21860059 0.09806275 -0.116325684 -0.3649458 -0.09400164 -0.3200964 -0.47628707 0.16029993 -0.16356285 -0.5027027 -0.32626444 -0.20410888
Selyse-Florent 0.055984106 0.4870334 -0.49733868 -0.34091514 0.06876285 0.10127245 -0.032029733 -0.123249464 -0.4894332 -0.3322764 0.4357926 0.045008272 -0.3185015 -0.07163081 -0.09488762 0.47265095 -0.3759819 -0.25529084 0.28596786 -0.027051773 -0.09890464 0.39463258 -0.19654912 -0.10712614 0.36221576 -0.42073733 -0.104626216 0.4528491 -0.30520928 0.19301885 0.5202645 0.13501684 0.3563525 -0.008068117 -0.26060802 -0.09579515 0.1403169 0.21049264 0.007101875 0.062097024 0.03739673 0.3913846 0.17945997 0.11037969 0.25329462 -0.109714165 -0.37887114 0.20224503 0.66553116 0.56657183 0.16333044 0.12364498 -0.16393282 0.31082687 -0.42155534 -0.07866618 0.4358398 -0.3899174 -0.16883154 0.5862697 -0.2767828 -0.25959635 0.10586127 0.095268615
Robert-Baratheon 0.26482782 -0.26681313 0.08272699 0.35302562 -0.23536624 -0.10067356 -0.08810419 0.009509369 -0.2785457 -0.33329105 -0.08330766 -0.1300644 -0.15708435 0.25016844 -0.19419591 -0.059497412 -0.38264707 0.07981024 -0.013657909 -0.056568857 0.24387018 -0.0806127 0.36225638 -0.25690362 0.056021895 -0.052954193 -0.00689375 -0.24065143 0.19430819 0.037866596 -0.17376488 0.23527874 -0.015094482 -0.06204468 -0.1872007 -0.26804745 0.12573712 0.014771832 0.18253857 0.46925756 -0.20715947 0.2954143 0.24349435 0.21944368 -0.12101272 0.031322483 -0.41134053 -0.23595123 0.19356695 0.43824038 0.3380334 0.026995383 0.13940293 0.12382947 -0.10138768 -0.13359112 -0.09495371 -0.20880717 -0.0005342745 0.22988632 -0.37654528 0.07912454 -0.2018478 -0.17632557
Quentyn-Martell -0.22098671 -0.6008666 -0.29564998 -0.32636052 -0.027653938 -0.023114907 -0.20537719 -0.3175556 -0.18129069 -0.18251593 0.2543992 0.035532597 -0.5810866 0.27892122 -0.5191291 0.2647479 -0.1902494 0.089709975 0.2283307 0.13428718 0.28389627 0.31742856 0.14696705 0.41528022 0.09709708 0.18132073 -0.20741823 -0.5753704 0.15262422 -0.15143247 -0.055602707 -0.12344009 0.04628227 0.8254006 -0.28643838 0.38271672 0.0011818964 -0.29369518 0.42312205 0.8183176 0.109975904 0.041910995 0.46590734 0.30944848 -0.013317597 -0.4471296 0.14864911 0.09469229 -0.07742341 -0.5252033 0.64752465 -0.28721753 0.30947143 0.29658514 -0.24795854 -0.015734322 -0.5678506 -0.35506272 0.29704434 -0.106887795 0.16709678 0.18157701 0.27730927 0.16139409
Doran-Martell -0.20174283 -0.6555604 -0.019834561 0.09010041 0.047839638 0.18646063 -0.20538647 -0.1569415 -0.034226328 -0.016930277 0.39668524 -0.38301715 -0.6433631 -0.019814363 -0.35097897 0.2881224 -0.25350833 0.34914705 0.25720036 0.20455694 0.02848733 0.25308713 0.0063398117 -0.15985446 0.008469028 0.3205309 0.04973487 -0.3857937 0.49939695 -0.05266767 0.31419966 -0.33381984 -0.012170771 0.5173927 -0.257427 -0.42089105 -0.066991895 0.03932564 0.19462948 0.60240257 -0.12726438 -0.26479697 0.39155117 0.0032633755 0.1452858 -0.32921192 -0.17543086 -0.3058931 0.25984594 0.16769417 0.37191582 -0.16029587 0.20538531 0.08293684 -0.34679636 0.35902807 -0.26577047 0.04060224 0.00046711563 0.24436358 -0.016206311 -0.011987189 -0.18451664 -0.068534195
Aegon-Targaryen-(son-of-Rhaegar) 0.11678855 -0.25012985 0.12958142 0.08906272 0.072644606 0.07540729 -0.3577268 -0.1064574 -0.12365682 -0.5332018 0.4438426 -0.52209264 0.044036824 0.4043898 -0.1496212 0.29262364 -0.35279518 -0.22892952 -0.23816854 0.36307704 0.14422224 0.14596803 0.13424702 0.08332359 0.07491916 0.26208335 0.051364355 -0.13152963 0.5114844 0.2560316 -0.12411437 0.2292416 -0.111508556 -0.034160905 -0.29415506 0.07351552 0.020356849 -0.74484205 0.18984838 0.43083793 -0.41921422 -0.2489881 0.27878514 0.46070153 -0.02013094 -0.25000685 0.16775045 0.08051426 -0.056614146 0.17544372 0.25336373 -0.26666322 0.20111476 0.002686735 -0.081299864 -0.16109109 -0.14193611 -0.7059181 -0.24280643 0.028825056 -0.34494406 -0.35888115 0.07395629 -0.20946534
Wyman-Manderly -0.19450638 -0.2461078 -0.1615229 -0.22199897 0.319494 0.20274882 0.07080519 -0.20531695 -0.122686036 -0.006226921 0.30740726 -0.01590874 -0.3200375 0.07077753 -0.059314206 0.39558747 -0.59559333 0.5505963 0.044311017 0.28507787 0.33943278 0.1792535 0.04123366 0.107921466 -0.0921543 -0.022210253 -0.25097543 -0.076353796 -0.6210125 0.04819426 -0.0557885 0.16374974 0.16223675 -0.6823768 -0.16297023 -0.51892483 0.30530003 0.56469005 0.17303492 0.16434856 -0.084945485 0.42462534 0.1653267 0.37752083 0.10738573 0.58845365 -0.016161492 0.13162868 0.0841348 -0.056624085 -0.23485999 0.22659643 0.11245205 0.019746868 -0.53962547 -0.054103617 -0.12112995 -0.5076092 -0.06151445 0.20420049 -0.4856829 -0.4563853 -0.010707729 -0.019428039
Eddard-Stark -0.044327263 -0.2233927 -0.20889764 0.004840645 -0.07503898 0.31886268 -0.100767344 0.20883234 -0.25595903 -0.17036939 -0.039511763 0.18491529 -0.08004297 0.40676156 0.05045915 0.18222068 -0.45296124 0.23800191 0.09641162 0.067949295 0.101724684 0.2034501 0.15996173 0.380893 0.23374744 0.07760384 -0.38439626 0.2296696 -0.48117688 -0.29544175 0.12395036 0.22933036 -0.041511428 -0.4878124 -0.047569282 -0.5429381 0.27701128 0.37045676 0.25668624 0.25311473 -0.09638386 0.1034356 0.5101224 -0.07662499 -0.12164552 0.25640503 0.110429496 -0.04348167 -0.096620016 0.46306992 0.116925634 0.1691292 0.21317686 0.1996992 -0.43418905 -0.2580376 -0.14062573 -0.09216411 -0.18283951 0.31329107 -0.26825175 -0.20380332 -0.0068699354 -0.162315
Davos-Seaworth -0.15168265 -0.42297864 -0.13723297 -0.30782568 0.08745088 0.5280915 0.076487206 -0.01082063 -0.19708648 0.062669516 -0.10120214 0.22620656 -0.6126748 -0.24794509 0.0727934 0.3542348 -0.63213134 0.13941683 0.061025225 0.4685324 0.0015602778 0.34198767 -0.0037837117 0.28401318 0.013651165 -0.21697436 -0.26354238 -0.10088796 -0.24303047 -0.22139594 -0.054566454 0.24427514 0.3814585 -0.7678703 0.26502657 -0.3620706 0.40924016 0.14825906 0.21420541 0.13603078 0.07821656 0.14197856 0.09856794 0.25097978 0.27347484 0.49310735 -0.20240025 -0.0500539 0.22508642 0.20925005 0.070886016 0.13305235 -0.092258245 0.13701513 -0.29302615 -0.22820923 -0.24291416 -0.28405467 -0.37365803 0.30874872 -0.50815976 -0.35260093 0.50811696 -0.060304303
Daario-Naharis -0.21559955 -0.289767 -0.4286266 -0.12402762 0.17237262 0.10777874 0.013741785 -0.19276032 -0.3929131 -0.36206836 0.007551795 -0.05933876 -0.21003829 -0.2932108 -0.4033748 0.12146093 0.10133423 0.1737035 -0.25395986 0.64244545 0.23209998 0.2611861 0.48943344 0.21887858 0.18089178 0.40894508 -0.07143179 -0.33314487 0.14458026 -0.070229985 -0.11870598 0.12793942 -0.069843955 0.35783717 -0.204286 0.32724163 0.2086671 -0.4608242 0.37162897 0.7951362 0.057690877 -0.28399312 0.48353547 0.5558136 -0.1630775 -0.68059564 0.28373897 -0.044017933 0.19466606 -0.496583 0.79749703 -0.14818078 0.028344505 0.39628756 -0.65886545 -0.08184169 0.007896585 -0.40251434 0.22988129 0.2323014 0.3062924 0.17312191 0.08679439 0.0969941
Arya-Stark 0.109019876 -0.20604283 -0.30350205 -0.35757092 -0.015144426 -0.10801139 -0.081285946 0.03428314 -0.33630434 -0.34326032 0.27601278 -0.08903882 -0.0098578585 0.34140334 0.26817238 0.1729574 -0.7910125 0.13510326 -0.17792714 0.052592695 0.010197049 0.042340174 -0.20538217 0.5057673 0.36390275 0.114943966 -0.6749676 0.32217753 -0.2483662 -0.34353817 0.12253697 0.50598687 0.3062016 -0.32495958 0.19138665 -0.27024657 0.5044605 0.69409823 0.25367546 0.39573765 0.13945825 -0.13189505 0.36726397 -0.14189778 -0.18073997 0.19365487 -0.082853384 0.08439117 0.32123536 0.072578795 0.2813182 0.33182505 -0.056432396 0.028666386 -0.15592042 0.15989968 0.23001677 -0.15481141 -0.2118386 0.41374555 -0.23822473 -0.41677517 -0.23099355 0.19648705
Bran-Stark -0.11334749 0.095892094 -0.65217865 -0.17253882 0.1838176 0.1072983 0.12279608 -0.2167808 -0.24370524 0.03051238 0.023320226 0.22921416 -0.30790532 0.16217756 -0.14924471 0.043472216 -0.87318975 0.28745687 0.14067589 -0.09484199 -0.28886914 0.39400405 -0.2821962 0.4117389 -0.073651664 0.17800094 -0.5698835 0.4318305 -0.020481223 -0.37564608 -0.2523364 0.42120224 0.46600726 -0.4527147 0.1389363 -0.2188227 0.6116246 0.5448355 0.19908883 0.05097934 -0.25364074 0.057212804 0.6172656 0.12993109 -0.12539774 0.08919412 -0.09206541 0.24236473 -0.13717644 0.315411 0.19653562 -0.017708706 0.3550897 0.28059343 -0.5347075 0.103179 0.19582994 -0.3851351 -0.42964587 0.59413946 -0.2853486 0.02088703 -0.4229677 -0.046813596
Jaime-Lannister 0.17004134 -0.53651905 0.022657951 0.45119396 -0.26279235 -0.16979524 -0.33354765 0.22196245 -0.53379303 0.0928667 0.04957075 -0.09422829 -0.30373815 -0.12122572 -0.54470223 0.78241974 0.14668277 0.059450965 0.06951536 0.50144213 0.51487184 -0.071804374 0.5462308 -0.27225035 0.576727 -0.21918124 -0.23613112 -0.18308693 0.2546391 -0.26411316 0.12669799 0.2975559 -0.0058383676 0.3470567 -0.3134571 0.0051734587 0.11201333 -0.31909516 -0.08896898 0.25519225 -0.20922826 0.10814646 0.23934159 -0.0971916 -0.37836492 0.032459192 -0.1012135 0.27823007 -0.28634006 0.2042452 0.31881157 0.31374913 0.3541074 0.038451783 -0.10529289 0.3200939 -0.11127394 -0.24888508 -0.32830024 0.41696677 -0.50299364 -0.050053988 -0.023885958 0.14058478
Victarion-Greyjoy 0.05040287 -0.4965147 -0.105401546 -0.04743383 0.46887773 -0.41551736 0.06721616 0.01653977 -0.9610529 -0.048362907 -0.14898783 -0.26815072 -0.08075859 0.050920356 -0.5168004 0.03301968 -0.37142965 0.018769758 0.063394286 0.14591931 0.34157893 0.50705516 -0.2555854 0.20712805 0.044429973 0.19290636 -0.20158808 -0.5484246 -0.14646047 0.029148277 0.07250941 0.25758126 0.373854 0.17037444 -0.08895782 0.06301041 0.51158285 -0.5130395 -0.21885076 0.10292125 -0.31554684 -0.3904382 0.0064319684 0.4778669 -0.05960307 -0.32277504 0.41595775 -0.13022654 0.27712238 -0.13912892 -0.07020321 0.012046237 -0.3399504 -0.12770717 -0.2824488 -0.019642524 -0.34444636 -1.0039169 0.4275274 0.26684755 0.6030457 0.21774141 -0.3700379 0.19361316
Haldon 0.1577128 -0.43404916 0.014729065 -0.24705522 0.19030513 -0.112434186 -0.2156972 -0.012529982 -0.2795908 -0.40926203 0.25056654 -0.3482902 -0.13792269 0.111441426 -0.45165643 0.34054664 0.060625013 -0.38866597 -0.24424472 0.3547379 0.4196662 0.23411727 0.04990025 0.1242823 -0.11957546 -0.012295831 -0.25315642 -0.11280426 0.64612675 -0.2304784 -0.1439667 0.050028708 0.008081227 -0.038513076 -0.33841616 0.45407256 0.19007294 -0.7736907 -0.08423036 0.607362 -0.15563098 -0.5132806 0.09514621 0.503079 0.09670125 -0.13753988 0.10260595 -0.18405837 0.19273871 0.14397246 0.03698131 -0.288945 -0.004799605 0.0912551 0.029148232 -0.18857461 -0.20360436 -0.66899085 -0.63002944 0.03470155 -0.30917484 -0.40936103 -0.2659334 -0.12777404
Kevan-Lannister 0.44315943 -0.5145593 0.4791488 0.36434117 -0.22157441 0.03056667 -0.1480812 -0.17752011 -0.18926434 0.105674274 0.10100973 -0.008268223 -0.18593898 -0.32820392 -0.10514077 1.0384797 -0.1070511 -0.23257884 0.18430433 0.21955729 0.4361891 0.17097016 0.38014516 -0.1962801 0.0363393 -0.18334131 -0.31785792 -0.44154474 0.44765133 0.32806236 0.2496918 0.26881072 0.23140503 0.049497843 -0.17982838 0.09459402 0.027213367 -0.15826644 -0.060203467 0.31998676 -0.23827901 0.0989321 0.56694055 0.17213717 -0.252996 -0.11120693 -0.06774384 0.13428262 -0.2169441 0.31673113 0.27223387 0.20389631 0.53598815 0.35807967 -0.34327772 -0.38066325 -0.01647423 -0.19360204 -0.039575774 0.13411008 0.08891203 -0.018124137 -0.07978131 0.1853852
Skahaz-mo-Kandaq -0.3294355 -0.6766236 -0.32868114 -0.30002603 0.037635535 0.40278098 -0.22324029 -0.3330847 -0.3350067 -0.17915255 0.38253257 0.0084681185 -0.057557486 -0.09431532 -0.26241657 0.1085787 0.320986 -0.29241216 -0.22057107 0.22729999 0.31342304 0.53665894 0.5221021 0.09538501 0.068894304 0.30766156 -0.25906238 -0.34898376 0.4396504 -0.20677783 -0.1542532 0.20829333 -0.0068794545 0.51776606 -0.19847372 0.2216856 0.38123307 -0.3506124 0.27893654 0.74909335 -0.06759474 -0.0034544652 0.32334733 0.4866801 -0.24455494 -0.6495675 -0.008671184 0.024005176 0.21898235 -0.46288297 0.7836416 -0.04188753 -0.020851392 0.39352995 -0.5706406 -0.17154829 -0.2803797 -0.6957338 0.4493999 0.079904705 0.3330362 0.02066655 0.14976425 0.07126901
Robb-Stark 0.09311394 0.10911468 -0.25863537 -0.07554283 0.20514134 0.34443235 -0.264488 0.0042982744 -0.05671411 0.27021095 -0.1966086 -0.037160862 -0.51034266 0.24286859 -0.1638287 0.38941705 -0.5850688 0.42895836 0.15489087 0.03775725 0.30481806 0.4144076 -0.103611 0.52026856 -0.043623224 -0.23083217 -0.30410403 0.26224774 -0.18829711 -0.17850405 -0.26115242 0.18973567 0.3951931 -0.4224311 0.23631497 -0.35804257 0.44801182 0.38934347 0.35522732 -0.16572727 0.07226698 -0.10844951 0.3241594 0.18237649 0.06413136 0.318472 0.09161787 0.180664 0.16536032 0.2339293 0.18482377 0.06384126 0.042466883 0.27976155 -0.5756724 -0.09859325 -0.018254172 -0.44936517 -0.14346057 0.24358445 -0.43548107 -0.11479947 -0.17461666 0.03284925
Rhaegar-Targaryen 0.1005815 -0.18722887 0.068846725 0.10394711 -0.13595666 -0.06883475 -0.12548593 -0.16743487 -0.30719602 -0.5805995 0.5217715 -0.16751015 0.0903096 0.10206938 -0.40291932 0.34147745 -0.27838406 -0.043727104 -0.12252611 0.22325356 0.25200966 0.38586855 0.3478449 0.0754862 0.046788022 0.2050482 0.027316744 -0.1849422 0.64999914 -0.18556432 0.1403004 0.37885994 -0.12304153 0.04623574 -0.4220889 -0.018396335 -0.20952655 -0.43962473 0.30398548 0.1375238 -0.21924151 0.15663466 0.3022493 0.23851237 0.08388719 -0.30036154 0.06023877 -0.28946313 -0.08596595 -0.2119705 0.19086824 0.22436976 -0.055321157 -0.027362954 -0.37202668 -0.38793045 -0.18911803 -0.20728786 -0.029499521 0.037006445 -0.46602935 0.24559194 -0.06879471 -0.15587346
Bowen-Marsh 0.28632024 -0.19155282 -0.19043982 -0.75101113 0.17436033 -0.06658999 -0.021463195 -0.31057933 -0.50429446 -0.024582978 0.20424831 0.22430302 -0.37952927 0.2819997 0.21577083 0.33268932 -0.32506084 -0.24796167 0.36553958 -0.010706127 0.06844078 0.17916399 -0.29468393 0.3277882 0.564747 -0.45531273 -0.048716452 0.7013906 0.20017639 0.0732056 0.43501982 0.35038304 0.2680016 0.22536227 -0.09585026 -0.34060755 0.31049484 0.17938687 0.39962035 0.06633069 0.009703184 0.24102706 0.072127536 0.05529365 0.3229739 0.6526114 -0.3331048 0.23762703 -0.0026999475 -0.008714198 -0.18943922 -0.04050066 0.046598524 0.2017184 -0.22797787 -0.139525 0.09546382 -0.33222276 -0.19930074 0.5914278 -0.24966964 -0.05665158 -0.2814258 0.53034574
Tywin-Lannister 0.15899792 -0.21661744 0.19154426 0.138158 0.2481587 0.08773529 -0.3118014 0.0016025039 -0.25201058 -0.46736917 0.17297599 -0.05731035 -0.21272862 0.067200236 -0.055144724 0.43385687 -0.113317914 -0.10874275 0.17448689 0.261369 0.42357424 0.25055456 0.33305928 0.08035373 -0.0253309 0.21171412 -0.052022498 -0.012698043 0.32149407 0.17889576 0.20403165 0.2839342 0.109102055 -0.1467046 -0.01349285 0.17510259 -0.19589563 -0.43662158 0.19312969 0.29758155 -0.31876558 0.17802627 0.25777885 0.3469092 0.0384099 0.07484367 0.03826047 -0.2387101 0.16085327 0.082619965 -0.06305619 0.4257288 0.36793157 0.1256316 0.08294761 -0.08599727 -0.13302566 0.09893667 -0.2504851 0.25418368 -0.41901696 -0.0943515 -0.091013476 -0.14802228
Myrcella-Baratheon -0.078058094 -0.639517 0.1979573 -0.19402769 -0.101305224 -0.03689228 -0.10561168 -0.44338518 0.0064071664 -0.019184224 -0.023210412 -0.28179562 -0.8192352 0.16224582 -0.2891535 0.49297404 -0.026298499 -0.047718134 -0.07787568 0.10035131 0.20793106 -0.03805469 -0.127049 -0.21080233 1.4106287e-05 -0.010252626 -0.44013268 -0.39251697 0.3132137 0.0046094703 0.3246393 -0.29544818 -0.023638673 0.19230956 -0.13828626 -0.34130257 -0.013274323 -0.21558233 0.16766334 0.26421055 -0.19592659 -0.26287854 0.004357654 0.05836497 0.26752934 0.025669387 -0.37354392 0.014301844 0.14010982 0.17160071 0.30433556 -0.13192922 0.120788924 0.42759433 -0.28031814 0.2939873 0.45579126 0.027576355 -0.09751795 0.14819302 -0.09347308 -0.16014218 -0.036335614 -0.17231919
Tormund 0.03695852 0.08288301 0.10820793 -0.356523 0.094861284 -0.13037969 -0.072186865 -0.31324434 -0.58391815 0.06718208 0.0850327 -0.27307802 -0.15540026 0.129637 0.26795226 0.17751609 -0.14579688 -0.27300215 0.088763915 -0.05070156 -0.11111755 0.3287115 -0.2392097 -0.0060452647 0.38519126 -0.3011421 0.16208574 0.9852961 0.07108065 0.038309153 0.25289488 0.25401846 0.3124236 0.044239953 -0.11589155 -0.46159512 0.46469077 0.27674636 0.56790704 0.4520487 0.15215741 0.09076367 0.3782459 0.5134528 -0.10544697 0.1985961 -0.6062414 0.57814795 0.2737195 0.53151083 -0.038722973 0.06976896 0.07880606 -0.30584365 -0.26223257 -0.1713379 -0.12299203 -0.31565988 -0.040057622 0.69065475 -0.26399198 -0.21516678 -0.1264267 0.29333824
Gerris-Drinkwater -0.3182253 -0.73395294 -0.31879023 -0.22012565 -0.04646871 -0.16447265 -0.20454554 -0.082221374 -0.10627299 -0.23439558 0.28337395 0.05858676 -0.24231736 0.29876608 -0.76989406 0.31985503 -0.107823946 -0.029607257 0.2407959 0.111907594 0.022671945 0.26650238 0.2957586 0.24851276 0.26573417 0.3657467 -0.36716673 -0.6328731 0.24233463 0.066262014 -0.033620577 -0.08430778 0.08077278 0.38003254 -0.36163068 0.25947118 0.047057234 -0.23145653 0.60676193 0.79254436 0.13294241 0.043205302 0.7265387 0.23901005 0.031238033 -0.53582937 0.2754281 0.085989416 -0.0025542846 -0.7542998 0.48143712 -0.4011504 0.1952547 0.2734053 -0.15643123 -0.31523225 -0.31037605 -0.51576483 0.09008208 0.16537736 0.4148453 0.22887467 0.108811274 0.31246445
Hareth-(Moles-Town) -0.03064526 -0.37686807 -0.7962912 -0.036844723 0.27259848 -0.031441838 0.021128051 -0.52620804 -0.3804059 -0.40968114 0.18461065 0.33110783 -0.16252737 0.3924514 0.2224758 0.56032234 -0.2302906 0.022345472 0.0587934 -0.052230686 -0.36935622 0.5671079 -0.25127542 0.5037806 0.9793285 -0.71906847 -0.06638914 0.9505424 -0.07255773 0.18806064 0.1350302 0.2050246 0.5835465 0.11568404 -0.50108826 -0.012894581 0.41894463 0.19682106 0.39009124 0.15112554 0.3845779 -0.057204366 0.19062984 0.15515673 0.2041832 0.2818412 -0.5230781 0.5845208 0.17402367 0.29859674 0.015544688 -0.16071837 -0.011491476 -0.17530264 -0.48877805 -0.17295803 0.12716463 0.0046693548 -0.23151803 0.6033133 -0.09713565 -0.13925111 -0.18577635 -0.117138274
Eddison-Tollett -0.055765823 -0.12375042 -0.4523053 -0.4487339 0.17303352 0.040908664 0.3155177 -0.5720004 -0.27336264 0.07164145 0.1906766 0.096654624 -0.21105021 0.25343406 0.30740115 0.3764519 -0.5977107 -0.12881954 -0.20717499 0.119658686 -0.25629267 0.1555773 -0.042254817 0.3639585 0.79067016 -0.69138855 -0.25851455 0.5548707 0.15270403 0.11857014 0.5275869 0.10648706 0.6343573 0.0025918265 -0.2494331 -0.02528084 0.4942921 0.21460342 0.21744616 0.34895116 0.12920274 0.17688291 0.0130769145 -0.063160196 0.3636228 0.22936007 0.06883538 0.08145317 0.15421191 0.50377524 -0.10795129 -0.22175421 -0.012000829 -0.42403737 -0.63737905 -0.27859324 0.5054213 -0.09064652 -0.15789089 0.6725061 -0.32259527 0.05959899 -0.31759587 0.5298063
Val -0.22474621 0.076436676 -0.0777721 -0.33722103 -0.0047274656 -0.0506723 -0.015893366 -0.09798187 -0.40539247 -0.18618968 0.3836442 -0.26038566 -0.21040326 -0.032074474 0.03135524 0.3114355 -0.29938653 -0.35915327 0.050131213 -0.025062086 0.14464965 0.22029938 0.30377465 0.07760773 0.38877127 -0.07066286 -0.16632646 0.5472209 -0.0503853 -0.066284664 0.13062052 0.06075303 0.19661288 0.20159738 -0.17016824 -0.24916857 -0.1284073 0.39703545 0.43834898 0.13167962 0.04334247 0.13019632 0.1673673 0.14363442 0.06852603 -0.03527606 -0.19348024 0.21637958 0.41001284 0.6561915 -0.43996915 0.017741505 0.056768987 0.15785596 -0.20919535 -0.11012077 0.028250195 -0.13554038 -0.19881013 0.36983708 -0.45526236 0.09564286 0.32608023 0.19656345
Irri -0.32347316 -0.49427468 -0.5295082 -0.29451355 0.27989233 0.20565477 0.0070649823 -0.40052128 -0.32655874 -0.2588607 0.19006859 -0.27608317 -0.24640465 -0.34115216 -0.18297563 0.50327134 0.2535985 0.014102835 -0.47481573 0.3540407 0.25957233 0.29192486 0.46265692 0.30241778 0.22313587 0.47241518 -0.29034564 -0.08083213 0.15446657 0.015678056 -0.18523146 -0.026594529 -0.04416688 0.2745408 -0.16058095 0.36235228 0.1128384 -0.30773103 0.31632704 0.7940271 0.01985075 -0.022765623 0.38423264 0.5717578 -0.33790797 -0.5628274 -0.004424674 -0.00033172398 0.08915133 -0.43965355 0.66185766 -0.26003012 0.18741271 0.15040042 -0.3707568 -0.0691596 -0.3570112 -0.6063832 0.32731295 0.19361545 0.2776482 0.46566826 0.22742957 -0.12796493
Roose-Bolton -0.22051896 -0.121675305 0.034455724 -0.10454421 0.28733608 0.2899229 -0.00970425 -0.016260752 -0.25056636 -0.43685597 -0.10039681 0.22209269 -0.32125658 0.33782104 -0.30495828 0.10651161 -0.30701798 0.24263445 -0.15829737 -0.06612781 0.23652163 0.2434206 0.074972846 0.5317041 -0.11257877 -0.08202156 -0.32869107 -0.010807969 -0.30931687 0.06795394 0.031059744 0.3908825 0.3647888 -0.44832912 -0.27795774 -0.74078614 0.41328633 0.5464692 -0.20555066 0.32427275 0.009684433 -0.08381061 0.38386285 -0.032642215 0.033454843 0.24272533 -0.13718198 0.18148614 0.05729577 -0.004452251 -0.07226657 0.3329824 -0.08951046 0.14332782 -0.2867652 0.11061823 -0.008143552 -0.31309894 -0.1173802 0.41927117 -0.19226861 -0.4966276 -0.1999 0.37582275
Jeyne-Poole -0.16221213 -0.062349048 -0.24871078 0.086411305 0.08279733 0.139256 0.42348236 -0.14781319 -0.27871427 -0.25696823 0.13412195 -0.13404246 -0.28176087 0.45007047 0.11828462 0.03567603 -0.5234134 0.17063147 0.07004776 -0.12614319 0.24797544 0.3738472 -0.13787664 0.6153894 0.03594086 0.20592904 -0.8581844 0.18842995 -0.10903075 -0.049221177 0.21008119 0.30059054 0.07626188 -0.4003541 -0.16152939 -0.6516656 0.4640695 0.50705916 -0.06989717 0.2525887 0.02035592 -0.19307058 0.54226315 0.012320264 -0.20288298 0.36530602 0.03264643 0.36171687 0.179784 -0.044314366 -0.257427 0.5718039 -0.021996586 0.02007622 0.13055861 -0.057805993 -0.043130573 -0.4975225 0.079998836 0.6104458 -0.20678094 -0.54109836 -0.20519458 0.5619943
Gregor-Clegane 0.026720492 -0.4314065 -0.20307596 0.19217537 -0.20646062 0.10237504 -0.017587636 -0.4473889 -0.17585647 -0.08695379 0.47360736 -0.31020737 -0.71493286 -0.16750522 -0.101228245 0.77538955 -0.18690486 0.5070806 -0.1581402 0.050118897 -0.0024992044 0.44538087 0.23696762 -0.11958875 -0.20980693 -0.020340422 -8.904502e-05 -0.60401344 0.43033955 -0.15281509 0.02747015 -0.20814653 -0.15527572 0.6491162 -0.6533097 -0.32103342 0.20725815 -0.23901968 0.27997407 0.3849907 -0.18856046 -0.35077494 0.82832676 0.0023418977 0.1535032 0.054369178 -0.25416648 -0.23204306 0.1931517 0.32067537 0.29522476 0.34259054 0.33397764 0.12007842 0.159248 0.4116448 -0.05824013 0.019526027 -0.12881123 0.36342275 -0.00017681222 0.19736749 0.036695357 0.2715199
Tattered-Prince -0.27295557 -0.7277475 -0.37944457 -0.3401804 -0.06730132 -0.036510002 -0.08665449 -0.013388344 -0.26799962 -0.43428752 0.1595865 -0.21869078 -0.6130804 0.07665054 -0.88787127 0.15221849 -0.13501075 -0.055814676 0.31155044 0.1988207 -0.1515933 0.042615082 0.09350157 0.061554264 -0.064563386 0.2503297 -0.22987193 -0.6096133 0.3041106 0.31209305 -0.015051775 0.3480789 0.1160272 0.7614391 -0.46449155 0.42103675 -0.032876138 -0.1778336 0.560163 0.72952276 0.2149849 -0.008067321 0.81019896 0.31032598 0.05644789 -0.22442268 0.112445466 -0.00821695 0.067066826 -0.5828011 0.44147685 -0.18984874 0.12299925 0.0778832 -0.22365128 -0.4033907 -0.32126892 -0.8018646 0.0045913733 -0.1320095 0.40102556 0.38902065 -0.008473359 0.31051576
Rolly-Duckfield 0.21016906 -0.30294317 -0.15009746 -0.19095291 -0.03361321 -0.16639371 -0.29648915 -0.30503136 -0.22748111 -0.4727403 0.19139303 -0.32114404 -0.16239065 0.19627775 -0.45545936 0.37908068 0.106230624 -0.5142359 -0.113116615 0.17102432 0.37867472 0.18431154 0.24241617 0.27572793 -0.03099804 0.06158019 -0.09438449 -0.056482848 0.61182374 0.070792474 -0.028273495 0.04335475 -0.03678524 -0.0011079109 -0.3404567 0.13978244 0.18078037 -0.74151874 0.007734761 0.57274795 -0.4415847 -0.35697594 0.24595046 0.21281072 0.047840387 -0.15446772 0.19358207 -0.0525385 -0.16748193 0.046316963 0.036076065 -0.2565553 0.06417058 0.19478355 -0.024781952 -0.22902782 -0.05221778 -0.5061024 -0.5391496 0.054921485 -0.2192187 -0.6722741 -0.2364694 -0.34078822
Ben-Plumm -0.10698438 -0.9133317 -0.4031557 0.20534676 0.43224147 0.2030657 0.21532522 -0.30409265 -0.23880757 -0.16569926 0.114334054 0.015746607 -0.26740587 0.12883346 -0.3240371 0.2127508 0.12071801 -0.39492056 -0.06684493 0.6804814 0.16575857 0.1563708 0.54422235 -0.07920874 0.2924406 0.3031997 -0.28315026 -0.016161697 0.020494519 0.06334371 -0.08456289 0.04772484 -0.10207925 0.44703752 -0.2649182 0.3450937 -0.060882848 -0.57679135 0.0008589091 0.48128846 -0.012108984 -0.09287907 0.24767739 0.5985427 -0.051924024 -0.053543866 0.41486806 -0.2116626 -0.14668359 -0.3775791 0.26597202 -0.30667013 0.09811487 0.30276904 -0.1259211 0.031905267 0.17805152 -0.4190579 0.3545868 0.13546613 -0.028479861 -0.10415338 -0.13991374 0.27361563
Godry-Farring -0.04412696 -0.13377853 -0.10511345 -0.17447034 -0.17897959 -0.20784406 0.14633162 -0.5407695 -0.6148288 -0.1410805 -0.22478513 0.20024186 -0.29067698 0.11428008 0.049765814 0.14677502 -0.58952075 -0.31948447 0.11906801 -0.05682063 0.04327894 0.06563005 -0.01364449 0.15319198 0.40065363 0.150503 -0.16841738 0.1860502 -0.11497125 0.36283442 0.25374964 6.139855e-05 0.28185588 0.040186636 0.29050246 -0.24937223 0.33727843 0.034260098 0.15782563 0.23123172 -0.14445202 0.041416083 0.06602953 0.1427258 0.24559379 0.24049687 -0.14679424 0.2229867 0.38556233 0.25512522 -0.13781115 0.692837 -0.3449991 -0.042570643 -0.3270407 0.14638315 -0.1330822 -0.20020534 -0.41398704 -0.018794421 -0.35189167 -0.030826638 0.11088985 0.32481053
Hagen -0.04484188 -0.17378283 -0.41628525 0.1608197 0.32763514 -0.41945985 -0.4532581 -0.66340244 -0.9041527 -0.013332035 -0.379631 -0.29491913 -0.08235452 -0.019112285 -0.4756292 -0.007901299 -1.1547549 -0.068780124 -0.13892314 0.114275865 -0.026062127 -0.15061058 0.39783084 0.16369821 0.3945675 -0.17289424 -0.475417 -0.109577954 0.016623294 0.31727743 0.38279748 -0.037829366 0.5337672 -0.27331978 0.1725401 -0.14120822 -0.06804346 -0.010533273 0.1328849 0.24584118 -0.6011605 -0.11806224 0.26109424 0.21303515 0.34130326 0.04347081 -0.5366663 0.4962726 0.17200553 0.12169386 -0.12111162 0.2773133 -0.8507038 0.14963351 -0.2971302 0.031234441 -0.85216457 -0.40687832 0.17042075 0.330613 -0.19611073 -0.08659987 -0.3789052 0.29134077
Satin 0.10321671 -0.08633248 -0.7533113 -0.31329077 0.27053535 0.15724237 0.1378321 -0.5312403 -0.124877915 -0.33843055 -0.05069812 0.19684505 -0.29838288 0.3048753 0.5971754 0.37869477 -0.40734914 -0.20952438 0.20509312 0.01422886 -0.0075509152 0.33387026 -0.38847262 0.23801097 0.8342911 -0.84927535 -0.34600377 0.66533726 0.046170987 0.3424955 0.39109266 0.2583992 0.5593379 0.25758636 -0.3336215 0.11638996 0.405398 0.1853854 0.17104986 0.10207269 0.1811945 0.24069692 0.46488738 0.32906735 0.36028764 0.32691956 -0.44962355 0.2087741 0.39240256 0.23359567 -0.14882033 -0.23225239 0.15344906 0.09922209 -0.353376 -0.22760801 0.028432412 -0.09736656 0.017648466 0.6211239 -0.2826888 0.06962044 0.010319836 0.16241647
Missandei -0.32663926 -0.43940523 -0.3483753 -0.20081538 0.019472146 0.090214446 -0.11085268 -0.24750088 -0.15258466 -0.0634074 0.18738568 -0.10097979 -0.22145939 -0.11067301 -0.34161037 0.32169643 0.16876717 -0.1557717 -0.27406833 0.20187087 -0.009421897 0.41351163 0.42531976 0.200005 0.05287571 0.26265493 -0.20815942 -0.07600391 0.15333317 -0.12618318 -0.060941767 0.27134618 0.060599525 0.41119018 -0.3092187 0.23625703 0.114535116 -0.43152446 0.34339443 0.87091166 -0.15023306 -0.13360606 0.3860752 0.54749984 -0.16176443 -0.6125935 0.25272062 -0.09252762 0.15942731 -0.3044962 0.6413649 -0.34877372 0.19551948 0.28519344 -0.50041574 -0.046078257 -0.24427855 -0.54214907 0.33677092 0.14712696 0.46498924 0.2562994 0.1384714 0.13112994
Gilly 0.07402629 0.048609465 -0.2349122 -0.60869896 0.38737595 0.06273992 0.17753983 -0.050801564 -0.11445292 -0.4127749 0.14845943 -0.09695 -0.24610962 0.09627832 0.14062442 0.3580343 -0.5367577 0.07281604 0.22965406 -0.14747348 0.06296694 0.46183962 0.10252346 0.028428633 0.9438827 -0.21882416 -0.25641477 0.30015352 0.021526735 -0.10209545 0.29525712 -0.22121926 0.6142352 -0.07103183 0.16484605 -0.4837939 0.37874982 0.047062136 0.17428142 0.38540047 0.31859466 0.012774542 0.031445768 0.35851264 -0.040596344 0.091490105 -0.10763281 0.29687282 -0.0009967812 0.23007129 -0.1552048 0.043535214 -0.082616426 -0.10799334 -0.16380328 -0.07915777 0.33842555 0.010582312 -0.10551325 0.35367697 -0.69755954 0.15752582 0.013332714 0.67213273
Tommen-Baratheon -0.3235721 -0.4200686 0.38301718 0.3363719 -0.20539236 0.04609958 0.11124513 -0.070647255 -0.40030912 -0.03830131 0.19106239 -0.005651049 -0.3183243 0.018999372 -0.37524304 0.5949109 -0.017447056 0.15936048 -0.06709655 0.26491314 0.21071 0.10754448 0.09748026 -0.06314634 0.073515326 -0.16536395 -0.31858978 0.1365695 0.53902364 -0.024823092 0.16951731 -0.3576613 0.107782334 -0.12490203 -0.07696142 -0.17127104 -0.071126655 -0.13123196 0.040741645 0.27911037 -0.5418337 0.092962906 0.49063537 0.0862971 0.15512908 0.24842586 -0.17335993 -0.07793283 0.08639121 0.34878734 0.018340148 0.27571338 0.31701294 0.4161028 -0.29240754 0.07082843 0.4466007 0.07772269 -0.027706591 -0.0273924 -0.18028314 0.111843824 -0.1210539 0.07228013
Penny -0.10678906 -0.5972699 -0.12932082 0.08042816 -0.036405273 0.014127184 0.033024445 -0.121681064 -0.6283615 0.061109047 -0.06301865 -0.036788136 -0.54102546 0.18698314 -0.2928661 0.41163057 0.068896845 -0.40838253 -0.15675195 0.47836033 0.31639284 0.3597534 0.21700943 0.048943758 0.3521732 0.4993746 0.14100438 -0.0026450048 0.2600422 -0.23973687 0.15381843 0.12794441 -0.08664616 0.15891507 0.01619222 0.32441032 0.15017253 -0.535861 0.055912133 0.4409002 0.07667978 -0.07153806 0.59174085 0.8833423 -0.04652761 0.14965129 0.31573644 -0.034400787 -0.04043197 -0.2574521 0.5981534 -0.4601468 -0.003916392 -0.001194348 0.25435045 0.072941795 0.46998417 -0.42887545 -0.12750973 0.11144808 0.25853324 -0.2209637 -0.057290863 -0.1737369
Yandry 0.24798022 -0.20806469 -0.0045349416 -0.0949506 0.18591888 -0.017409943 -0.30071232 -0.17200792 -0.24498169 -0.51740277 0.34985027 -0.3865824 -0.13256197 0.271865 -0.49623784 0.4370451 0.008998846 -0.39856133 -0.10699779 0.44396263 0.5746694 0.11987601 0.20338346 0.08183587 0.04852743 0.08869752 -0.13238038 -0.009879707 0.6578082 0.038643226 -0.06680892 -0.07177691 -0.112859055 -0.05724442 -0.16118181 0.2260027 0.18959807 -0.6518108 0.011853196 0.6357388 -0.27777785 -0.42324165 0.24857321 0.37582168 0.11912329 -0.10580044 0.20545188 -0.038812038 -0.1944491 0.018215265 0.27354944 -0.2500966 -0.095995046 0.22386798 0.06796968 -0.10241835 -0.15665753 -0.47662067 -0.43375745 0.1250962 -0.28243563 -0.4388108 -0.22444901 -0.2856632
Lemore 0.1236272 -0.26100633 0.028428895 -0.074364804 0.18163705 0.08641821 -0.35222182 -0.29955152 -0.40301174 -0.4876247 0.2895956 -0.39383566 -0.116724715 0.15786336 -0.3281805 0.35582295 0.063549876 -0.45540676 -0.02364133 0.37450916 0.38733965 0.14137857 0.22307569 0.21564235 0.032443903 0.20441209 -0.20708731 -0.0066778036 0.6416521 -0.010316412 -0.013171397 0.017365998 -0.16315141 -0.03854893 -0.18753906 0.23755406 0.09397602 -0.6113011 -0.029448558 0.70425993 -0.28396815 -0.45300934 0.26985273 0.29442245 0.14776261 -0.11304604 0.22576772 -0.047473643 -0.27187762 0.06636151 0.13197708 -0.2458785 -0.013393499 0.068569355 0.12218634 -0.1155504 -0.13248527 -0.6651801 -0.5343743 -0.06838062 -0.33014253 -0.32362828 -0.29108942 -0.20689563
Meera-Reed -0.2040332 0.17957494 -0.6538634 -0.40027392 0.36645976 0.07149203 0.19952185 -0.36456925 -0.25354886 -0.09298964 -0.016624384 0.18961139 -0.5575505 0.29462874 -0.22900686 -0.015209275 -1.0026284 0.22188276 0.17300995 0.18907757 -0.3927218 0.6213627 -0.30613372 0.5304394 0.09594365 0.11650734 -0.6098304 0.36894035 -0.012274344 -0.5831917 -0.1731319 0.6488441 0.66244435 -0.19412996 0.15541886 -0.1911131 0.471953 0.66466594 0.30278987 -0.04671323 -0.21504208 0.17741424 0.8466275 0.07425379 -0.251979 -0.042978168 0.04649651 0.44996938 -0.359839 0.16704763 0.33037072 0.107125886 0.38791797 0.44650272 -0.3673018 0.18853936 0.081235126 -0.35887858 -0.62325466 0.6375625 -0.30095407 0.13386251 -0.67351085 -0.31410012
Jhiqui -0.2853105 -0.34401777 -0.55964965 -0.38136813 0.080548994 0.018974379 -0.1968715 -0.18358083 -0.25166908 -0.31658506 0.060830567 -0.099946715 -0.100933366 -0.26863998 -0.39057535 0.40036973 0.2318586 -0.07481118 -0.48157457 0.43869153 0.24036719 0.49711812 0.29853785 0.36638597 0.36944082 0.35761768 -0.06867262 -0.2162714 0.14142044 0.043907292 -0.035744775 0.045123402 0.062173426 0.3899748 -0.19643705 0.38130128 0.1340948 -0.4088069 0.21013166 0.7924458 -0.21143961 -0.11987627 0.46171874 0.6821619 -0.13099031 -0.61572516 -0.065375425 -0.0035301289 0.09442739 -0.44009498 0.6269135 -0.2272656 0.42194766 0.20851626 -0.40561062 0.030599022 -0.34589377 -0.5062097 0.6195502 0.109780975 0.22599888 0.20117383 0.09710195 0.088026464
Grey-Worm -0.20697251 -0.36835694 -0.16517538 -0.50680333 0.33650953 0.09975935 0.01617126 -0.17583518 -0.18821639 -0.276066 0.31057948 -0.09990426 -0.10748645 -0.20781507 -0.5360738 0.33127892 0.14486976 -0.16999519 -0.54825366 0.3410459 0.034321625 0.37852538 0.52523494 0.27725035 0.21342583 0.41810045 -0.105313286 -0.28953028 0.13468514 -0.10762066 -0.05385691 0.24951953 0.12944502 0.31544468 -0.33494672 0.30933043 0.0030702667 -0.37044403 0.26436678 0.7144833 0.025382277 -0.15735132 0.5053606 0.48306903 -0.20884445 -0.45128918 0.13108076 -0.22016135 0.0015292886 -0.2962598 0.76123863 -0.05311621 0.095857024 0.07287826 -0.48516557 -0.057892866 -0.24540798 -0.50267494 0.580911 0.17651963 0.26197278 -0.00745928 0.12072687 0.14657466
Mace-Tyrell 0.16680449 -0.62427497 0.089590915 0.4423529 0.04205382 0.1370303 0.2273506 -0.16629867 -0.44782233 -0.08141936 -0.07717593 -0.14210844 -0.0730351 -0.264661 -0.23815414 0.9402167 0.0747748 0.14259937 0.08705416 0.43875065 0.2575914 0.40320072 0.10689646 -0.3993471 -0.038644906 -0.23001148 -0.417869 -0.57394797 0.7535365 0.3881726 0.21688023 0.31855837 0.050308563 0.06628571 0.0803765 0.17203635 0.027385306 -0.30077568 0.25528738 0.32831863 -0.0018784009 -0.11818518 0.6226646 0.09537413 -0.30047888 -0.21852472 0.036295023 0.15284456 0.2323403 0.019454049 0.20703387 0.39379627 0.5539335 0.23355581 -0.34535742 -0.04853399 -0.17601486 -0.19094835 -0.020920686 0.0073170913 0.17042606 0.13504288 0.27461255 0.2939514
Narbert-Grandison 0.13331734 0.380323 -0.49604517 -0.32145166 -0.012129484 0.18083507 0.09069257 -0.17779095 -0.52706724 -0.25382388 0.1799176 -0.21014011 -0.28455988 -0.057546802 -0.03407616 0.37694472 -0.40847012 -0.16227476 0.47624806 0.13292488 -0.28396344 0.33344382 -0.08287077 0.110838905 0.4670079 -0.39375588 -0.4204902 0.76411885 -0.49403343 0.042374875 0.638748 0.31075653 0.12064365 0.17113122 -0.30096006 0.17015052 0.19188698 0.0110001005 -0.29210523 0.13784567 0.2554785 0.24723408 0.112913184 -0.08862155 0.31770682 -0.068340786 -0.3654027 0.5347088 0.72019446 0.41607112 0.44549954 0.00771248 -0.08261018 0.22767964 -0.56088 -0.39613265 0.2747206 -0.61402375 -0.16314267 0.49972922 -0.72790265 -0.33155343 0.2896744 0.22435465
Jhogo -0.05605155 -0.38079113 -0.07927787 -0.2687247 0.20768616 0.07341353 -0.05588001 -0.3799822 -0.75490135 -0.21355145 0.12563956 -0.16886953 -0.19165438 -0.15429753 -0.3161781 0.20785001 0.25635242 0.01488198 -0.38952518 0.5233961 0.09545703 0.20908882 0.6661595 0.32890218 0.24040915 0.17472562 0.15921116 -0.55183184 0.16948637 -0.0038369207 -0.30868632 0.10878051 0.15992904 0.39277813 -0.28098238 0.34233618 0.010382561 -0.261426 0.3963133 0.78895557 0.03798323 -0.18508983 0.5239938 0.5124682 -0.21309514 -0.86423254 0.2254079 0.04612574 0.23211195 -0.50250995 0.49062687 0.018622924 -0.08504713 0.1308831 -0.6346632 -0.029858924 0.09123095 -0.4383526 0.36230963 0.02293759 0.11169497 -0.07461606 -0.052893613 0.05283795
Shireen-Baratheon 0.008100308 0.381181 -0.30140686 -0.25626653 -0.15511851 -0.042670697 -0.034819804 -0.113534294 -0.38622317 -0.38157073 0.0032531666 0.13303706 -0.34877414 -0.0030353833 0.0112661095 0.382677 -0.56268007 -0.50117224 0.08598094 0.3078827 0.12555392 0.5483961 -0.10127427 -0.04702043 0.1747292 -0.52587 -0.036720417 0.26413053 -0.25288236 0.12814769 0.15982124 -0.018135646 0.1945564 0.14882751 -0.275509 -0.34139818 -0.058299366 0.33216903 0.09920617 0.19464402 0.2899666 0.18422349 0.028067969 0.45390627 0.26147836 0.09563157 -0.17381302 0.26585823 0.4166084 0.6712254 0.13634011 -0.099918015 -0.15671296 0.3858423 -0.21988541 -0.065428145 0.20482466 -0.05736591 -0.14377876 0.5280913 -0.35473615 -0.2515476 -0.0923164 0.23033568
Sour-Alyn -0.36007687 0.10453827 -0.3496064 -0.046341583 0.5034494 0.24713035 -0.37001106 -0.3260629 -0.47224745 -0.4099984 -0.29406694 -0.40721375 0.07797431 0.4497784 -0.2417859 0.3935703 -0.5972721 -0.037494596 0.42435113 0.07031024 -0.049901295 0.10200182 -0.06808616 0.3756479 -0.05886497 -0.06637908 -0.8877541 -0.09063526 -0.019919118 -0.34684923 0.013457375 0.5296077 0.274227 -0.3894702 -0.08371067 -0.61882555 0.5594833 0.7052667 0.03704244 0.18169613 0.23948856 0.024893694 0.25240418 0.21028405 0.1573996 0.5900067 0.10998561 0.072178215 -0.062173735 -0.07800519 -0.31579474 0.57013947 0.13651519 0.008182104 -0.3756282 0.16388573 -0.020268003 -0.65626335 0.1400365 0.6442816 0.19011354 -0.2210334 -0.03142751 0.41245613
Barbrey-Dustin -0.3902797 -0.09412581 -0.25085327 0.08158541 0.3025375 0.12469229 0.29307988 -0.17008409 -0.4487248 -0.327101 -0.30130035 -0.16755688 0.0019479577 0.3288592 -0.09509011 0.32972726 -0.4390197 0.20220855 -0.0128913345 0.06256806 0.20398866 0.20764993 -0.008138468 0.60598737 -0.19420268 0.054994967 -0.4297831 0.08146696 -0.39217472 0.17684662 0.081752695 0.22582793 0.41483033 -0.27941722 -0.08648923 -0.7652861 0.4937342 0.21875073 0.009337814 0.20861626 0.06612039 -0.15408316 0.27729586 0.025229659 -0.16890186 0.3528667 -0.092772074 0.19293593 0.07659351 0.0894105 -0.22701754 0.2778377 0.3157889 0.33173394 -0.088798024 0.33651862 0.049357984 -0.3352051 -0.009102743 0.3940898 -0.20121133 -0.71573824 -0.19587278 0.47595093
Areo-Hotah -0.33959776 -0.71517646 0.00023686653 -0.2772044 0.12235524 0.29240656 -0.0273296 -0.4760665 -0.13427149 0.03826633 0.33955708 -0.5915988 -1.1378567 0.2638223 -0.46432346 0.2233997 -0.09677135 0.25962916 0.27222273 0.050355077 0.124672584 0.108300485 -0.039324567 0.056295726 0.094310455 0.32798114 -0.1363009 -0.47721958 0.2283026 0.13203636 0.48504603 -0.24083388 -0.21341887 0.41791043 -0.24072185 -0.25429907 -0.010645423 -0.41586334 0.16432099 0.57554156 -0.02735074 -0.24458562 0.33100724 0.066244975 0.3865621 -0.35461268 -0.64075106 -0.13014007 -0.041314162 0.20796597 0.5124156 0.06625826 0.36078522 0.12999922 -0.41812629 0.5026925 -0.045322265 0.1538031 -0.09746315 0.19797581 0.05046809 -0.117971934 -0.44577584 -0.35720545
Arnolf-Karstark 0.14396355 0.0015753652 0.017553259 -0.20865728 0.260326 -0.49006596 -0.035526656 -0.55268615 -0.48053384 -0.125533 -0.10961872 0.27165627 -0.3908539 -0.15384781 -0.39199623 -0.061745584 -0.64352864 0.36926675 0.37914357 0.17773572 0.09461957 0.15622924 0.4676104 0.1852691 0.05698521 -0.24355072 -0.58774203 0.08909598 -0.16752982 0.2414355 0.6765495 0.037189826 0.29494432 -0.5759721 -0.26218396 -0.19123006 0.007930947 -0.053743396 0.40768763 0.26441815 -0.02060964 0.105487764 -0.03760817 0.2523941 0.30886558 0.31752425 0.0806032 0.18391587 -0.070381045 0.67604154 0.1209733 0.353719 -0.3917201 0.08326187 0.041223835 0.5607018 -0.22394773 -0.47053725 0.18580382 -0.008551964 -0.06204173 -0.34413916 0.11261711 -0.0019117047
Arianne-Martell -0.21666619 -0.66533387 -0.010434328 -0.03582704 -0.03686385 0.13320896 -0.04960603 -0.5480061 -0.030213883 0.050606534 0.30749902 -0.507542 -1.1224968 0.13422109 -0.3458722 0.15297997 0.020170705 0.31458536 0.08103702 0.23509449 0.1233186 0.21579799 -0.31417698 -0.014875068 0.22109815 0.29546973 -0.20749807 -0.47848132 0.28811863 0.098059565 0.59288716 -0.14189251 -0.110046454 0.26812994 -0.2116091 -0.39678553 0.05022125 -0.3094888 0.042086568 0.66373 -0.111207835 -0.14493512 0.33564717 0.14511728 0.48043936 -0.31329533 -0.40437847 -0.22609544 0.0062087984 0.14117555 0.30335748 -0.21779953 0.28967786 0.12935555 -0.38145384 0.31241858 -0.09372994 0.14706299 -0.14867939 0.2492276 -0.047172867 0.023370124 -0.2470569 -0.26686016
Balon-Swann -0.29351822 -0.73027194 0.19429246 -0.046852876 -0.011565248 0.0025319045 -0.057824604 -0.5347287 -0.11792693 0.104607634 0.21709318 -0.43419313 -0.8413744 0.08311891 -0.37071636 0.35040486 -0.02839006 -0.016888307 0.03514487 0.1972765 -0.013316514 -0.035389993 -0.12544312 0.027273694 0.08431502 0.13655874 -0.25123882 -0.4327751 0.15530005 0.057119776 0.4878453 -0.22351855 -0.16509236 0.28777868 -0.28246635 -0.28580964 0.21477194 -0.31768903 0.007644637 0.49674615 -0.07082498 -0.46789712 0.09835602 0.1895192 0.4665654 -0.17962043 -0.19748737 -0.17054605 -0.07086787 0.034860633 0.51392967 -0.045923684 0.35583758 0.17637482 -0.1883806 0.21196564 0.25982133 -0.0160773 -0.12827656 0.23700032 -0.16988929 -0.13544951 -0.2816978 -0.5611801
Varys 0.13826025 -0.25933385 0.2673186 0.0972278 0.05211379 0.2406812 0.23095442 -0.03985353 -0.23437649 0.047700223 0.24133912 0.27221894 -0.15017776 -0.27715105 -0.19663094 0.57600975 0.08781019 -0.1813634 0.10836107 0.30493551 0.42402822 0.2553162 0.043499026 -0.2601793 0.09852533 0.25533766 -0.3393864 -0.23478612 0.3565027 0.12691027 0.025264552 0.09373677 0.1951786 0.17051847 -0.3316703 0.4275909 -0.12603572 -0.42639363 0.39673215 0.4803841 -0.42436346 0.022410039 0.45276162 0.19724308 -0.37887537 -0.2943959 0.17639782 0.03378307 -0.054688644 -0.14537917 0.32294062 -0.0029669367 0.039696347 0.18012421 -0.09608134 -0.2056211 -0.104476795 -0.6499523 -0.124963894 0.18494293 -0.05363492 -0.45165867 -0.24900582 -0.28284678
Meryn-Trant 0.14514142 -0.3791319 -0.09572028 0.013248328 -0.40774697 -0.13329116 0.12970234 -0.41059288 -0.23061678 0.037753623 0.39795673 -0.063558795 -0.62172896 -0.14904113 -0.22110875 0.96932757 -0.3461284 0.33402067 -0.112750515 0.2693051 0.15117025 0.3545638 0.31137955 -0.37021363 -0.30256584 -0.019088497 0.052384857 -0.32458872 0.6726507 -0.14225918 -0.07165843 -0.34201214 -0.28014234 0.3320129 -0.6131674 -0.14093909 0.43474585 -0.33962786 0.24732259 0.31059068 -0.29581168 -0.16948113 0.7556246 -0.009641522 0.26266527 0.22348595 -0.14103486 -0.26850668 0.13603877 0.36245415 0.23142381 0.5122589 0.23410578 0.4288299 -0.069529235 0.2762071 -0.06563114 0.17378148 0.09617329 0.48151904 -0.038386013 0.04675142 -0.11781283 0.32937855
Varamyr -0.2725963 -0.102430455 -0.100636505 -0.37640396 0.3643702 -0.08601844 -0.0034650778 -0.70799744 -0.9101159 -0.45549598 0.45955673 -0.12949626 -0.48049653 -0.06612018 -0.21958639 -0.1146973 -0.7319896 -0.23918772 -0.42950702 -0.3129747 0.19053625 -0.023702582 -0.37960073 -0.1879911 0.33189765 -0.21394877 -0.2848697 0.8282865 0.09379676 -0.14229985 0.36925247 0.21779428 0.429931 0.41531107 0.20627809 -0.44139388 0.9469069 0.45589954 0.26211458 0.10789025 0.7604145 -0.15092573 0.35711738 0.42185932 -0.3246717 0.28073776 0.4420807 0.09399616 -0.08477376 -0.25625965 -0.011211153 0.4412653 -0.2725355 0.21943153 -0.2441702 -0.18808046 -0.21613595 -0.09544385 -0.30794206 0.90616477 -0.52664006 -0.3052902 0.42464238 0.37865633
Ysilla 0.18283258 -0.2631019 -0.053408436 -0.12188005 0.14136954 0.057069108 -0.34661195 -0.104516 -0.2933415 -0.459377 0.22005674 -0.57892656 -0.22381689 0.09620815 -0.39082414 0.33394238 -0.018503807 -0.5196928 -0.11394707 0.5033341 0.37650353 0.18373333 0.1833833 0.083801776 0.008714803 0.1424151 -0.13479984 -0.0059435577 0.6149631 0.010365998 -0.0715039 -0.05486244 -0.17157441 -0.07601216 -0.09631116 0.08181755 0.27993566 -0.8809732 0.07271344 0.61663836 -0.22085111 -0.37629664 0.27731204 0.27045402 0.058057062 -0.10983869 0.2108577 0.052316606 -0.21474546 0.07584541 0.16535585 -0.249844 -0.055747263 0.2804668 0.023951802 -0.14684922 -0.13101187 -0.53129405 -0.5950219 0.122131884 -0.14477068 -0.2886386 -0.17928405 -0.3007707
Meris -0.50451714 -0.64368814 -0.29827377 -0.026755307 -0.11882967 -0.059922267 0.056566495 -0.16953912 -0.23130807 -0.41397366 0.33204505 -0.2754236 -0.47800812 0.41260427 -0.87362325 0.25572744 -0.17410801 0.1652411 0.13490753 0.13877748 -0.10564638 0.25844342 0.2021069 0.21967477 0.25364083 0.20401907 -0.19525024 -0.5282598 0.10782698 0.1753654 0.314545 -0.020388536 0.118180856 0.5747841 -0.52716297 0.6106423 0.08711045 -0.13486247 0.30944005 0.6498254 -0.040886596 -0.038911767 0.6769034 0.29344591 -0.19830447 -0.34650028 0.3864827 0.07173457 0.06479583 -0.6811463 0.3588565 -0.27609205 0.21393265 0.31522396 -0.37337843 -0.38257992 -0.35259965 -0.55649626 -0.05470713 -0.06782578 0.616328 0.0570814 0.25895387 0.1563374
Spotted-Cat -0.4240316 -0.7812888 -0.70508546 -0.48879743 0.032859225 0.11987295 0.16514744 -0.5012564 -0.2065183 -0.22928175 -0.023614721 -0.19925869 0.34298903 0.09811213 -0.32288083 0.7041094 0.47712582 0.22554752 -0.23610656 0.22584423 0.24512365 0.01844455 0.41829243 0.54226536 0.19683374 0.39894095 -0.4663136 -0.26615486 0.44170842 0.1213921 -0.07715701 0.0926693 -0.10446605 0.56299603 -0.31664392 0.15562668 -0.029293854 -0.22260979 0.12474987 0.19836912 0.016757963 0.13959669 0.71154106 0.47037056 -0.049368862 -0.2949291 0.42031676 -0.2058913 0.25826758 -0.16710936 0.8542865 -0.44020844 0.13897355 -0.042622533 -0.41941357 -0.40036088 -0.38709283 -0.75378853 0.25042567 0.48631173 0.29208302 0.14420924 -0.10032282 -0.13799147
Rakharo -0.06733383 -0.39272535 -0.36243707 -0.2427964 0.46729553 0.07765026 0.045132518 -0.19946276 -0.49659505 -0.1460259 0.14052957 -0.17261341 -0.07128247 -0.13193455 -0.496898 0.22613117 0.12756155 -0.13318679 -0.47953787 0.32737997 0.11265114 0.37485513 0.5600287 0.22210775 0.22813213 0.4417034 0.10795616 -0.20691016 0.22998187 -0.026602015 -0.023714168 -0.015714595 0.18445025 0.21478045 -0.27552715 0.3812656 0.003682847 -0.42759004 0.29483163 0.9831984 0.22414057 -0.16731368 0.39782056 0.53186136 -0.35187683 -0.60604674 0.25492027 0.025366478 0.04585673 0.051418517 0.8459815 -0.024413247 0.040398885 0.24405517 -0.67488813 -0.07027652 -0.30288458 -0.37548056 0.3221601 -0.061938398 0.40608326 0.23576389 -0.01695672 0.08700984
Justin-Massey -0.2720118 -0.22800332 -0.034511376 -0.03960644 -0.06909608 0.03485221 -0.3205208 -0.6424701 -0.6307888 -0.0030622387 -0.38128963 0.24967839 -0.0015850248 0.36668918 0.039102215 0.19309716 -0.6192638 0.06396802 0.011329557 0.048879348 -0.013814452 0.39208516 0.31486037 -0.096637934 0.5051086 0.07315785 -0.3268246 0.10989373 0.074875854 0.29135692 0.36097717 -0.34693277 0.11957906 -0.3029801 -0.028910266 -0.40965888 0.24098198 0.030095499 -0.0038181583 -0.1257853 -0.19023982 0.19805098 -0.1755702 0.39606532 0.09954749 0.0720084 -0.23230372 0.07252969 0.2518496 0.21887569 -0.02270554 0.43506822 -0.4337682 0.35729602 -0.050416 0.09659813 -0.28086048 -0.48186898 -0.3669994 -0.12138204 -0.27921143 -0.014841237 -0.2384428 0.30943084
Groleo 0.10867202 -0.58474904 -0.06314502 -0.30650502 0.2058414 0.11431339 -0.09598576 -0.25799882 -0.64012516 -0.054189518 0.23998769 0.29085094 -0.089379646 0.019684983 -0.42332146 0.16994031 0.2798773 0.1974398 -0.52523005 0.5628691 0.22517064 0.29393902 0.4676138 0.264379 0.3047379 0.18238053 0.024458019 -0.07800916 0.124231674 0.071415335 -0.213166 0.21383852 -0.2359286 0.48224065 -0.42703745 0.04857066 0.15477961 -0.3073911 0.41626644 0.82429993 0.0014738893 -0.040851526 0.534779 0.5138055 -0.049939748 -0.78676355 0.2514409 -0.05440063 0.18657625 -0.4708503 0.5031435 -0.121445164 0.06502825 0.21707904 -0.64054257 0.051287394 -0.14658445 -0.53780156 0.2222866 -0.16062635 0.37932777 0.022737406 -0.1954803 0.020528499
Aggo -0.03816754 -0.5507428 -0.39129534 -0.12232305 0.27203187 0.14063767 0.05364099 -0.17300798 -0.47811103 -0.16457525 0.26029524 -0.143623 -0.2513714 -0.22655924 -0.34445116 0.02088188 0.115458965 -0.047712453 -0.47948295 0.37532482 0.16243276 0.38085702 0.5438038 0.1889775 0.2956234 0.41068766 -0.3806348 -0.20182401 0.17754468 0.14411561 -0.2826744 -0.2811821 0.18181972 0.28812593 -0.3252075 0.2422321 0.11334976 -0.47756135 0.34072873 0.7237883 0.046001554 -0.06776217 0.59821457 0.54582417 -0.29174945 -0.9196545 0.27606955 -0.03873339 0.110818006 -0.48366478 0.51382 0.2628754 0.10768918 -0.086718164 -0.5845282 -0.12791868 -0.118047245 -0.4585014 0.30720696 -0.085651405 0.10992823 0.06853956 -0.012904016 -0.034746464
Skinner -0.43879867 0.20812371 -0.009396319 0.2372261 0.42457137 0.123281136 -0.2691691 -0.16560055 -0.5573776 -0.22367294 -0.4126922 -0.41331023 0.100554876 0.11363195 -0.27463806 0.48910546 -0.5456255 0.07634487 0.460894 0.11730239 -0.32291898 0.15074088 -0.18347666 0.6416062 -0.036980156 -0.01661589 -0.70503825 -0.0378553 -0.04609533 -0.31598574 0.21179219 0.36011904 0.17870641 -0.29072145 -0.18712032 -0.54424727 0.85528076 0.7848335 0.1446567 0.5105841 0.122322455 0.037653703 0.3128193 0.114159554 0.06412379 0.33243185 0.19818524 0.17296615 0.053324662 -0.098438375 -0.287783 0.5757675 0.030122733 0.056761187 -0.23402461 0.050586052 0.029607583 -0.6274325 0.060855076 0.55350494 -0.21008094 -0.39083257 -0.06691809 0.176812
Damon-Dance-for-Me -0.27688438 0.2976645 -0.19148551 0.20742789 0.43060222 0.09194052 -0.3291974 -0.19706365 -0.5267039 -0.30493352 -0.192988 -0.23409092 -0.096022524 0.36907685 -0.3538378 0.5579822 -0.6845877 -0.19807376 0.51889056 -0.026676962 -0.0058002765 -0.050009374 -0.28669462 0.5275128 0.002875594 0.06500376 -0.5628478 -0.118599266 -0.11253931 -0.40638894 0.1629916 0.19343114 0.28485382 -0.42886496 -0.07500565 -0.57522315 0.67990744 0.65592337 0.029946325 0.40011126 0.050181802 -0.03198427 0.22440805 0.17894013 0.08268592 0.5224227 0.16358458 0.10094814 0.026001416 -0.047727782 -0.31224516 0.6284978 0.1737917 0.10604155 -0.33527213 0.16487639 -0.046392083 -0.7092794 0.07859787 0.6688291 0.11314178 -0.3729702 -0.05263708 0.2734657
Emmett 0.10566178 -0.20922665 -0.73470885 -0.21588163 0.20555373 -0.46727923 0.07456172 -0.5570105 -0.23064812 0.022477318 0.1694975 0.13358986 -0.38604158 0.43694872 0.38613352 0.53866583 -0.6090841 0.088492855 -0.05734082 0.15873572 -0.24918486 0.53068995 -0.14882565 0.531464 1.0137628 -0.79307693 -0.28183475 0.5376046 -0.17274646 0.06303642 0.24515101 0.044124875 0.11564476 0.17565016 -0.16468874 -0.19521354 0.65052414 0.10492101 0.42327082 0.16896689 0.266345 0.20366783 0.15464126 0.18720062 0.18531214 -0.1282026 -0.35096437 0.39707693 0.16058587 0.17306666 -0.18453644 -0.15356182 0.13452445 -0.28429556 -0.48882133 -0.40960482 0.6044216 0.16689256 0.016928868 0.46082243 -0.30603886 -0.16072653 -0.19941778 0.11055321
Galazza-Galare -0.20823447 -0.49212337 -0.21828994 -0.22185443 0.07214659 0.24907973 -0.0847695 -0.52272403 -0.28902024 -0.2258202 0.5955235 0.36774805 -0.03630922 -0.23689014 -0.7620534 0.15622441 0.37448913 0.0023495657 -0.23079608 0.16732004 0.11544367 0.60355467 0.48362154 0.08883889 0.23748238 -0.12506661 -0.42542654 -0.36626506 0.26378322 -0.060127165 -0.012574722 0.22704251 -0.11165368 0.37385097 -0.1794048 0.02440644 0.12519166 -0.5630924 0.21762373 0.7633849 -0.19215089 0.08105281 0.40174708 0.49184233 -0.17761831 -0.46957183 -0.07715142 -0.31068483 0.034744702 -0.5723666 0.5865498 -0.22150552 -0.082598366 -0.078715794 -0.17371239 -0.1485262 -0.18043597 -0.6518414 0.36504406 0.29583868 0.3743326 -0.01583887 -0.006855603 0.038709592
Mully -0.08912944 0.16172099 -0.2944052 -0.6649307 0.49252707 0.091799244 0.049629323 -0.5731646 -0.1671001 0.105737716 -0.03198589 0.5157317 -0.28396398 0.38594535 0.26340103 0.44242758 -0.82845503 0.21073847 0.32094994 0.5298832 -0.12120681 0.016731037 -0.37626132 0.20814574 0.7998538 -0.3120698 -0.16334711 0.40050915 0.042770233 0.05680348 0.318486 0.3503803 0.24685866 0.07429854 -0.20810807 -0.17001297 0.32874608 -0.124884315 0.43588915 0.59338546 0.13457394 -0.032252636 -0.024404949 -0.2413744 -0.10038557 0.20485997 -0.049433917 0.3018291 0.40674028 0.4561094 0.0156007735 -0.19237499 -0.21344577 -0.33700842 -0.25404975 -0.26769772 0.38021427 -0.17967534 -0.014394401 0.661168 -0.6428009 0.054946642 -0.17167684 0.3936523
Moqorro 0.025130156 -0.8320782 -0.10900214 -0.0627622 0.27396527 -0.41690627 -0.09253003 0.061034672 -0.6107465 -0.22464693 0.11220754 -0.28749985 -0.33829 -0.0023798665 -0.27666584 0.18662357 0.12721339 -0.2091085 0.073837295 0.36329633 0.52188617 0.3077911 -0.2960029 0.35861707 0.077422425 0.04493023 -0.19647916 -0.55719316 -0.11390014 -0.08631088 0.09482945 0.1238611 -0.16007651 0.025376284 -0.33795896 0.22996801 0.40962768 -0.7903021 -0.107072145 0.005701307 -0.45129484 -0.32234076 0.21329291 0.68527675 -0.02785468 -0.2552846 0.35293743 -0.09540873 0.18613401 0.14653786 0.010493091 0.017626395 -0.15747546 -0.046927046 -0.22442572 0.031248324 -0.22247085 -0.7071446 0.02060972 0.21031234 0.4830647 0.28301483 -0.08825562 0.021949334
Clydas 0.39693597 -0.010933149 -0.053106252 -0.6190779 0.3465769 0.36605287 0.29771844 -0.37644705 -0.3454144 0.020567784 -0.19383973 0.3636498 -0.34131655 0.5819439 0.059453767 0.49822235 -0.45092353 0.0513019 0.28740802 0.2700002 -0.21909247 -0.058611594 0.039179467 -0.1605117 0.44014496 -0.56166744 -0.21969736 0.3789815 -0.1308499 -0.017405394 0.33988643 -0.0060009356 0.22039944 -0.20620319 0.033415407 -0.27159998 0.16683157 -0.05398389 0.56041425 0.3388832 0.09221359 -0.13869588 0.14249973 0.13047874 0.3349815 0.09730363 -0.11051933 0.14185348 0.005517985 0.13654464 -0.10605014 -0.12691616 -0.04738852 -0.29360276 -0.19379866 0.090952985 0.40562165 -0.28157896 -0.28251135 0.41989756 -0.41629955 0.050060414 -0.19238988 0.54850954
Hobb 9.686031e-05 0.10025645 -0.32217294 -0.49202427 0.246579 -0.02130389 0.12506537 -0.58958125 -0.007504867 -0.028841954 0.24234234 0.21202005 -0.218397 0.36184525 0.43978357 0.37226444 -0.8317655 0.0060679684 0.22986247 0.121261954 -0.2212749 0.34931865 -0.2062297 0.11133222 0.53683317 -0.3047247 -0.3700731 0.364406 -0.27786896 -0.0006945523 0.50209576 0.36748463 0.5087973 0.007289732 0.12457616 -0.110558 0.43694958 -0.37980774 0.3475121 0.69258446 0.18384874 0.19564173 -0.1533425 -0.17186356 -0.09191097 0.17101015 -0.15391974 0.3286192 0.19150887 0.6246924 -0.06548073 -0.12047646 -0.17383166 -0.040125694 -0.62709385 -0.3179995 0.26417476 -0.096082345 -0.29687357 0.6359825 -0.16428204 0.03159904 -0.012643573 0.6949187
Obara-Sand -0.15913358 -0.7332807 -0.11317418 0.030676084 -0.301612 0.39147624 -0.16083544 -0.35915565 -0.04600683 0.042870738 0.6085265 -0.6480697 -0.9839006 0.121027365 -0.28689003 0.3987712 -0.121192805 0.38632283 0.27725226 -0.050654832 0.024531571 0.0255216 -0.033948652 0.057632692 0.14387603 0.12055148 -0.3357335 -0.70964617 0.37460935 0.09369175 0.5644429 -0.17660354 -0.018040894 0.40619367 -0.098917216 -0.116797194 0.17492932 -0.021778965 0.06285179 0.5072143 0.018882252 -0.40511036 0.5056251 0.43084705 0.6131253 -0.6322278 -0.5213242 -0.27737853 0.07390276 0.2838157 0.6166611 -0.07804165 0.108356856 0.029051386 -0.46544293 0.5718571 -0.2373224 0.03854098 -0.10624257 0.28200468 -0.17879403 0.0617823 -0.20638646 -0.35999238
Aemon-Targaryen-(Maester-Aemon) -0.04986294 -0.026444275 0.04202752 -0.6132865 0.35356972 -0.094653025 -0.09656055 0.035248842 -0.27657104 -0.0782017 0.028644087 0.27639073 -0.30247006 0.23135132 0.36317104 0.4942716 -0.6936613 0.13072033 0.27531862 -0.06589881 -0.23861006 0.24283291 0.17035416 0.11656021 0.47032025 -0.24188726 0.050234582 0.10078061 -0.010178292 0.14918157 0.5651182 -0.1807535 0.42594132 -0.20536207 -0.069457784 -0.15928677 0.03383715 0.13005891 0.073966466 0.2500158 0.16980791 -0.4087841 0.23373765 0.2658571 0.13167103 0.19821037 0.10659275 0.24152716 -0.06454867 0.18802358 0.036779933 -0.1704638 0.18190363 -0.113910794 -0.31066838 -0.019420786 0.32191342 -0.23106512 -0.07435547 0.2718944 -0.82484543 0.06684442 0.044502318 0.53449446
Lorren -0.06604186 -0.12789257 -0.42768538 0.034127735 0.43553433 -0.49889994 -0.4668873 -0.85927576 -0.78087723 0.07310888 -0.22228143 -0.18326409 0.07057292 0.30085617 -0.5111973 -0.02281115 -1.0355148 0.19764258 0.14314139 0.12598923 0.13689895 -0.062899314 0.29347312 0.2210419 0.6170936 0.23607786 -0.4101632 -0.24951144 0.17877118 0.23705497 0.4172103 -0.2626651 0.4642016 -0.21703869 0.18761308 -0.089392506 -0.21926604 -0.32302973 0.20733432 0.06321113 -0.3362988 0.16662274 0.4757978 0.22142926 0.4591083 0.16726604 -0.4608139 0.34084672 0.13088195 0.22480711 -0.066869564 0.67011184 -0.9768805 -0.05607923 -0.4674712 -0.12537685 -1.0489379 -0.32468054 0.39134732 0.60291636 -0.18408388 -0.3016169 -0.55868286 0.18602495
Rowan -0.20259751 0.0076367343 -0.074395634 -0.32591382 0.16763003 -0.033266496 0.36458945 -0.24475259 -0.4853078 -0.20923504 0.08091039 -0.39036372 -0.43526873 0.2328222 0.037225883 0.028839601 -0.61380804 -0.049410872 -0.018495843 -0.22851074 0.31508386 0.10653061 -0.033194307 0.7028799 -0.13382697 0.2440603 -0.53895736 0.47788456 -1.965632e-05 0.17310002 0.22565174 0.24087317 0.4497251 -0.3476034 -0.04818276 -0.45819858 0.77517354 0.4818043 0.056492824 0.23995842 0.20056053 -0.14883447 0.2973155 0.040117107 -0.23926178 0.37193906 -0.11400713 0.24307252 0.12775598 -0.0018522819 -0.25752515 0.6293301 0.032270454 0.08439627 -0.17495579 -0.31308782 -0.12787403 -0.38702133 0.24886456 0.5902231 -0.28989235 -0.12017079 -0.29103473 0.63423693
Axell-Florent -0.18998222 0.19782077 -0.18061787 -0.23381326 -0.1521583 -0.07253235 0.036998104 -0.1302732 -0.17882028 -0.1870117 0.19059347 0.07099039 -0.3128043 0.08563668 0.0469791 0.56270105 -0.53371745 -0.21153586 0.004638706 0.22005995 -0.23510529 0.3729276 -0.1945653 0.054745555 0.40255585 -0.22023134 -0.36981884 0.40912062 -0.32605562 0.11186903 0.18513663 0.10327516 0.3314213 0.021358242 -0.12795508 -0.076108925 -0.13932124 0.10244149 0.142469 0.26012355 0.17822596 0.20057465 0.0026949965 0.35448167 0.37374067 0.016304223 -0.09661116 0.31060097 0.480148 0.4319148 -0.15589099 0.09926414 -0.2578979 0.37888113 -0.053690095 -0.026737269 0.22771738 -0.25569943 -0.25703683 0.48679453 -0.3444098 -0.26817423 0.1066667 0.14475583
Leathers 0.23188676 -0.24859191 -0.48749208 -0.40631115 0.3699445 0.037834216 -0.35881886 -0.6002099 -0.48431352 0.026854405 0.38191244 0.041560106 -0.29808274 0.21954966 0.28494337 0.16116008 -0.07636166 -0.27479467 0.23910862 -0.36206454 -0.31536502 0.6193159 -0.3641617 0.039378837 0.45489827 -0.35451314 -0.11012542 0.63535464 -0.0539242 0.15998401 0.10008291 0.19114223 0.14417553 0.09045753 -0.38538888 -0.18405253 0.3311569 0.38841924 0.35537848 0.31870538 0.3089511 0.025222067 0.45883915 0.2903027 0.1887604 0.354488 -0.60017395 0.83412683 0.44105837 0.5101282 0.0009485262 0.11270743 -0.0718804 -0.33246967 -0.38716292 -0.42965072 0.2806182 -0.24603629 -0.28857967 0.51252973 -0.3724601 0.053459793 -0.12597519 0.09178116
Rafford 0.15286876 -0.4526149 -0.03878259 0.049415722 -0.2063754 0.09235048 0.044834267 -0.5105259 -0.35198545 0.0270693 0.7351344 -0.12299795 -0.53638405 -0.13843945 -0.04430854 1.0211842 -0.37512264 0.45423296 -0.21976621 0.23230784 -0.17451525 0.3396999 0.29989868 -0.26356024 -0.2568524 -0.021990992 0.15477419 -0.35996068 0.6121021 -0.20142843 0.06344876 -0.15730721 -0.2362442 0.4167426 -0.60556734 -0.16597979 0.4016771 -0.4388642 0.23560515 0.1849318 -0.12269018 -0.18849273 0.66731113 -0.031912368 -0.0072389552 0.06289562 -0.25985202 -0.20593426 0.025744397 0.23747426 0.16542765 0.3872295 0.3578618 0.39709347 0.09785432 0.345216 -0.2010678 -0.025055267 -0.03378378 0.36787745 -0.11434674 0.12849921 -0.115480594 0.38594717
Ilyn-Payne 0.19018786 -0.57106364 -0.2875711 0.009409274 -0.2676001 0.116303585 0.056180876 -0.54803616 -0.27558795 0.039196204 0.61404973 -0.3098856 -0.477898 -0.3417462 -0.1927757 0.9457913 -0.32515445 0.48250902 -0.07081205 0.16732977 0.09315988 0.35219562 0.32465592 -0.25753015 -0.20799188 -0.041690867 0.110364035 -0.39716858 0.52773154 -0.021295939 -0.14696336 -0.20256487 -0.21514072 0.45437244 -0.6249401 -0.22658394 0.2939905 -0.42033952 0.18442537 0.16209365 -0.06533778 -0.19844526 0.80433625 -0.084840894 0.08003316 0.02969176 -0.19573101 -0.07874043 0.048681453 0.30183974 0.0491956 0.34969518 0.31097415 0.42098138 0.06536356 0.21026145 -0.013978437 0.055179592 -0.009159134 0.32921502 -0.23602532 0.24242558 -0.12022251 0.43006745
Dalla -0.48014283 0.24046035 0.04905486 -0.31130022 -0.054962374 -0.293689 0.07899929 -0.12199166 -0.45295057 -0.22551084 0.21128388 -0.10517168 -0.27114093 0.08586849 0.30332088 0.10511293 -0.44981125 -0.11207515 0.00011294598 -0.042674303 0.04697331 0.4218569 -0.009128027 -0.075241 0.53133035 -0.28082582 -0.08444353 0.17011169 0.16682935 0.04079299 0.28802237 -0.01305267 0.427819 -0.17760514 0.03605729 -0.11995452 -0.02899699 0.20177096 0.2382296 0.27205166 0.43872884 0.12852551 -0.07175085 0.40041193 0.0725783 0.26903903 -0.11827071 0.12063109 0.03955066 0.1521562 0.19986291 0.37518758 0.06408303 0.053120796 -0.25764248 -0.07691054 0.16247419 -0.17324033 -0.28013828 0.5172474 -0.53892446 -0.2541956 -0.04120879 0.5372748
Dunsen 0.18853053 -0.33234236 -0.17278148 -0.00031582508 -0.3074343 0.18520036 0.034821384 -0.4584196 -0.38868135 0.13692003 0.60767275 -0.24605735 -0.49083096 -0.29127562 -0.15133123 0.9369277 -0.32103682 0.46845764 -0.008430508 0.40802288 0.05259313 0.41900423 0.34846556 -0.34260175 -0.33355615 0.013639985 0.01669472 -0.50186026 0.57135427 -0.16780324 -0.11520759 -0.22671926 -0.17926924 0.44604656 -0.5688712 -0.24168561 0.32093337 -0.35116515 0.2673099 0.21895656 -0.027725467 -0.1122206 0.65855205 -0.021239625 0.21611507 0.10183941 -0.18437172 -0.22202943 -0.053423736 0.28971344 0.20649952 0.50319016 0.24930958 0.31437722 0.019170439 0.3049479 -0.03521061 -0.095036834 -0.13674986 0.46395954 0.040311374 0.30807248 -0.24413753 0.36164448
Yezzan-zo-Qaggaz 0.01611799 -0.59328866 -0.20515443 0.18554655 -0.10626322 -0.10033285 0.11172122 -0.30968377 -0.55435115 -0.18648982 0.26810458 -0.12330711 -0.6606056 -0.07327909 -0.45835188 0.48941702 0.17832519 -0.63238186 -0.00045859415 0.49326515 0.35945502 0.317305 0.28356788 -0.01027847 0.4736323 0.536919 0.10931823 -0.0014474597 0.15602756 -0.08172061 0.13369834 0.39230523 0.05550373 -0.032960787 -0.027134527 0.44236743 0.4209354 -0.40920115 0.17541032 0.15228999 -0.029875867 -0.44657746 0.3500789 0.7585858 0.22989017 0.25426787 0.19789985 -0.018778037 -0.13633662 -0.091393925 0.4830363 -0.38940367 0.25808173 -0.06705102 0.2983717 0.18836617 0.6113943 -0.5480095 -0.039203998 -0.08551482 0.2538782 -0.33302116 -0.14115375 -0.1732366
Grimtongue 0.02651973 -0.13123451 -0.48343456 -0.03761884 0.49854997 -0.37550893 -0.3148452 -0.89678246 -0.8510253 -0.0592146 -0.43604922 -0.22605972 -0.00022326478 -0.032377265 -0.4865964 0.02395705 -0.97426385 0.002034915 -0.12325083 -0.022733802 0.13791478 -0.1657726 0.38570598 0.121186644 0.5626829 -0.20110895 -0.4118019 -0.13971955 0.0005089304 0.102676995 0.33241174 -0.10375116 0.46278194 -0.32806417 0.14416929 -0.3419462 -0.1849367 -0.11285627 0.22447814 0.1091028 -0.4711382 -0.0038596229 0.43407097 0.06503346 0.2643643 0.060277782 -0.46185318 0.3455031 0.36784762 0.1424178 0.05577713 0.577883 -0.73555523 0.004532401 -0.449707 0.03818292 -0.8616847 -0.2596274 0.17122167 0.33082038 -0.021744192 -0.119029224 -0.40678605 0.18331467
Viserys-Targaryen -0.047853924 -0.049833804 -0.003889391 -0.047558304 -0.12892519 0.22353859 -0.13707688 0.047835242 -0.44729456 -0.20914559 0.1834158 -0.36165395 -0.37777165 0.374539 -0.22557503 -0.22015305 -0.12491208 0.053681586 -0.18995143 0.29675275 0.113931574 0.58445174 0.46060127 -0.048685886 0.05319937 0.020192234 -0.10800714 -0.41207218 0.24095067 -0.014807461 0.09372376 -0.08846732 -0.3716446 0.34323314 0.06923453 -0.06507596 -0.23057236 -0.09188011 0.15879564 0.54325724 -0.36919594 -0.44179085 0.314258 0.020658147 0.17906174 -0.19026439 -0.20100355 -0.32143807 -0.0063378434 0.39886975 0.3811488 -0.043539964 0.38575715 -0.23189697 -0.24608089 -0.18581657 -0.32685867 -0.37087417 -0.12779136 0.2857618 -0.005829999 -0.023901703 -0.010833119 -0.20789318
Caggo -0.3690892 -0.7765604 -0.30419585 -0.3710878 0.11665607 -0.07102405 0.028959142 -0.09146587 -0.16587283 -0.3873563 0.30521908 -0.13459878 -0.43247113 0.55837476 -0.9079574 0.4179802 -0.23376976 0.13058217 0.20296776 0.117871225 -0.15831572 0.029315 0.13725944 0.026475653 0.3401423 0.15463325 -0.20826972 -0.56564397 0.16940646 -0.12625787 0.25971842 -0.032701924 -0.013694332 0.7866213 -0.48409393 0.58631945 0.2659167 -0.1490452 0.59021956 0.64053005 -0.046296228 -0.20728348 0.5392803 0.24462631 -0.041490924 -0.3523955 0.0039103143 0.19587928 0.17264289 -0.87249714 0.52223945 -0.15329179 0.363585 0.1726297 -0.29758394 -0.43907574 -0.42501462 -0.6230555 -0.11509816 -0.11828754 0.6278587 0.12700108 0.2139046 0.2778892
Illyrio-Mopatis 0.10527688 -0.3830593 -0.112716034 -0.2169671 0.05378919 0.0042819716 -0.16165622 -0.1162728 -0.53075963 -0.4492344 0.24220023 -0.18626404 -0.04974965 0.19838074 -0.30504987 0.24498151 0.17056681 -0.15077306 0.056328684 0.48725465 0.47189054 -0.055701368 0.11245255 0.07530798 -0.044290006 0.13714841 -0.1428437 -0.10163449 0.56068665 0.040847804 0.118000485 -0.12588808 -0.18196261 -0.26415655 -0.353724 0.36320448 0.3045399 -0.64142495 0.16854432 0.67363083 -0.1415308 -0.29345357 0.33505076 0.2568152 0.10286919 -0.18230118 0.25039572 -0.037185233 -0.21673547 0.026679406 0.19938384 -0.33625177 -0.031850036 0.06743435 -0.029836927 -0.11039478 -0.18979152 -0.5008803 -0.2599372 0.093997344 -0.052147344 -0.3525327 -0.118793935 -0.17045522
Euron-Greyjoy -0.16863365 -0.54052824 -0.13700138 -0.12021657 0.46556774 -0.4693216 0.09984876 -0.08936447 -0.9979805 -0.08707786 -0.4125333 -0.04171548 0.07627006 0.1589513 -0.44324526 -0.017222099 -0.41626772 -0.02536446 0.19101354 -0.17310376 0.41927922 0.5331962 -0.122140214 0.3576783 0.022142196 -0.116742596 -0.4099447 -0.12792234 -0.46858445 -0.008153837 -0.10044094 0.1497767 0.32253334 -0.044012193 0.12288056 -0.06356945 0.30832067 -0.09543695 -0.11840467 0.1941737 -0.32009715 -0.39044374 0.033246096 0.2823943 -0.009385298 -0.10297788 0.25484833 -0.16109031 0.1892328 -0.018968502 -0.16785909 0.3224859 -0.71650034 0.025183002 -0.26696193 0.2710235 -0.3162362 -0.8107998 0.26639825 0.11797365 0.38152453 0.34366408 -0.3161001 0.15606989
Cletus-Yronwood -0.40438348 -0.6126123 -0.33968464 0.07858024 -0.035203207 -0.1437839 -0.029935481 -0.102897845 -0.21921293 -0.21419086 0.058101628 -0.13322856 -0.70106333 0.21320158 -0.6445686 0.1482192 -0.12694871 -0.05410946 0.11850155 -0.22353514 0.22557499 0.24521214 -0.08412082 0.07207602 0.2829279 -0.04136645 -0.2292003 -0.4336871 0.49357104 -0.055802193 -0.22590356 0.0837869 0.106717184 0.4295399 -0.26582158 0.38477805 0.0018258537 -0.37275216 0.84438705 0.7446003 -0.0052383384 -0.12642199 0.684368 0.22859624 0.13977101 -0.48441628 0.4464441 -0.054007623 0.16211005 -0.63900876 0.68559104 -0.40503818 0.22374016 0.19103035 -0.3081893 -0.13872123 -0.5699461 -0.44438076 0.27695724 0.19273669 0.4124292 -0.019262657 0.13171883 0.350874
Qezza -0.38906744 -0.47158054 -0.50455576 -0.32921326 -0.065859 0.2839447 -0.21979089 -0.62181413 -0.35974717 -0.29380894 0.16608506 0.25264442 0.07998057 -0.18717022 -0.6509979 0.37447947 -0.18419077 -0.28259096 0.051797915 0.37358063 0.087761626 0.43570673 0.16991802 0.010349497 0.33280557 -0.014201894 -0.54475534 -0.6794316 0.24546239 0.035862487 -0.20512888 -0.013730286 -0.4778522 0.31240028 -0.16167 0.27444625 -0.080964126 -0.36562154 0.31755608 0.5438323 -0.060390852 0.020088488 0.49029326 0.6974886 -0.80795956 -0.4351993 0.32798037 -0.65924233 0.03054358 -0.01635936 0.3560274 -0.3179344 0.067834795 -0.34410205 -0.41775307 0.09695853 -0.14178678 -0.4746052 0.19973835 0.21352215 0.61052895 -0.08051439 -0.04068897 0.13093169
Belwas -0.16688855 -0.40790257 -0.14332198 -0.2231425 0.059498835 0.097889416 -0.030061673 -0.2801016 -0.03507082 0.0016045417 0.2551203 -0.0627905 -0.21382733 -0.11271746 -0.5437616 0.31045413 -0.07349605 -0.010351056 -0.2526446 0.25178114 0.08263585 0.27520895 0.28762212 0.18503422 0.23587196 0.20896456 -0.3156061 -0.2006493 0.29345763 -0.08637846 -0.07009356 0.2605728 -0.21702486 0.39592683 -0.29221284 0.2528366 0.22661154 -0.37883806 0.26712266 0.6698044 -0.1439146 -0.06418449 0.6506656 0.413494 0.07577568 -0.6366688 0.19365872 -0.27675185 0.14178917 -0.56580514 0.58637273 -0.352447 0.14745902 0.19981928 -0.26646653 -0.16802238 -0.43017355 -0.59645385 0.27213475 0.23106794 0.37135202 0.030474054 0.17576623 0.1430824
Khrazz -0.4792411 -0.6567055 -0.31085384 -0.22859444 0.19196567 0.2561822 0.18105042 -0.6781156 -0.04073934 -0.15758993 0.18095784 -0.06220988 0.33262688 -0.07532899 -0.30297044 0.52491933 0.41300297 0.12448288 -0.26564446 0.22536294 -0.04050555 0.039016396 0.3553196 0.4990318 0.43581012 0.3551118 -0.5370197 -0.51359487 0.29729977 -0.03114904 -0.10345222 0.21415874 -0.1055904 0.6472283 -0.2658889 0.4767725 0.2852658 -0.57269126 0.44143647 0.45961398 0.12874563 0.35735697 0.6067421 0.5040719 0.08015736 -0.3483431 0.6043545 -0.2442226 0.22174777 -0.23110695 0.8460335 -0.16684465 0.07452944 -0.043693762 -0.23457953 -0.28232417 -0.29575562 -0.8579924 0.18116938 0.53236663 0.021029525 0.17866011 0.034707204 0.004573716
Hother-Umber 0.101142004 -0.1268483 -0.17531115 -0.2502427 0.32975698 0.063834056 -0.20669825 -0.52653724 -0.20040175 0.06655448 -0.011986944 0.16779171 -0.14370252 -0.011668934 -0.10549828 0.10726961 -0.6610548 0.3378607 0.17526385 0.111656375 0.32639807 0.616025 0.4118283 0.3070043 -0.26890495 -0.28970703 -0.7456825 0.017069526 -0.19315042 -0.18275736 0.46132106 0.22794513 0.14423935 -0.4484095 -0.34098372 -0.40672725 0.21995261 0.6731357 0.15837918 0.5443956 0.2835378 0.28762272 0.11119838 0.22915073 0.08727845 0.7045109 0.062589824 0.030230246 -0.30571774 -0.10663132 -0.0656609 0.44074216 -0.07859956 -0.10441452 -0.29006448 0.602983 -0.09703219 -0.43138656 0.2351601 0.25700495 -0.3616277 -0.7014678 0.16896734 -0.22781567
Reznak-mo-Reznak -0.3141695 -0.47528172 -0.23542869 -0.2744648 0.10181347 0.1444206 -0.06886547 -0.46488112 -0.25061405 -0.14541502 0.37341273 0.26325756 -0.10795795 0.009986596 -0.52264047 0.14900132 0.40262336 -0.20133312 -0.40167233 0.33237356 0.24871895 0.51104105 0.24803099 0.10681798 0.13440889 0.46989828 -0.38474774 -0.3371862 0.17873617 0.046454087 -0.17832233 0.2804801 -0.22090685 0.39144337 -0.21721685 0.26149145 0.23202491 -0.4195284 0.2678005 0.5470074 -0.23074739 0.10807023 0.73932993 0.41405645 -0.03749719 -0.44439545 -0.046379313 -0.3352934 0.088098586 -0.3813556 0.4074676 -0.2635412 -0.14282149 0.14192447 -0.39599428 -0.10404461 -0.4426272 -0.5711284 0.4077661 0.3554827 0.3141379 -0.124264255 0.113974966 0.23742321
Unella 0.4214082 -0.7628251 0.09294128 0.3462064 -0.41733497 0.57304317 -0.11390583 -0.563214 -0.28692865 -0.47106358 0.10752128 -0.06920857 -0.4675502 -0.19764286 -0.37376228 1.0421274 -0.17180587 0.27253312 -0.25689623 -0.15420772 0.21643034 0.35998285 0.11913564 -0.44462177 -0.14866725 0.14158192 -0.05005454 -0.2958438 0.41578382 -0.0046322956 0.34576234 0.04182607 0.20981301 0.19407104 -0.35610563 -0.026090583 -0.2654673 -0.58677393 -0.15126047 0.36276644 -0.06751449 0.09434113 0.3703525 -0.19541422 -0.10887767 0.1890004 0.21259244 0.35604295 -0.2776311 0.12492814 -0.17126757 0.38034686 0.19329293 0.17689201 -0.5949334 0.102456085 -0.06394625 -0.22345191 0.040842902 0.60661554 0.055019096 0.21513364 -0.12108305 0.13284692
Cellador 0.19576305 -0.056464847 -0.006145394 -0.73073125 0.29770842 0.15140133 0.06025925 -0.36930603 -0.07306424 0.015837196 -0.10585677 0.52462554 -0.17931257 0.22803709 0.2472767 0.33004028 -0.47715482 -0.19442081 0.17068462 0.15658896 -0.15477945 -0.0041314755 -0.24337713 0.12000872 0.6493678 -0.48614472 0.07038185 0.8613838 0.01335036 -0.14596896 0.626579 0.34428346 0.04786811 0.1929821 -0.0758371 -0.11357601 0.36156476 0.029836537 0.3922326 0.29047626 -0.12203885 -0.2707998 0.49710637 0.33640742 0.21133813 0.4098467 -0.24993977 0.12943217 0.2642548 0.2716607 -0.17738281 0.09296805 0.08671383 0.010406021 -0.3317319 -0.034138616 0.27752942 -0.5115027 0.110344544 0.39079523 -0.62297773 -0.0859008 -0.39815646 0.5780675
Malegorn -0.06687046 0.44085386 -0.64104086 -0.68179154 0.109245874 0.07889115 0.053976946 -0.23185228 -0.47622684 -0.36986405 -0.043942943 -0.32876006 -0.24369085 0.07404347 -0.042203408 0.414009 -0.32585827 0.021761868 0.27429137 0.14688453 -0.27901018 0.28584385 -0.101443164 -0.07541512 0.5769358 -0.42447096 -0.5174725 0.9191306 -0.4189084 0.17652781 0.29656383 0.14426403 0.056327015 0.13044593 -0.223883 -0.020387167 0.20840761 0.088356405 -0.24151497 0.249652 0.110274866 0.21863681 0.22331716 -0.025798114 0.19029401 0.04672594 -0.39746028 0.26918256 0.60849977 0.65895694 0.41788888 -0.14208224 -0.07190996 0.25206518 -0.50777847 -0.25647268 0.24524933 -0.4457567 -0.01638093 0.45195672 -0.67611265 -0.20357268 0.22540523 0.16238584
Hodor -0.1163577 0.16855069 -0.6734066 -0.49194998 0.48862743 -0.052614927 0.20938542 -0.33487234 -0.09144384 -0.05766641 -0.17696096 0.071811534 -0.44458774 0.22299755 -0.13569444 0.091348864 -1.0598918 0.12088033 -0.0037602212 0.04618384 -0.44985166 0.6362625 -0.39785442 0.60869104 0.20307022 0.23388228 -0.55386746 0.4393923 0.019120503 -0.5900448 -0.23465551 0.8016247 0.4268686 -0.23126964 0.16415247 -0.26069456 0.42526537 0.56819564 0.22886214 0.0882214 -0.15295103 0.3199368 0.8405555 0.036999322 -0.06283462 0.048992354 0.04601047 0.4179669 -0.3886407 0.1424178 0.4342378 0.26246256 0.4887018 0.43493775 -0.50070417 0.16548136 -0.048493963 -0.33445978 -0.52763164 0.630831 -0.33859465 0.1056107 -0.70404434 -0.22705892
Othell-Yarwyck 0.24250981 -0.19232646 -0.38334176 -0.73277843 0.050581362 0.07346271 -0.021603636 -0.37979355 -0.3291054 0.12349476 -0.09606251 0.17130412 -0.35839486 0.14300694 0.22878858 0.2808151 -0.31299564 -0.20320313 0.20515396 0.19453456 -0.4129255 0.08976036 -0.2523416 -0.0060335454 0.5336945 -0.4580593 0.124422915 1.004474 0.01390729 0.13079609 0.77824044 0.41489616 0.07974183 -0.017705495 0.07659062 -0.39224133 0.2939247 0.44875523 0.59503514 0.30434534 -0.14240153 -0.07774238 0.27611616 0.36298156 0.032020174 0.09928947 -0.46038386 0.11322155 0.13696039 0.087496914 -0.24541776 -0.22630747 0.1082503 0.01518215 -0.3035979 -0.2542432 0.032696586 -0.63235736 -0.06440305 0.5530483 -0.47993222 -0.112813756 -0.2716474 0.5412694
Robert-Strong 0.44036743 -0.6755129 0.07919786 0.27072063 -0.038184136 0.01855873 -0.21156521 -0.29282597 -0.66961247 0.22160535 -0.007101942 -0.22573343 0.024890495 -0.045229472 -0.27995193 1.1205076 -0.0044206018 0.37794247 -0.15741347 0.36025453 0.25369504 0.45950624 -0.020324122 -0.32306036 -0.2162402 -0.041356016 -0.48107013 -0.45992985 0.5717731 0.34681135 0.24154751 0.39951313 -0.019421851 0.28744662 0.05945101 0.050723072 0.011022081 -0.31969813 0.42030218 0.21672048 0.26432598 0.060994845 0.67894596 0.031436123 -0.2519916 -0.22945811 -0.15856765 0.007560848 0.13625135 0.23210673 -0.11329597 0.24249853 0.49968487 0.46623763 -0.23165245 -0.07403531 0.23463455 0.04222164 0.012659594 0.15134695 0.08984835 -0.13039012 0.31582838 0.047346905
Sigorn -0.13094509 -0.16809994 -0.32954422 -0.21696918 -0.07347083 -0.11993851 -0.21162277 -0.5299199 0.0027191425 -0.39840558 0.04627943 0.16725224 -0.4896298 0.024747761 0.46219632 0.38829392 -0.30417186 0.14432512 0.017911928 -0.019405091 -0.20788728 0.26148912 -0.089762464 0.08985193 0.49685577 -0.22788851 -0.13792586 0.34030402 -0.1444649 0.103297524 0.08922883 0.078769065 0.19069552 -0.2278554 0.60427594 -0.08279762 -0.110813625 0.009396542 0.22260033 0.510024 0.23268217 -0.037029423 0.108649716 0.017722053 0.216328 0.069802985 -0.015933987 0.22557218 0.21878283 0.35779122 -0.1593158 0.34203202 -0.19889724 0.14550029 -0.29003268 0.035639375 0.26254553 -0.54198974 -0.28704786 0.3164901 -0.33058238 -0.36830932 0.06311045 0.30635452
Holly -0.16095902 0.05726954 -0.40965456 0.023230148 0.22036538 0.22071418 0.5363909 -0.21002997 -0.47429886 -0.1371666 0.059232067 -0.27617204 -0.47674367 0.3244982 -0.28284928 0.09099093 -0.5163811 0.061975382 0.011316183 -0.016855173 0.22340667 0.2581744 -0.059974127 0.790043 -0.12426266 0.15171118 -0.7394712 0.20062517 -0.30456477 0.024791343 0.35736364 0.30434155 0.31457022 -0.6092981 -0.1035803 -0.49287677 0.5537571 0.5504329 0.31548852 0.23100157 0.4167508 -0.37523198 0.08907856 -0.0054645305 -0.3454131 0.17664193 -0.17133175 0.18783842 0.15424342 -0.11373667 -0.28924587 0.71763724 0.011878424 0.0066669113 0.055329684 -0.24554792 -0.12394875 -0.61371785 0.066355 0.6540972 -0.14570232 -0.10461197 -0.5088583 0.50850606
Patrek-of-Kings-Mountain 0.15346625 0.16609678 -0.5732706 -0.66733885 0.25082144 0.0073504183 -0.107538216 -0.38313857 -0.47510886 -0.20514996 0.072643206 -0.053270306 -0.25095916 0.26623994 0.013710615 0.47494859 -0.23650923 -0.121964715 0.49487907 0.07089724 -0.22442774 0.52899814 -0.19971205 -0.06494497 0.32574996 -0.20541757 -0.297007 0.90425706 -0.3496593 0.04549986 0.2680293 0.278336 0.14231434 -0.124005586 -0.35103276 -0.037902962 -0.06373765 0.09124124 -0.28259176 0.17764802 0.38782728 0.3644655 0.3644201 0.0770823 0.3499511 -0.08106114 -0.4116049 0.29253128 0.56757325 0.5692597 0.35399413 0.31057352 -0.28202477 0.03244914 -0.44548792 -0.35801682 0.28561917 -0.22201107 -0.007967599 0.6560826 -0.57975906 -0.0709872 0.045341454 0.008856135
Samwell-Tarly -0.024484145 0.02413095 0.038595226 -0.50987446 0.29343352 -0.06927206 0.31773302 -0.26455665 -0.22706278 -0.077170216 0.1654723 0.123990156 -0.1418008 0.21123451 0.1772057 0.49790335 -0.4580529 0.0753114 0.44481802 -0.10469506 -0.16955477 0.23544641 0.22843188 0.041728653 0.63614255 -0.40568587 -0.24099515 0.03481393 -0.09950686 0.13291876 0.2195383 -0.08036924 0.36509812 -0.38000757 0.025903676 -0.21728645 0.003681561 0.1920625 0.13193412 0.07626269 0.16080412 -0.29547548 0.27610868 0.38283592 0.32417652 0.0020119948 0.033677004 0.22958814 0.018645138 0.06383279 0.061488748 0.08857218 -0.022240466 -0.20118083 -0.22150862 0.19716208 0.36711574 -0.21388558 -0.4026905 0.4369562 -0.7802235 0.019442167 0.07573484 0.43560386
Wun-Weg-Wun-Dar-Wun 0.31212428 0.08972742 -0.24710232 -0.27634612 0.26522306 0.18590176 0.025763838 -0.35553196 -0.6506694 -0.01877965 0.25449836 -0.18773188 -0.09527306 0.11476589 0.26057857 0.24601792 -0.43424293 -0.040152192 0.50355977 0.15364157 -0.11064141 0.555302 -0.26222605 0.17753562 0.38444027 -0.26660082 -0.09216629 0.9690538 -0.31391037 0.21962586 0.18077546 -0.021875717 0.34508932 0.014440913 -0.20691374 0.031493872 0.060581733 0.12164882 -0.1474602 0.4311201 0.5443606 0.19981521 0.29146102 0.14589334 0.16621192 -0.056607496 -0.55220705 0.6191675 0.6539477 0.41575116 0.063774824 -0.014042981 -0.059237942 0.17579639 -0.4649159 -0.1675187 0.22767414 -0.43308285 -0.1129736 0.6801978 -0.44918498 0.021087892 -0.1357197 -0.25598764
Squirrel -0.18505792 0.14309515 -0.19357786 -0.21497647 0.23208083 -0.012085672 0.32123905 -0.13357487 -0.5982797 -0.31345978 0.16804126 -0.3664154 -0.40731785 0.14189433 -0.008121824 0.061687894 -0.32390413 0.021191904 0.04793882 -0.16877867 0.44381738 0.22027603 -0.018151123 0.44462138 -0.014641075 0.007951932 -0.5386229 0.26655656 -0.030878637 0.10330466 0.31412438 0.21949619 0.5008363 -0.24160619 0.0017477284 -0.51443547 0.6164532 0.63220567 0.26827785 0.09560656 0.10871045 -0.16872121 0.1467325 -0.082193844 -0.3764122 0.31662986 -0.20962545 0.22655107 0.07177714 -0.06857025 -0.1718995 0.7116588 0.01077031 0.014401972 -0.19145279 -0.25081936 0.006481993 -0.46581835 -0.018058432 0.5789768 -0.27833018 -0.32603478 -0.40315378 0.5514916
Benerro 0.077898555 -0.66353726 -0.0072095036 -0.3089589 0.16986185 -0.07590638 -0.15479064 0.13432594 -0.72731954 -0.50661534 0.028986597 -0.35394713 -0.19807465 -0.146256 -0.13959467 0.38887298 0.070378445 -0.2409513 0.14277127 0.4051712 0.18787172 0.08240066 -0.12331 0.13489859 0.06571508 -0.1558221 -0.09118584 -0.19882233 0.32221782 -0.12600379 -0.03232076 0.028192887 -0.064151004 0.054119624 -0.08587735 0.26073483 0.3866076 -0.6744616 -0.2068494 0.31220838 -0.36390984 -0.19532543 0.28160605 0.3171198 0.1778923 -0.2900002 0.3416712 -0.4021975 -0.16084911 -0.009239508 0.07735642 -0.26737246 0.11785836 0.051812083 -0.17821048 0.10217913 -0.12541732 -0.80715024 -0.037910495 0.05015576 0.25143552 -0.05115233 -0.09880866 -0.10308052
Nurse -0.044162326 -0.5990945 -0.15249011 -0.06833075 0.060576454 -0.09526141 0.018096482 -0.30687243 -0.44086376 0.023200125 0.18388592 -0.11674728 -0.66726816 0.06276485 -0.31014997 0.36506903 0.019149872 -0.43927705 0.064516485 0.37145528 0.5355446 0.40640214 0.32430536 -0.19873542 0.57448024 0.5032944 0.108036496 -0.051429093 0.45172378 -0.19291343 -0.11105596 0.19870014 -0.1479563 0.041385997 0.038316287 0.2959182 0.16687198 -0.4070198 -0.29947588 0.29812214 0.04550032 -0.1861615 0.5262525 0.80363744 0.2512105 0.13075764 0.4548623 0.07085674 -0.046925757 -0.25025496 0.3016154 -0.2463358 0.18492106 -0.19342728 0.18807493 0.16215599 0.54099286 -0.4808442 -0.17444634 0.115524925 0.19090658 -0.25643298 0.059935912 -0.26891738
Archibald-Yronwood -0.48039773 -0.44268385 -0.33972842 -0.19097292 -0.051422402 -0.080012634 -0.347879 -0.23204005 -0.27927414 -0.16003574 0.4380241 -0.20669854 -0.58766484 0.3928579 -0.9666729 0.27420184 -0.07231187 0.1463474 0.22844581 -0.006150381 0.10388131 0.17443718 0.024898348 -0.10643355 0.17624801 0.07491293 -0.3819702 -0.52599674 0.1518145 -0.07887833 -0.0941225 -0.03062926 0.094943225 0.42751312 -0.45999792 0.56261986 -0.0950397 -0.20711376 0.7296842 0.5473644 0.14014055 -0.107653566 0.79016656 0.39389995 0.23696025 -0.5235226 0.38895956 0.10812252 0.076234885 -0.63493454 0.76279426 -0.33179533 0.2643174 0.41709733 -0.25760627 -0.22678357 -0.44825405 -0.5958179 0.24585764 -0.09052788 0.27716148 0.27600366 0.08258824 0.33611253
Jorah-Mormont -0.07523729 -0.80284023 -0.30555832 -0.26833522 -0.1699552 0.03690702 0.11318253 -0.13316746 -0.46032107 -0.056700155 0.16176867 -0.20533405 -0.46032304 0.049056455 -0.57212764 0.22072774 0.12943345 -0.27535975 -0.06959166 0.4301406 0.41097063 0.37071037 0.38478997 -0.2634984 0.3422116 0.43418062 0.16365169 -0.15139699 0.26853815 0.08277593 -0.1388272 0.08758791 -0.013133672 -0.014477965 0.1806712 0.2425852 0.2948649 -0.40208128 0.2481055 0.200863 -0.06760978 -0.23648772 0.5067063 0.6317054 0.07707229 -0.006081367 0.37037557 0.06280783 -0.17514 -0.17529182 0.284731 -0.565924 0.2012231 -0.046252083 0.0870922 0.19761318 0.4002204 -0.40729678 -0.032041486 0.124768935 0.09684935 -0.27832243 -0.16657135 -0.09216985
Hero -0.030177701 -0.65497553 -0.115725026 -0.2434939 0.28150025 0.20043455 -0.09863866 -0.37566254 -0.72824425 -0.032306764 0.021738164 0.0491686 -0.1742015 -0.008354404 -0.18503526 -0.1395637 0.1958833 0.120548695 -0.27494547 0.4391417 0.14740567 0.40737182 0.5417773 0.3575279 0.3038439 0.15839072 0.14177828 -0.29411024 0.43550032 -0.0754594 -0.17484596 0.015324798 -0.17118667 0.09930813 -0.6238374 0.46935514 0.27226982 -0.2518619 0.28119323 0.80167323 -0.011859654 -0.1904092 0.5673936 0.47228864 -0.20052378 -0.6795255 0.3193931 -0.044095274 0.32666972 -0.34566712 0.4900058 -0.10349397 0.20852217 0.10066796 -0.6486617 -0.111295044 -0.06758678 -0.35835955 0.36055058 -0.16112493 0.17749651 0.08794654 -0.28103128 0.19281834
Bloodbeard -0.25583985 -0.5493308 -0.3446612 -0.27979356 0.31336433 0.084411085 -0.08527221 -0.112343684 -0.15180843 -0.3316674 0.3063933 0.23629473 -0.08721614 0.2149992 -0.6586856 0.23169965 0.078189395 -0.31889498 -0.029602082 0.21956882 0.19059724 0.29634145 0.39061216 -0.083042815 0.17165288 0.15335062 -0.44217563 -0.59081763 0.24509363 0.14218953 0.036457714 -0.14455761 0.08932142 0.41571552 -0.5215878 0.34019038 0.14592457 -0.34058467 0.2616892 0.33855557 0.11036331 0.025082285 0.8239639 0.3508644 0.020325165 -0.5338303 0.18233861 -0.12592122 0.21141297 -0.48768887 0.6042007 -0.18762368 0.028183164 0.10531243 -0.19980739 -0.09968863 -0.33826086 -0.5591891 -0.010054067 0.21474895 0.30256966 0.26784238 0.069455914 -0.009485915
Goghor-the-Giant -0.47538626 -0.72955745 -0.64694166 -0.34445614 0.3376436 0.12674248 0.07133387 -0.6114107 -0.14036751 -0.25438413 0.02193209 -0.16776156 0.24712642 -0.17092091 -0.43170232 0.73635286 0.5794983 0.1887306 -0.28282043 0.15804227 0.16928808 0.102627 0.42853418 0.3697478 0.3123507 0.54636633 -0.64165276 -0.3129906 0.42056307 -0.061790574 -0.008146729 -0.0012460505 0.21764733 0.694426 -0.4161 0.23809059 -0.022161031 -0.23883606 0.47031552 0.29289913 0.06770375 0.1358423 0.48839194 0.48738176 -0.0056157256 -0.25693846 0.2322269 -0.22635141 0.06388053 -0.14562315 0.7369981 -0.6443287 0.051775567 -0.07798947 -0.4912758 -0.45873597 -0.38666588 -0.8730647 0.36615047 0.42151776 0.27859658 0.11366946 0.025856633 0.025201766
Pypar 0.1820437 -0.20572908 -0.70883125 -1.0543439 -0.36670634 0.09711766 -0.0803173 -0.40862292 0.138579 -0.17779651 0.047548793 -0.098600015 0.007529651 0.41041422 0.059686325 0.22506037 -0.78866035 0.15760225 0.42226684 0.36791053 -0.2859413 -0.078820944 -0.17630225 0.62224406 0.5345022 -0.81334937 0.025655773 0.5726423 0.002092486 0.12031097 0.31952086 0.086423546 0.1299283 0.0724776 -0.26980138 -0.39620394 -0.010549538 0.13658738 0.012168815 0.59046364 -0.13013686 -0.06700929 0.43957105 0.7071299 -0.32278255 0.040780075 0.074727885 0.91932416 0.2649642 0.3257517 0.14296724 0.753216 0.042571303 0.055726886 -0.46889383 -0.39713567 0.41303542 -0.21883345 -0.4741225 0.65419793 0.05948066 0.09578301 0.13747449 0.089938015
Belaquo -0.84811485 -0.62212497 -0.739166 -0.49032018 0.0020184042 0.10732359 0.08056997 -0.3977492 -0.2107768 -0.22644691 0.09982545 -0.07196081 0.40247402 -0.23370346 -0.32555497 0.44506234 0.34266388 0.11999838 -0.38847098 0.36565724 0.061734777 0.110927165 0.3526646 0.4360832 0.13976108 0.4998519 -0.41921845 -0.31287423 0.4177118 0.024275742 0.20574681 0.19823289 0.22364555 0.52216864 -0.38158804 0.35890156 0.07583099 -0.456669 0.27855277 0.5105207 0.034122337 0.10514392 0.36416718 0.58979154 -0.12465718 -0.33415914 0.34909907 -0.10667709 0.1165984 -0.06770379 0.9455213 -0.37666807 0.32902724 0.087591894 -0.51312476 -0.27888858 -0.39653203 -0.6398934 0.3695176 0.4154733 0.20478213 0.22481266 -0.26104602 0.074200414
Qarl-the-Maid -0.15824434 -0.18642236 -0.5352741 0.24566005 0.45073617 -0.42549548 -0.30436587 -0.5493454 -0.8001701 -0.012039784 -0.22447543 -0.22579758 0.04976765 0.23411368 -0.48577255 0.14041029 -0.9723324 -0.012765376 -0.05559465 -0.011643527 -0.12673315 0.004667807 0.4419409 0.09366393 0.45034444 -0.21157491 -0.47767273 -0.13184384 -0.25970003 0.26649925 0.52669924 0.11457443 0.4364355 -0.21954563 0.12425246 -0.04446177 -0.2406416 0.021200353 0.051520046 0.33996132 -0.553942 -0.25765848 0.25219348 0.21846494 0.16295679 0.35186735 -0.43675962 0.21320835 0.11482928 0.2644823 -0.09225516 0.53521425 -0.8334139 0.25763825 -0.25443593 0.034773063 -0.6317142 -0.48479116 0.005470362 -0.15614454 -0.13284363 0.06535491 -0.2980092 0.3326716
Tristifer-Botley 0.038780622 -0.1916315 -0.5116645 0.17572 0.27037132 -0.44501242 -0.36593592 -0.39492026 -0.8966305 0.1206064 -0.46076962 -0.2970795 -0.0034929104 0.2561781 -0.23839113 0.117647804 -0.9336481 -0.1036602 -0.17096666 -0.031605255 -0.19334154 0.12104299 0.38385952 0.11226376 0.43246415 -0.16919182 -0.567236 -0.19392261 -0.17153426 0.28213596 0.5651413 0.124836996 0.41156986 -0.108759716 0.1056715 -0.18771146 -0.12967442 -0.045264456 0.29221937 0.32501438 -0.61511844 -0.14883214 0.22353414 0.2950436 0.20779498 0.31603068 -0.38505125 0.4039957 -0.047567416 0.19670908 0.028129378 0.34328327 -0.9717973 0.15400563 -0.090842865 0.07903875 -0.7048913 -0.34234422 -0.036409035 0.17625152 -0.11539817 -0.013691787 -0.07783732 0.28191105
Pycelle -0.009463769 -0.44238493 0.3492176 0.30659854 0.12801042 -0.19308817 0.4387241 -0.10562074 -0.44480625 0.10454121 0.01365699 0.045303315 -0.086041644 -0.27238685 -0.08936705 1.2138892 0.017607432 0.06555287 -0.05107013 0.33298457 0.49148902 0.41223183 0.372241 -0.2140411 -0.03748022 -0.32674313 -0.39748988 -0.60489947 0.7542446 0.69285464 0.38158602 0.40025568 0.13675459 0.17485073 0.09262129 0.27117866 0.05301514 -0.37023917 0.09809087 0.34197477 -0.20433974 0.22886878 0.7452408 0.3184203 -0.31162584 -0.12298509 -0.24156977 0.5400029 -0.19618765 0.15197967 0.1943957 0.14802635 0.5716422 0.21600707 -0.461678 0.07658937 -0.30403554 -0.12963504 -0.06655985 0.16430917 0.10436021 0.04570652 -0.0652559 0.213181
Mors-Umber 0.14895377 -0.2475096 0.060689546 -0.24048318 0.42987198 -0.20264332 -0.3222374 -0.6024205 -0.064140216 -0.11494382 -0.10354284 0.20221761 -0.32544038 0.016171288 -0.2102974 0.049257003 -0.5159872 0.3733804 0.26813447 0.2811682 0.08757637 0.33275214 0.37703016 0.066411845 -0.0019692394 -0.2833637 -0.7420937 0.20188715 -0.10272941 0.086534284 0.43167105 -0.019155962 0.3776038 -0.5061047 -0.31909138 -0.26217407 -0.02250014 0.26985928 0.31260544 0.3211348 0.094163455 0.24998355 0.0072465874 0.23062801 0.15886015 0.38605022 0.11082143 0.095533386 -0.06596413 0.31274965 -0.061037336 0.346006 -0.15394732 0.012383752 0.12059242 0.5985182 -0.10841745 -0.48480707 0.47093013 0.063317716 -0.45559394 -0.46215677 0.13246958 -0.07974625
Qhorin-Halfhand -0.041270252 0.11862184 -0.47716472 -0.41364506 -0.42689714 -0.16855277 -0.47398037 -0.6989794 -0.3378067 -0.17981982 0.19047381 -0.14099903 -0.3799677 0.0431035 0.21844779 0.55830467 -0.4149428 -0.13128117 0.61695683 0.042831372 -0.64835286 0.33415863 -0.06688911 0.2353894 0.34716585 -0.61304647 -0.36224064 0.7576335 -0.54690194 -0.03506156 0.17700328 0.10794198 0.28315276 -0.41639388 -0.18729915 -0.34467918 0.17669436 -0.16493873 0.21258083 0.23645997 0.0003853811 -0.15246968 0.43635604 0.22089206 -0.51090115 0.3094976 0.16691628 0.27860966 0.5817238 -0.14800331 -0.043412898 -0.25324705 -0.16734262 -0.115733705 -0.7631697 -0.014759166 0.117044516 0.10097234 -0.23927101 0.52578044 -0.61550456 -0.11766643 -0.43756202 0.25010252
